tree
version=v4
num_class=1
num_tree_per_iteration=1
label_index=0
max_feature_idx=26
objective=regression
feature_names=marketCap peRatio beta rsi ma50 ma200 close volume volatility_10d momentum_5d ret1 ret5 ret10 sector_Communication_Services sector_Consumer_Defensive sector_Consumer_Discretionary sector_Consumer_Staples sector_Energy sector_Financial_Services sector_Financials sector_Healthcare sector_Industrials sector_Materials sector_Real_Estate sector_Software sector_Technology sector_Utilities
feature_infos=[19398000:4867776000000] [0.31368000000000001:8219.5448500000002] [-515798.57250670553:13.444039990702761] [0:98.102999999999994] [0.36459999999999998:740248.94700000004] [0.3926:742158.65500000003] [9.9999997473787516e-06:7210.81982421875] [0:323756100] [0:194.24506990387295] [-0.99999908256883052:613.20953703578846] [-0.99999907749079819:614.25765016443961] [-0.99999908256883052:613.20953703578846] [-0.99999908256883052:618.48622092225378] [0:1] none [0:1] [0:1] [0:1] none [0:1] [0:1] [0:1] [0:1] [0:1] none [0:1] [0:1]
tree_sizes=2710 2845 2847 2851 2864 2850 2853 2857 2841 2853 2862 2860 2865 2872 2868 2856 2899 2874 2879 2896 2889 2899 2890 2904 2906 2895 2909 2916 2917 2923 2915 2920 2896 2920 2876 2931 2912 2956 2929 2921 2920 2930 2936 2936 2939 2941 2939 2938 2945 2931 2958 2941 2923 2935 2911 2961 2930 2961 2942 2958 2947 2939 2948 2965 2949 2977 2963 2989 2940 2973 2957 2986 2967 2952 2979 2974 2947 2971 2972 2980 2981 2988 2977 2969 2976 2996 2987 2976 2969 2973 2984 2951 2965 2981 2948 2965 2945 2973 2966 2951 2967 2959 2947 2966 2962 2959 2959 2968 2950 2923 2974 2933 2954 2944 2950 2910 2924 2946 2943 2927 2894 2899 2925 2908 2898 2891 2891 2886 2907 2864 2909 2911 2900 2890 2886 2890 2879 2875 2908 2872 2899 2874 2884 2862 2872 2870 2884 2859 2859 2861 2862 2868 2869 2858 2860 2879 2851 2858 2866 2858 2860 2844 2858 2879 2864 2860 2846 2865 2841 2874 2838 2851 2888 2864 2847 2886 2888 2877 2836 2856 2883 2832 2872 2849 2878 2902 2885 2864 2850 2854 2872 2869 2841 2855 2864 2859 2889 2872 2834 2849 2832 2868 2828 2836 2840 2853 2840 2862 2841 2866 2845 2835 2852 2858 2871 2845 2858 2845 2872 2840 2832 2842 2840 2876 2855 2865 2866 2870 2850 2859 2851 2857 2881 2860 2874 2855 2848 2852 2860 2848 2878 2856 2847 2858 2874 2889 2848 2857 2818 2850 2853 2855 2886 2904 2878 2837 2859 2850 2872 2865 2833 2816 2872 2840 2851 2859 2839 2838 2817 2826 2870 2845 2875 2861 2848 2832 2843 2834 2833 2885 2822 2850 2861 2852 2855 2830 2836 2863 2828 2836 2861 2852 2836 2845 2866 2881 2845 2868 2852 2827 2827 2839 2842 2857 2858 2871 2831 2852 2828 2844 2818 2854 2841 2839 2873 2857 2854 2853 2816 2846 2884 2848 2814 2843 2873 2869 2807 2834 2842 2836 2847 2844 2882 2842 2888 2846 2808 2828 2877 2871 2829 2858 2838 2840 2820 2864 2813 2822 2865 2860 2833 2838 2857 2824 2844 2833 2845 2841 2828 2827 2852 2855 2849 2842 2842 2855 2880 2887 2846 2833 2837 2846 2857 2833 2824 2862 2849 2853 2836 2827 2858 2822 2837 2846 2852 2854 2864 2854 2841 2846 2816 2839 2850 2844 2841 2825 2842 2836 2851 2833

Tree=0
num_leaves=31
num_cat=0
split_feature=10 9 9 9 9 9 9 9 9 9 2 10 9 3 9 9 9 10 9 3 2 3 3 3 6 9 9 5 5 10
split_gain=99141.8 2844.06 373.895 310.955 196.61 32.3129 24.0834 10.8086 7.66969 5.61217 4.3372 3.13839 3.11658 2.35945 1.9269 1.43814 1.29408 1.2068 1.04813 0.481818 0.416311 0.394467 0.336449 0.296245 0.285599 0.216693 0.215481 0.183347 0.181655 0.173552
threshold=11.399177794160378 2.8573069296991771 6.0477200168942895 0.83676171183830095 -0.41652655234517222 0.20711420687522122 1.5426406954617105 -0.10653512279854326 -0.7112048028400656 0.013975035796498171 1.0401204089307157 1.9959421935603325 0.46637763921042324 44.146000000000008 -0.26033365984407048 0.087099576088416578 -0.84738467871022394 1.1916517898457759 -0.58636800185564775 61.358000000000011 1.4069794447564397 33.546500000000002 52.569500000000012 54.398000000000003 12.994999885559084 -0.056760267160614768 -0.15496187679850318 6.3195000000000006 2.9775000000000005 0.59128385380774451
decision_type=2 2 2 2 2 2 2 2 2 2 8 2 2 10 2 2 2 2 2 10 8 8 10 10 2 2 2 10 8 2
left_child=1 3 10 4 8 7 17 14 16 13 -3 -8 20 21 -6 23 -1 -5 -10 -17 -7 -9 -15 -11 -21 -23 28 -25 -16 -14
right_child=-2 2 -4 6 5 12 11 9 18 15 -12 -13 29 22 26 19 -18 -19 -20 24 -22 25 -24 27 -26 -27 -28 -29 -30 -31
leaf_value=0.43130558141121556 3.2755643432192554 0.70339299744889616 0.9075396505348432 0.53030819494054204 0.46204768278878661 0.49381769391870411 0.57256101779948865 0.47397178609691221 0.44514843008775329 0.4797048920762319 0.67394066590592749 0.59776320595071197 0.50874597235951513 0.47794503811619932 0.47310953121547272 0.48385369560695024 0.43876426041869027 0.54576533484980938 0.45367993888946523 0.49278117875035088 0.50133379414264867 0.47487005923303632 0.47961168648643182 0.48472424541377007 0.48629214566598816 0.4765151205786477 0.47211922320643485 0.48133740022349553 0.46848274779480542 0.51458959653198644
leaf_weight=126 32 25 32 23 72 58 21 301 72 312 25 30 24 775 27 118 108 28 72 30 27 281 497 50 39 696 198 199 99 27
leaf_count=126 32 25 32 23 72 58 21 301 72 312 25 30 24 775 27 118 108 28 72 30 27 281 497 50 39 696 198 199 99 27
internal_value=0.502582 0.482378 0.774081 0.476828 0.474738 0.478133 0.56309 0.477252 0.440335 0.478189 0.688667 0.587386 0.502068 0.477072 0.469446 0.481997 0.434748 0.538794 0.449414 0.485794 0.496205 0.475554 0.478596 0.480731 0.489113 0.476042 0.471091 0.482017 0.469474 0.51184
internal_weight=4424 4392 82 4310 4208 3830 102 3694 378 3298 50 51 136 2550 396 748 234 51 144 187 85 1278 1272 561 69 977 324 249 126 51
internal_count=4424 4392 82 4310 4208 3830 102 3694 378 3298 50 51 136 2550 396 748 234 51 144 187 85 1278 1272 561 69 977 324 249 126 51
is_linear=0
shrinkage=1


Tree=1
num_leaves=31
num_cat=0
split_feature=9 12 9 12 12 12 12 12 12 12 12 12 9 12 12 12 12 12 12 12 12 12 12 8 12 12 12 10 12 12
split_gain=89899.2 2526.23 347.301 261.666 178.106 37.3652 30.4965 23.3799 10.2683 9.24443 5.49757 3.58077 2.94267 2.28316 2.26978 1.41503 1.15889 0.741907 0.589733 0.439842 0.341103 0.336418 0.309475 0.254557 0.18163 0.180059 0.152499 0.139731 0.093856 0.0925102
threshold=11.035195934065362 2.7418705502372442 6.0477200168942895 0.66909551658388644 -0.34689026835938996 4.2722077746127978 1.511622369457893 0.095770270478993683 -0.059627384272587507 -0.68398318895316834 0.28524351497188843 1.1267371911809132 1.9571898834296355 -0.16791689142503738 0.01485466906328914 -0.84908014918212971 -0.48972880083811066 0.45957358148526178 0.17340333842727909 -0.020585223248998138 -0.10391613405961612 0.051016821884361192 -0.26251621915268886 0.24558510170272171 -0.77216942087056684 -0.57919685849506597 0.37247944233302771 -0.91321427501028307 0.1315016237199215 -0.41774708693082552
decision_type=2 2 2 2 2 2 2 2 2 2 2 2 2 2 2 2 2 2 2 2 2 2 2 2 2 2 2 2 2 2
left_child=1 3 5 4 9 -3 11 8 13 15 18 23 -8 22 19 27 25 26 28 -10 -15 -16 -6 -5 -17 -11 -12 -1 -9 -18
right_child=-2 2 -4 6 7 -7 12 10 14 16 17 -13 -14 20 21 24 29 -19 -20 -21 -22 -23 -24 -25 -26 -27 -28 -29 -30 -31
leaf_value=-0.069255521192270172 2.6405634954571724 0.13892070019946379 0.37847918793559077 0.013824266837588674 -0.038444393486888329 0.22374802430470786 0.060397758538072756 -0.018440144192549138 -0.025718296017466474 -0.0542703699182581 -0.0082889607139662209 0.03784901938017677 0.084647984340273097 -0.030143449843948723 -0.022350483903319781 -0.06241633825831943 -0.045725949770874449 0.0021794017068767811 -0.013400879082809979 -0.023969269719483571 -0.027691301181912421 -0.020475256702333106 -0.03380852178842933 0.020956691625443374 -0.058580269085036385 -0.049705263972282414 -0.0039659330340595369 -0.065914848446846017 -0.016567883195997286 -0.042141449699799223
leaf_weight=68 32 34 32 29 54 21 22 153 595 54 51 34 29 234 578 54 36 34 119 908 360 408 108 22 72 36 34 58 119 36
leaf_count=68 32 34 32 29 54 21 22 153 595 54 51 34 29 234 578 54 36 34 119 908 360 408 108 22 72 36 34 58 119 36
internal_value=-1.60287e-10 -0.0192391 0.24751 -0.0246298 -0.0268563 0.171309 0.0436203 -0.0234247 -0.0249888 -0.0579805 -0.0134728 0.0252802 0.0741871 -0.0300923 -0.0234387 -0.063971 -0.0486618 -0.00406285 -0.0163366 -0.0246617 -0.0286573 -0.0215745 -0.0353538 0.016901 -0.0602243 -0.0524443 -0.00655975 -0.0677178 -0.017621 -0.0439337
internal_weight=4424 4392 87 4305 4169 55 136 3755 3245 414 510 85 51 756 2489 252 162 119 391 1503 594 986 162 51 126 90 85 126 272 72
internal_count=4424 4392 87 4305 4169 55 136 3755 3245 414 510 85 51 756 2489 252 162 119 391 1503 594 986 162 51 126 90 85 126 272 72
is_linear=0
shrinkage=0.05


Tree=2
num_leaves=31
num_cat=0
split_feature=10 12 9 12 12 12 12 12 12 12 12 12 9 12 12 12 12 12 12 12 12 12 8 12 12 12 12 12 12 12
split_gain=81188.3 2274.49 310.774 236.153 160.741 33.7221 27.5231 21.1112 9.0857 8.3431 5.2531 3.23164 2.65576 2.07076 1.88663 1.27706 1.04759 0.669595 0.603939 0.420916 0.320883 0.295043 0.229738 0.223542 0.163922 0.162001 0.127444 0.0998714 0.0895734 0.0813481
threshold=11.399177794160378 2.7418705502372442 6.0477200168942895 0.66909551658388644 -0.34689026835938996 4.2722077746127978 1.511622369457893 0.09062151231254735 -0.065704337707874524 -0.68398318895316834 0.28524351497188843 1.1267371911809132 1.9571898834296355 0.010444134964089248 -0.17524722018572095 -0.84908014918212971 -0.54210366508977659 0.41203693905935351 0.16663829472073424 -0.024292040798747857 0.045437525573105327 -0.11578766122849192 0.24558510170272171 -0.26251621915268886 -0.77216942087056684 -0.41774708693082552 -0.9311893149057292 0.21870336397730997 0.12289480890088235 -0.63002729446958883
decision_type=2 2 2 2 2 2 2 2 2 2 2 2 2 2 2 2 2 2 2 2 2 2 2 2 2 2 2 2 2 2
left_child=1 3 5 4 9 -3 11 8 14 15 18 22 -8 19 23 26 29 -12 28 -10 -15 -16 -5 -6 -17 -18 -1 -20 -9 -11
right_child=-2 2 -4 6 7 -7 12 10 13 16 17 -13 -14 20 21 24 25 -19 27 -21 -22 -23 -24 -25 -26 -27 -28 -29 -30 -31
leaf_value=-0.066168037277680863 2.5093739055097104 0.1319746627527125 0.35871667638421062 0.013133053481578828 -0.036522173495204362 0.21256061678840998 0.057377870516343556 -0.017867878790384803 -0.024646857668872642 -0.052404726545015969 -0.0071078364846899229 0.035956568753018101 0.080415584301126428 -0.021458050019406025 -0.029198610170019998 -0.059295522504382664 -0.044364518534254146 0.00047113254333061046 -0.014046926445820751 -0.022922749411596041 -0.019690072152139915 -0.026723897334311037 0.019908856939185749 -0.032452935576438906 -0.05565125511752235 -0.040034377657704887 -0.062954736832115388 -0.011248168057086422 -0.016104306302526416 -0.049043424675862
leaf_weight=54 32 34 32 29 54 21 22 153 595 36 68 34 29 612 180 54 54 51 85 874 442 364 22 90 72 36 72 51 136 36
leaf_count=54 32 34 32 29 54 21 22 153 595 36 68 34 29 612 180 54 54 51 85 874 442 364 22 90 72 36 72 51 136 36
internal_value=-2.93591e-11 -0.0182832 0.234826 -0.0233983 -0.0255134 0.162744 0.0414393 -0.0222535 -0.0237966 -0.0550814 -0.0131451 0.0240162 0.0704777 -0.0224077 -0.0288898 -0.0607725 -0.0462287 -0.00385971 -0.015745 -0.0236211 -0.0207166 -0.0275427 0.0160559 -0.0339789 -0.0572131 -0.0426325 -0.0643319 -0.0129974 -0.017038 -0.0507241
internal_weight=4424 4392 87 4305 4169 55 136 3755 3211 414 544 85 51 2523 688 252 162 119 425 1469 1054 544 51 144 126 90 126 136 289 72
internal_count=4424 4392 87 4305 4169 55 136 3755 3211 414 544 85 51 2523 688 252 162 119 425 1469 1054 544 51 144 126 90 126 136 289 72
is_linear=0
shrinkage=0.05


Tree=3
num_leaves=31
num_cat=0
split_feature=9 12 9 12 12 12 9 12 12 12 12 12 12 12 10 12 12 12 12 12 12 12 12 12 12 3 12 10 12 12
split_gain=73634.5 2016.68 263.03 213.128 145.069 30.4342 24.937 19.058 7.97494 7.52965 5.10761 3.65185 1.76942 1.61541 1.30315 1.15255 0.954182 0.645094 0.621564 0.351749 0.297816 0.236578 0.201747 0.151776 0.145794 0.137882 0.125224 0.116172 0.109064 0.0910949
threshold=11.035195934065362 2.7418705502372442 6.0477200168942895 0.66909551658388644 -0.34689026835938996 4.2722077746127978 1.5426406954617105 0.083539581788044562 -0.068685355848431648 -0.68398318895316834 0.28524351497188843 1.1267371911809132 0.0057543934578198072 -0.17524722018572095 1.9959421935603325 -0.84908014918212971 -0.48972880083811066 0.15976699936358832 0.45957358148526178 -0.029789228928792096 0.037843350669525606 -0.12198695661762292 -0.26251621915268886 -0.75158480290150775 -0.57919685849506597 59.932500000000005 0.37247944233302771 -0.91321427501028307 0.21870336397730997 0.1151082273487687
decision_type=2 2 2 2 2 2 2 2 2 2 2 2 2 2 2 2 2 2 2 2 2 2 2 2 2 10 2 2 2 2
left_child=1 3 5 4 9 -3 11 8 13 15 17 25 19 22 -8 27 24 29 26 -10 -14 -15 -6 -17 -11 -5 -12 -1 -19 -9
right_child=-2 2 -4 6 7 -7 14 10 12 16 18 -13 20 21 -16 23 -18 28 -20 -21 -22 -23 -24 -25 -26 -27 -28 -29 -30 -31
leaf_value=-0.062517422087052285 2.3897874929010867 0.12537592824767618 0.33489860072731975 0.017341356075579122 -0.034696064723862545 0.20193258807772685 0.06013289377802894 -0.01723103128015039 -0.023619008437505938 -0.048992636965380781 -0.0075191211758875373 0.035578136948438796 -0.020650090126535528 -0.027999799098405578 0.077028233528137202 -0.055855282561646569 -0.039627042743894794 -0.013517610326993699 0.0020468749722246742 -0.021975976861096213 -0.019011056758690074 -0.025607474771190866 -0.030830288661850825 -0.052348625328805715 -0.044884801904360457 0.012016434669494629 -0.0036017188066205779 -0.059471371769905093 -0.010685759578265397 -0.015530329866006094
leaf_weight=68 32 34 32 31 54 21 21 187 527 54 51 39 633 144 25 72 72 102 34 853 493 366 90 54 36 20 34 58 51 136
leaf_count=68 32 34 32 31 54 21 21 187 527 54 51 39 633 144 25 72 72 102 34 853 493 366 90 54 36 20 34 58 51 136
internal_value=2.80689e-10 -0.0174119 0.220921 -0.0222284 -0.0242378 0.154607 0.0393673 -0.0211408 -0.0226865 -0.0523274 -0.0129318 0.0240606 -0.0214033 -0.0276034 0.0693151 -0.0577339 -0.0439173 -0.0152481 -0.00366672 -0.0226034 -0.0199325 -0.026283 -0.03228 -0.0543524 -0.0473495 0.0152532 -0.00595216 -0.0611153 -0.0125737 -0.0165149
internal_weight=4424 4392 87 4305 4169 55 136 3755 3160 414 595 90 2506 654 46 252 162 476 119 1380 1126 510 144 126 90 51 85 126 153 323
internal_count=4424 4392 87 4305 4169 55 136 3755 3160 414 595 90 2506 654 46 252 162 476 119 1380 1126 510 144 126 90 51 85 126 153 323
is_linear=0
shrinkage=0.05


Tree=4
num_leaves=31
num_cat=0
split_feature=10 12 12 10 12 12 12 12 12 12 9 12 12 12 12 12 12 12 12 12 12 12 12 12 12 12 12 12 12 12
split_gain=66486.7 1817.75 272.584 156.581 133.509 26.6484 25.1476 9.64162 6.79551 4.32918 4.20779 3.16775 2.25901 2.1492 1.044 0.861149 0.755756 0.552049 0.443837 0.370234 0.330728 0.160189 0.13286 0.1061 0.10421 0.0900842 0.0846525 0.0734657 0.0732114 0.0666804
threshold=11.399177794160378 3.4945641487459547 0.9107523304455114 6.1846678216089064 -0.34689026835938996 1.9357385197259827 0.19518961901175705 -0.03997692932068108 -0.68398318895316834 0.53856930176731688 2.3183785036855098 0.056499417443840801 -0.14684475509841791 1.2555588700797917 -0.82008724274179434 -0.48972880083811066 0.34048757287427339 0.00719770663456032 0.11207648918562053 -0.21777247906885985 -0.086963128215936034 -0.90902327640918867 -0.63002729446958883 0.25597454202835995 -0.012001185889912279 0.028183209198861973 -0.75158480290150775 0.41203693905935351 -0.41774708693082552 -0.29065787758162331
decision_type=2 2 2 2 2 2 2 2 2 2 2 2 2 2 2 2 2 2 2 2 2 2 2 2 2 2 2 2 2 2
left_child=1 2 4 -3 8 13 7 12 14 16 -7 17 19 -4 21 22 23 24 -13 29 -14 -1 -10 -8 -9 -19 -16 -18 -17 -6
right_child=-2 3 5 -5 6 10 9 11 15 -11 -12 18 20 -15 26 28 27 25 -20 -21 -22 -23 -24 -25 -26 -27 -28 -29 -30 -31
leaf_value=-0.059301901608705521 2.2708373319823294 0.16758561165709246 0.024606019302326091 0.31769977137446404 -0.033640772187047537 0.064818099682981328 -0.011289437564418596 -0.021520790194763856 -0.047334858526786171 0.0088407973850182456 0.093816359084227988 -0.017138593182844275 -0.025122570771920056 0.042384070070350874 -0.052530872711428894 -0.039240074985557136 -0.0050321835257551252 -0.019794510650411424 -0.014376059096997679 -0.027775104131017414 -0.022995992001949572 -0.055966600361797549 -0.04341347267230352 -0.0082725310515539326 -0.020528127470194533 -0.01875556340696765 -0.049731194917802458 -0.0017452737242873648 -0.03605130629407035 -0.030862707396348318
leaf_weight=72 32 38 34 32 36 22 68 510 36 51 29 425 285 34 54 36 34 427 221 126 510 72 54 51 549 408 54 34 36 54
leaf_count=72 32 38 34 32 36 22 68 510 36 51 29 425 285 34 54 36 34 427 221 126 510 72 54 51 549 408 54 34 36 54
internal_value=-2.81319e-10 -0.0165453 -0.0206389 0.236209 -0.0227518 0.053986 -0.0198061 -0.0208607 -0.049711 -0.00407199 0.0813073 -0.019217 -0.0249903 0.033495 -0.0548472 -0.0417214 -0.00759366 -0.0202482 -0.0161935 -0.0295246 -0.0237584 -0.0576343 -0.044982 -0.00999648 -0.0210062 -0.0192869 -0.051131 -0.00338873 -0.0376457 -0.0319739
internal_weight=4424 4392 4322 70 4203 119 3789 3551 414 238 51 2540 1011 68 252 162 187 1894 646 216 795 144 90 119 1059 835 108 68 72 90
internal_count=4424 4392 4322 70 4203 119 3789 3551 414 238 51 2540 1011 68 252 162 187 1894 646 216 795 144 90 119 1059 835 108 68 72 90
is_linear=0
shrinkage=0.05


Tree=5
num_leaves=31
num_cat=0
split_feature=11 12 12 12 12 12 11 12 12 12 12 12 11 12 12 12 12 12 12 12 12 12 8 12 12 12 12 12 12 12
split_gain=60314.2 1610.28 199.77 173.502 118.152 20.3291 16.2196 15.5477 6.4547 6.13373 4.23186 2.32597 1.90532 1.42697 1.28977 1.17279 0.620789 0.56374 0.439824 0.288041 0.243784 0.22733 0.174019 0.14457 0.125175 0.1225 0.0773251 0.0705742 0.069228 0.0660732
threshold=11.035195934065362 2.7418705502372442 5.6540212123951026 0.66909551658388644 -0.34689026835938996 1.511622369457893 3.5498521383158406 0.080388942442199976 -0.070426262371758072 -0.65133755157195961 0.25597454202835995 1.1267371911809132 1.9571898834296355 0.0015275295220339438 -0.18994196698661905 -0.82008724274179434 0.41203693905935351 -0.48972880083811066 0.14897475369363603 0.034022065166251732 -0.034023113076050264 -0.1260389493331743 0.24558510170272171 -0.90902327640918867 -0.73275977266394399 -0.26251621915268886 0.34048757287427339 0.19518961901175705 -0.57919685849506597 -0.41774708693082552
decision_type=2 2 2 2 2 2 2 2 2 2 2 2 2 2 2 2 2 2 2 2 2 2 2 2 2 2 2 2 2 2
left_child=1 3 6 4 9 11 -3 8 14 15 18 22 -7 20 25 23 26 28 -9 -15 -10 -16 -5 -1 -17 -6 -12 -20 -11 -19
right_child=-2 2 -4 5 7 12 -8 10 13 17 16 -13 -14 19 21 24 -18 29 27 -21 -22 -23 -24 -25 -26 -27 -28 -29 -30 -31
leaf_value=-0.056336805969476704 2.1628597740083935 0.10118050873279572 0.28739053441418544 0.011241824205579429 -0.031325524548689525 0.049373650008981883 0.15811361855474013 -0.015144638848655365 -0.021468964501533634 -0.043570695320765185 -0.0078589045826126559 0.030668970942497254 0.068886854525270144 -0.018828953674561541 -0.025560855886174572 -0.049512011516425349 0.00035020450892511246 -0.037278070218033262 -0.012804485083210701 -0.01729991912622662 -0.020021086628695606 -0.023216656983223533 0.017138992012901741 -0.053168272309833099 -0.046327437570801488 -0.028175168318880929 -0.0047805743949378247 -0.010724965680171462 -0.040469888680511053 -0.034248740971088411
leaf_weight=72 32 22 36 29 54 22 29 306 459 36 51 34 29 710 144 72 51 36 102 544 793 367 22 72 54 72 34 68 36 36
leaf_count=72 32 22 36 29 54 22 29 306 459 36 51 34 29 710 144 72 51 36 102 544 793 367 22 72 54 72 34 68 36 36
internal_value=1.01519e-10 -0.0157585 0.197211 -0.0200624 -0.0218754 0.0355129 0.133554 -0.0190805 -0.0205002 -0.0472255 -0.0117894 0.020539 0.0604694 -0.0193578 -0.0249945 -0.05167 -0.00401091 -0.0388918 -0.0140118 -0.0181656 -0.0205519 -0.0238773 0.0137857 -0.0547525 -0.0481472 -0.0295253 -0.00662757 -0.0119727 -0.0420203 -0.0357634
internal_weight=4424 4392 87 4305 4169 136 51 3755 3143 414 612 85 51 2506 637 270 136 144 476 1254 1252 511 51 144 126 126 85 170 72 72
internal_count=4424 4392 87 4305 4169 136 51 3755 3143 414 612 85 51 2506 637 270 136 144 476 1254 1252 511 51 144 126 126 85 170 72 72
is_linear=0
shrinkage=0.05


Tree=6
num_leaves=31
num_cat=0
split_feature=10 12 9 12 12 12 9 12 12 12 12 12 12 12 10 12 12 12 12 12 12 12 8 12 12 12 9 12 12 12
split_gain=54449.3 1451.74 180.785 156.586 106.632 23.6271 18.3962 14.051 6.14458 5.54133 3.368 2.64381 1.47659 1.24339 0.915525 0.856357 0.70861 0.505294 0.350869 0.271138 0.228091 0.212641 0.157052 0.149409 0.114502 0.11315 0.0898412 0.0829528 0.0696942 0.0543722
threshold=11.399177794160378 2.7418705502372442 6.0477200168942895 0.66909551658388644 -0.34689026835938996 4.2722077746127978 1.5426406954617105 0.093228749457712881 -0.055259382510882631 -0.68398318895316834 0.30578965804712815 1.1267371911809132 -0.1616247143053163 0.020090552144291233 1.9959421935603325 -0.84908014918212971 -0.54210366508977659 0.18320111998822355 0.45957358148526178 -0.013769030425674565 -0.23529134727716947 -0.098462369511498657 0.24558510170272171 0.05769964805047912 -0.46521282836506522 -0.77216942087056684 -0.94860995504789702 0.13504102406390819 0.23886730478861398 -0.63002729446958883
decision_type=2 2 2 2 2 2 2 2 2 2 2 2 2 2 2 2 2 2 2 2 2 2 2 2 2 2 2 2 2 2
left_child=1 3 5 4 9 -3 11 8 12 15 17 22 20 19 -8 26 29 27 -12 -10 -6 -14 -5 -15 -18 -17 -1 -9 -19 -11
right_child=-2 2 -4 6 7 -7 14 10 13 16 18 -13 21 23 -16 25 24 28 -20 -21 -22 -23 -24 -25 -26 -27 -28 -29 -30 -31
leaf_value=-0.05452796071767807 2.0550133857032051 0.1065083591377034 0.28173357620835304 0.0106797329696088 -0.029312320260537997 0.17396238077254522 0.051763042097999937 -0.014246785186510036 -0.019697947758523859 -0.042720663299163186 -0.0044712007100529529 0.030390165784420109 -0.023118012741444604 -0.017070560906341372 0.065924379229545596 -0.048317638039588932 -0.036875957167810863 -0.010798238217830658 0.0017496328965267715 -0.018366634431433625 -0.025679178066827638 -0.021239943079153698 0.016282042420723224 -0.015697070737095441 -0.033235548547020669 -0.045289886618653935 -0.051572531660397852 -0.012558087575085024 -0.0083531064730064542 -0.039972629066970612
leaf_weight=36 32 34 32 29 72 21 21 187 680 36 68 39 252 561 25 54 36 68 34 874 108 375 22 306 54 72 90 119 51 36
leaf_count=36 32 34 32 29 72 21 21 187 680 36 68 39 252 561 25 54 36 68 34 874 108 375 22 306 54 72 90 119 51 36
internal_value=2.77734e-10 -0.0149728 0.187241 -0.0190593 -0.0207816 0.132264 0.0337373 -0.0181265 -0.0193623 -0.0448642 -0.0105567 0.0205904 -0.0231407 -0.0181028 0.0594594 -0.0495022 -0.0376495 -0.0125149 -0.00239759 -0.0189492 -0.0271324 -0.0219948 0.0130964 -0.0165858 -0.0346917 -0.0465875 -0.0524169 -0.0135901 -0.00975032 -0.0413466
internal_weight=4424 4392 87 4305 4169 55 136 3755 3228 414 527 90 807 2421 46 252 162 425 102 1554 180 627 51 867 90 126 126 306 119 72
internal_count=4424 4392 87 4305 4169 55 136 3755 3228 414 527 90 807 2421 46 252 162 425 102 1554 180 627 51 867 90 126 126 306 119 72
is_linear=0
shrinkage=0.05


Tree=7
num_leaves=31
num_cat=0
split_feature=9 12 12 12 12 12 9 12 12 12 12 12 9 12 12 12 12 12 12 10 12 12 12 12 12 12 12 12 9 12
split_gain=49404.9 1284.53 151.982 141.318 96.2526 16.6506 13.5876 12.9138 5.7691 4.13082 3.6014 1.96691 1.56631 1.27521 1.21151 0.613928 0.587687 0.513123 0.396243 0.325783 0.275512 0.190382 0.171513 0.123567 0.109506 0.0756463 0.0637469 0.0573282 0.0548128 0.0519729
threshold=11.035195934065362 2.7418705502372442 5.6540212123951026 0.66909551658388644 -0.37983372437790958 1.511622369457893 3.5498521383158406 0.075284421858803144 -0.079669403035239381 -0.70585766108035075 0.25597454202835995 0.9107523304455114 1.9571898834296355 -0.0041114887772219491 -0.20306394996612112 -0.87733718977757735 -0.54210366508977659 0.41203693905935351 0.14897475369363603 1.1916517898457759 0.029999009734288488 -0.041223114411537747 -0.13241744615286358 -0.29065787758162331 -0.79710046112065458 -0.63002729446958883 0.34048757287427339 0.20563609801709951 -0.94860995504789702 -0.46521282836506522
decision_type=2 2 2 2 2 2 2 2 2 2 2 2 2 2 2 2 2 2 2 2 2 2 2 2 2 2 2 2 2 2
left_child=1 3 6 4 9 11 -3 8 14 15 18 -5 -7 21 23 28 25 26 -9 -13 -15 -10 -16 -6 -17 -11 -12 -20 -1 -18
right_child=-2 2 -4 5 7 12 -8 10 13 16 17 19 -14 20 22 24 29 -19 27 -21 -22 -23 -24 -25 -26 -27 -28 -29 -30 -31
leaf_value=-0.051801563468244341 1.9575075735338032 0.090796062079342932 0.25460727572984376 0.0091834535384002856 -0.029294704397519428 0.04457607892426578 0.14290542314792504 -0.013758821824894234 -0.019654450265530549 -0.040932944968894679 -0.0071130023429206773 0.020941342468614933 0.062268371314838013 -0.017174222756709372 -0.023349969699564908 -0.046773268834308344 -0.035032159255610575 0.00034889320012035911 -0.011403453581723847 0.02894764629503091 -0.015755900119312084 -0.01832792045952087 -0.021250702460606896 -0.026130659257372221 -0.043794672480887836 -0.037973998900916843 -0.0043179856887196793 -0.0093998115582793369 -0.049412072698275251 -0.032345440487066911
leaf_weight=36 32 22 36 34 54 22 29 340 442 54 51 27 29 840 144 54 36 51 119 24 578 697 300 72 72 36 34 51 72 36
leaf_count=36 32 22 36 34 54 22 29 340 442 54 51 27 29 840 144 54 36 51 119 24 578 697 300 72 72 36 34 51 72 36
internal_value=-2.58235e-10 -0.0142624 0.17595 -0.0181064 -0.0197426 0.0320504 0.120427 -0.0172813 -0.0186108 -0.0431933 -0.0108455 0.0184988 0.0546364 -0.0175968 -0.0231595 -0.0474423 -0.0370558 -0.00361604 -0.0127733 0.024709 -0.0165961 -0.0188427 -0.0219315 -0.0274867 -0.0450712 -0.0397494 -0.005995 -0.0108024 -0.0502086 -0.0336888
internal_weight=4424 4392 87 4305 4169 136 51 3773 3127 396 646 85 51 2557 570 234 162 136 510 51 1418 1139 444 126 126 90 85 170 108 72
internal_count=4424 4392 87 4305 4169 136 51 3773 3127 396 646 85 51 2557 570 234 162 136 510 51 1418 1139 444 126 126 90 85 170 108 72
is_linear=0
shrinkage=0.05


Tree=8
num_leaves=31
num_cat=0
split_feature=10 9 9 10 9 8 9 10 9 9 9 8 9 9 9 3 8 10 9 9 8 9 3 8 4 8 3 9 9 3
split_gain=44591.6 1158.32 136.428 124.478 86.5193 16.2619 14.0403 10.4382 4.75463 3.43238 2.22144 1.95535 1.41464 1.12139 1.0767 1.01294 0.618787 0.586119 0.446884 0.426368 0.29468 0.25187 0.207266 0.176176 0.154468 0.143945 0.197086 0.13334 0.129131 0.102501
threshold=11.399177794160378 2.8573069296991771 0.83676171183830095 6.1846678216089064 -0.41652655234517222 1.3534814394274479 0.20711420687522122 1.7104346753605313 -0.086248765405995562 -0.73195567919373161 0.029963767721891469 0.6659373074096504 0.57720251058728367 -0.26033365984407048 1.3480874902198374 44.146000000000008 0.087159679920874311 -0.56763643127471719 -0.87886413091980187 0.087099576088416578 0.14509465285745718 -0.12805999860984477 61.358000000000011 0.067591679158689646 6.7060000000000004 0.050010654070729611 52.716500000000003 0.27446558371139312 -0.024088041620834218 59.583000000000006
decision_type=2 2 2 2 2 2 2 2 2 2 2 2 2 2 2 10 2 2 2 2 2 2 10 2 8 2 10 2 2 10
left_child=1 2 4 5 9 -3 8 14 13 18 15 -9 20 -6 -4 23 25 -11 -1 29 27 -15 -21 28 -24 -17 -27 -8 -10 -12
right_child=-2 3 7 -5 6 -7 12 11 10 17 19 -13 -14 21 -16 16 -18 -19 -20 22 -22 -23 24 -25 -26 26 -28 -29 -30 -31
leaf_value=-0.047698424480579517 1.8597088132053614 0.099060908679304449 0.019972374027266222 0.24961421445477755 -0.026840769249894137 0.15683481806800481 -0.0073970525014785031 0.047824243828654293 -0.017972132012813908 -0.038452844534601488 -0.014639619770129836 0.068461117961189963 0.0083857962423387698 -0.021447915173377154 0.03416821170936931 -0.016011328173843872 -0.0079283765889704236 -0.032391478918807608 -0.043149898008063986 -0.012434970173921625 0.0015898803006047788 -0.019177234721671644 -0.0054085634294010346 -0.021487525949875515 -0.010549988954153378 -0.015860862431467556 -0.011378146939706513 -0.0031901517824735495 -0.016852426212963633 -0.012642485217386208
leaf_weight=108 32 29 34 32 72 21 31 24 790 91 254 22 34 216 22 1269 25 71 108 118 23 281 21 30 48 61 41 48 382 86
leaf_count=108 32 29 34 32 72 21 31 24 790 91 254 22 34 216 22 1269 25 71 108 118 23 281 21 30 48 61 41 48 382 86
internal_value=-3.1099e-10 -0.0135498 -0.0170916 0.172609 -0.0184766 0.123326 -0.0162242 0.040046 -0.0168051 -0.0412979 -0.0160396 0.0576941 -0.000446703 -0.0210089 0.0255493 -0.01664 -0.0157239 -0.0357963 -0.0454242 -0.0130797 -0.00339087 -0.0201641 -0.0111621 -0.017704 -0.00898521 -0.0158661 -0.014059 -0.00484096 -0.0176072 -0.0141345
internal_weight=4424 4392 4310 82 4208 50 3830 102 3694 378 3125 46 136 569 56 2598 1396 162 216 527 102 497 187 1202 69 1371 102 79 1172 340
internal_count=4424 4392 4310 82 4208 50 3830 102 3694 378 3125 46 136 569 56 2598 1396 162 216 527 102 497 187 1202 69 1371 102 79 1172 340
is_linear=0
shrinkage=0.05


Tree=9
num_leaves=31
num_cat=0
split_feature=11 11 11 11 11 11 11 11 11 11 3 11 10 11 11 11 11 11 11 3 11 4 3 0 3 3 3 10 5 3
split_gain=40469.9 1023.2 140.832 85.1319 76.4355 22.3809 8.5445 7.27315 3.82899 3.09772 1.53015 1.45246 1.01137 0.823885 0.750464 0.533981 0.403313 0.292245 0.278612 0.18744 0.12674 0.122375 0.115841 0.147819 0.0958848 0.0949441 0.09394 0.0952258 0.111192 0.0997929
threshold=11.035195934065362 2.3183785036855098 6.0477200168942895 -0.41652655234517222 0.57720251058728367 3.5498521383158406 1.3480874902198374 0.087099576088416578 -0.10653512279854326 -0.73195567919373161 47.164500000000011 0.24461505143578535 1.7104346753605313 0.83676171183830095 -0.26033365984407048 -0.58636800185564775 -0.87886413091980187 0.0090591562779792651 -0.050676406284992308 61.358000000000011 -0.0053101015483572036 6.7060000000000004 61.028000000000006 1925954399.5000002 34.647500000000008 27.114000000000001 30.797000000000004 -0.034509826304602746 2.9775000000000005 42.679000000000009
decision_type=2 2 2 2 2 2 2 2 2 2 10 2 2 2 2 2 2 2 2 10 2 8 10 10 10 8 10 2 8 10
left_child=1 3 5 9 7 -3 13 8 14 16 18 19 -8 -6 -5 -11 -1 -12 24 -9 25 -21 -13 -24 -10 -20 -16 -28 29 -29
right_child=-2 2 -4 4 6 -7 12 11 10 15 17 22 -14 -15 26 -17 -18 -19 20 21 -22 -23 23 -25 -26 -27 27 28 -30 -31
leaf_value=-0.045313503813964352 1.7716783440206201 0.076329437950078183 0.23230431950651109 -0.025498730836746593 0.007966506377081661 0.1341324137918877 0.032459800216284668 -0.011454235611017794 -0.018422344623549473 -0.03657406353288227 -0.014950928819847381 -0.0045116317171890003 0.046676512936065943 0.018973755705005983 -0.02126049040549103 -0.030797054390940406 -0.040992403554695626 -0.013422837253818487 -0.019406773735369958 -0.0052737990718172943 -0.015375290831694236 -0.0096411775261655737 0.0024242832307936626 -0.0032933008373500065 -0.017080893144209127 -0.01644268658482052 -0.020841681416312312 -0.018970143341499827 -0.019495956905377219 -0.014361222390046655
leaf_weight=108 32 34 32 72 34 33 22 128 206 90 936 39 29 34 87 72 108 470 28 23 325 53 20 26 377 769 73 23 117 24
leaf_count=108 32 34 32 72 34 33 22 128 206 90 936 39 29 34 87 72 108 470 28 23 325 53 20 26 377 769 73 23 117 24
internal_value=9.42664e-11 -0.0129084 0.146013 -0.0165733 -0.0143854 0.1048 0.0250731 -0.0156224 -0.0162507 -0.039233 -0.0156612 -0.00799832 0.0405438 0.0134701 -0.0208814 -0.0340065 -0.043153 -0.0144401 -0.0166682 -0.0102864 -0.0162075 -0.00831947 -0.00250699 -0.000807395 -0.0175549 -0.0165468 -0.0198553 -0.0193395 -0.0186708 -0.0166167
internal_weight=4424 4392 99 4293 3915 67 119 3796 3507 378 3111 289 51 68 396 162 216 1406 1705 204 1122 76 85 46 583 797 324 237 164 47
internal_count=4424 4392 99 4293 3915 67 119 3796 3507 378 3111 289 51 68 396 162 216 1406 1705 204 1122 76 85 46 583 797 324 237 164 47
is_linear=0
shrinkage=0.05


Tree=10
num_leaves=31
num_cat=0
split_feature=9 12 12 12 12 12 10 12 12 12 12 12 9 12 12 12 12 12 12 12 12 9 12 12 2 12 12 12 12 12
split_gain=36524.1 925.457 104.571 104.362 71.264 12.0834 10.0157 9.77317 4.30515 4.08121 2.192 1.42545 1.10116 0.88361 0.867061 0.710624 0.43743 0.320401 0.245209 0.161909 0.148409 0.127268 0.11615 0.115307 0.0737619 0.053953 0.0526594 0.0484616 0.0398389 0.0394405
threshold=11.035195934065362 2.7418705502372442 0.66909551658388644 5.6540212123951026 -0.31168979533590546 1.511622369457893 3.5098660848625687 0.095770270478993683 -0.65133755157195961 -0.049395284942666477 0.30578965804712815 1.1267371911809132 1.9571898834296355 -0.13903085799366235 0.021044769497029384 -0.79710046112065458 -0.48972880083811066 0.18320111998822355 0.45957358148526178 -0.0093813474316259953 -0.20306394996612112 -0.90975528819722762 -0.091301872748567034 0.059248401901154664 1.1129665836357925 -0.41774708693082552 0.23886730478861398 0.12679355370913328 0.37247944233302771 -0.73275977266394399
decision_type=2 2 2 2 2 2 2 2 2 2 2 2 2 2 2 2 2 2 2 2 2 2 2 2 8 2 2 2 2 2
left_child=1 2 4 6 8 11 -3 9 15 13 17 24 -7 20 19 21 -10 27 28 -11 -6 -1 -15 -16 -4 -18 -19 -9 -12 -17
right_child=-2 3 5 -5 7 12 -8 10 16 14 18 -13 -14 22 23 29 25 26 -20 -21 -22 -23 -24 -25 -26 -27 -28 -29 -30 -31
leaf_value=-0.043687723577022552 1.6830944317160175 0.078731827632240625 0.012653153690581138 0.21436933527390162 -0.023000590238306258 0.038425171781669966 0.12326187235968454 -0.011503541075131473 -0.032621105015277867 -0.015929760717126838 -0.0046664911760565114 0.024005516399355498 0.053259589651535301 -0.018642769574863206 -0.013824549058382525 -0.037840338548024495 -0.028891744133498931 -0.0086450304616900054 0.0017442340698942322 -0.014890563826068424 -0.020342187890930785 -0.04086739593082004 -0.017243503651344309 -0.012617942145447326 0.0088493828922510155 -0.026392832701956789 -0.0065196250437521462 -0.010206353367348903 -0.0022460254457067042 -0.035929344097773236
leaf_weight=72 32 23 26 36 90 22 28 136 72 714 34 34 29 233 561 54 36 68 34 789 126 90 408 306 25 54 51 153 34 54
leaf_count=72 32 23 26 36 90 22 28 136 72 714 34 34 29 233 561 54 36 68 34 789 126 90 408 306 25 54 51 153 34 54
internal_value=6.98571e-11 -0.012263 -0.0155258 0.149189 -0.0169333 0.0276198 0.10318 -0.0147106 -0.0361601 -0.0157271 -0.0082787 0.0160753 0.0468604 -0.0186841 -0.0146579 -0.0400265 -0.0297163 -0.00991769 -0.00172276 -0.0153842 -0.0214499 -0.0421209 -0.0177521 -0.0133987 0.0107886 -0.0273924 -0.00773414 -0.0108168 -0.00345626 -0.0368848
internal_weight=4424 4392 4305 87 4169 136 51 3737 432 3227 510 85 51 857 2370 270 162 408 102 1503 216 162 641 867 51 90 119 289 68 108
internal_count=4424 4392 4305 87 4169 136 51 3737 432 3227 510 85 51 857 2370 270 162 408 102 1503 216 162 641 867 51 90 119 289 68 108
is_linear=0
shrinkage=0.05


Tree=11
num_leaves=31
num_cat=0
split_feature=9 12 12 9 12 12 12 12 12 12 12 12 9 12 12 8 12 12 12 9 12 12 12 12 8 12 12 12 12 12
split_gain=32963 835.225 94.3754 94.2879 64.3157 15.1283 10.9053 8.8238 3.8854 3.60082 2.09722 1.31575 0.993799 0.779714 0.73926 0.646989 0.394781 0.286477 0.247356 0.166502 0.135757 0.133939 0.101696 0.09979 0.0982141 0.0609458 0.0494543 0.0486925 0.0435408 0.0378924
threshold=11.035195934065362 2.7418705502372442 0.66909551658388644 6.0477200168942895 -0.31168979533590546 4.2722077746127978 1.511622369457893 0.09062151231254735 -0.65133755157195961 -0.050821648904208976 0.28524351497188843 0.9107523304455114 1.9571898834296355 -0.13903085799366235 0.01739504498104039 0.25901766275771404 -0.48972880083811066 0.45957358148526178 0.16663829472073424 1.0939253615528342 -0.014777742077706988 -0.20306394996612112 0.049351231419329962 -0.095404573272793378 0.28956439573571086 0.37247944233302771 -0.73275977266394399 -0.41774708693082552 0.23886730478861398 0.12289480890088235
decision_type=2 2 2 2 2 2 2 2 2 2 2 2 2 2 2 2 2 2 2 2 2 2 2 2 2 2 2 2 2 2
left_child=1 2 4 5 8 -3 11 9 15 13 18 -4 -8 21 20 26 -10 25 29 -13 -11 -6 -16 -15 -17 -12 -1 -18 -20 -9
right_child=-2 3 6 -5 7 -7 12 10 16 14 17 19 -14 23 22 24 27 -19 28 -21 -22 -23 -24 -25 -26 -27 -28 -29 -30 -31
leaf_value=-0.036187470937147741 1.598939704708755 0.081417096537702238 0.0076526741442434938 0.20997062707319858 -0.021850560820764968 0.13539266813369025 0.036503913998603824 -0.011098887591190588 -0.030990049905247161 -0.015239252809897748 -0.0048666444880997436 0.016936193158229192 0.050596610019946919 -0.017760927085247305 -0.013314761190729982 -0.03897592354565859 -0.027447156194183565 0.0016570223580963689 -0.0084897498435833867 0.022741098254919052 -0.014260170809215024 -0.019325078420695807 -0.012242968982595312 -0.01643185392752582 -0.041521390610271033 -0.0021337241838302683 -0.03413287715779411 -0.025073191137225545 -0.0064236655502634896 -0.0099518441649920804
leaf_weight=64 32 34 34 32 90 21 22 153 72 612 51 21 29 216 510 80 36 34 102 30 840 126 391 408 72 34 54 54 34 136
leaf_count=64 32 34 34 32 90 21 22 153 72 612 51 21 29 216 510 80 36 34 102 30 840 126 391 408 72 34 54 54 34 136
internal_value=-3.08169e-11 -0.0116498 -0.0147495 0.14173 -0.0160866 0.102026 0.0262388 -0.0139751 -0.0343521 -0.0149779 -0.00808887 0.0152716 0.0445174 -0.0177882 -0.0139747 -0.0380251 -0.0282305 -0.00222191 -0.00973162 0.0203508 -0.0146728 -0.0203774 -0.0128496 -0.0168919 -0.0401817 -0.00377348 -0.0352472 -0.0260228 -0.00797323 -0.0105591
internal_weight=4424 4392 4305 87 4169 55 136 3737 432 3193 544 85 51 840 2353 270 162 119 425 51 1452 216 901 624 152 85 118 90 136 289
internal_count=4424 4392 4305 87 4169 55 136 3737 432 3193 544 85 51 840 2353 270 162 119 425 51 1452 216 901 624 152 85 118 90 136 289
is_linear=0
shrinkage=0.05


Tree=12
num_leaves=31
num_cat=0
split_feature=10 9 10 12 12 1 12 12 12 12 12 12 12 12 12 8 12 12 12 12 12 12 12 12 12 12 12 12 12 1
split_gain=30094.3 723.03 93.0739 66.7358 57.5473 8.56106 7.55526 7.02628 5.24171 3.50657 2.91605 1.66712 1.16541 0.843982 0.62843 0.583908 0.519672 0.35629 0.230709 0.165732 0.097862 0.0953677 0.0901943 0.0874703 0.0801923 0.0446738 0.0446325 0.0390509 0.0355943 0.0256974
threshold=11.399177794160378 2.3183785036855098 4.6435702634632428 0.53856930176731688 -0.31168979533590546 28.231290000000005 1.2555588700797917 0.068261087797012357 3.4945641487459547 -0.65133755157195961 -0.05775104738911601 0.23886730478861398 1.9357385197259827 0.9107523304455114 -0.15190843790623695 0.25901766275771404 0.0043413506747663764 -0.48972880083811066 0.12679355370913328 0.37247944233302771 -0.023099163816922116 -0.10108286939002296 -0.9311893149057292 -0.21777247906885985 0.030741906116083188 -0.37983372437790958 -0.73275977266394399 0.17340333842727909 -0.57919685849506597 16.893755000000002
decision_type=2 2 2 2 2 8 2 2 2 2 2 2 2 2 2 2 2 2 2 2 2 2 2 2 2 2 2 2 2 10
left_child=1 3 8 4 9 -4 13 10 -3 15 14 18 -8 29 23 26 20 28 -9 -13 -12 -16 -17 -6 -18 -19 -1 -20 -11 -5
right_child=-2 2 5 6 7 -7 12 11 -10 17 16 19 -14 -15 21 22 24 25 27 -21 -22 -23 -24 -25 -26 -27 -28 -29 -30 -31
leaf_value=-0.034378097439184789 1.5277786516700873 0.061465966701507571 0.14947729815136304 0.0074958744237110728 -0.021018023788928988 0.19185686065600471 0.028074076859390035 -0.010850939682739624 0.093831385536627343 -0.030552263806263608 -0.014715521357091147 -0.0052149802862721337 0.042843142287297686 0.01632441806004328 -0.017112915252369864 -0.039813380108939284 -0.013097370037312085 -0.025631195141209498 -0.009301244659239755 -0.0016096246250740746 -0.013812607830360937 -0.015783286443327795 -0.037268475732024839 -0.018768148993452392 -0.012219586598159818 -0.023357303647531403 -0.032426233092943832 -0.0079350817335002554 -0.028328831245501836 0.0052153800148516897
leaf_weight=64 32 29 22 21 72 26 34 340 22 36 527 85 22 34 216 54 551 54 136 51 697 359 98 108 493 36 54 85 36 30
leaf_count=64 32 29 22 21 72 26 34 340 22 36 527 85 22 34 216 54 551 54 136 51 697 359 98 108 493 36 54 85 36 30
internal_value=1.00327e-10 -0.0111314 0.12246 -0.0142121 -0.0153609 0.172433 0.0196168 -0.0133549 0.0754275 -0.0326345 -0.0143984 -0.00882946 0.0338762 0.0102224 -0.0170899 -0.0361239 -0.0135024 -0.0268189 -0.0100335 -0.00386297 -0.0142014 -0.0162828 -0.0381726 -0.0196681 -0.0126829 -0.0247216 -0.0334849 -0.0087758 -0.0294405 0.00615441
internal_weight=4424 4392 99 4293 4152 48 141 3720 51 432 3023 697 56 85 755 270 2268 162 561 136 1224 575 152 180 1044 90 118 221 72 51
internal_count=4424 4392 99 4293 4152 48 141 3720 51 432 3023 697 56 85 755 270 2268 162 561 136 1224 575 152 180 1044 90 118 221 72 51
is_linear=0
shrinkage=0.05


Tree=13
num_leaves=31
num_cat=0
split_feature=5 12 19 9 12 9 12 12 12 12 12 12 2 12 12 9 12 12 12 12 12 12 12 12 12 12 12 12 12 9
split_gain=28944.2 594.992 507.273 419.845 58.2304 55.3094 47.0168 6.34229 5.53723 3.169 2.62945 1.50388 1.02852 0.768809 0.647121 0.569972 0.524292 0.50651 0.215082 0.208807 0.149573 0.0990258 0.0985114 0.0789419 0.0783216 0.072501 0.0481289 0.0390613 0.0295447 0.0281453
threshold=682.70800000000008 2.1730160767787692 1.0000000180025095e-35 11.035195934065362 -0.31168979533590546 4.5096185978643328 0.53856930176731688 0.068261087797012357 1.2555588700797917 -0.63002729446958883 -0.06305168624490208 0.23886730478861398 1.019886839159881 0.9107523304455114 -0.79710046112065458 1.5426406954617105 -0.15190843790623695 0.0032832998516011407 -0.46521282836506522 0.14088413758869781 0.37247944233302771 -0.89522616635323626 -0.027482472262274401 -0.21777247906885985 0.026577262212889145 -0.10626859594171949 -0.70585766108035075 0.10505306531565696 -0.54210366508977659 -0.94860995504789702
decision_type=10 2 2 2 2 2 2 2 2 2 2 2 10 2 2 2 2 2 2 2 2 2 2 2 2 2 2 2 2 2
left_child=1 4 3 5 9 12 7 10 13 14 16 19 -3 -8 21 -10 23 22 28 27 -13 29 -12 -6 -19 -18 -16 -9 -11 -1
right_child=-2 2 -4 -5 6 -7 8 11 15 18 17 20 -14 -15 26 -17 25 24 -20 -21 -22 -23 -24 -25 -26 -27 -28 -29 -30 -31
leaf_value=-0.038309764696492089 1.5477919947852692 0.07928633716973392 0.33024440467357641 -0.14416350750696091 -0.019967122582925691 0.15854549817740918 0.0057398019423708325 -0.010532977507979262 0.024689583751288328 -0.027891765369309318 -0.014089494423539031 -0.0049542312893797371 0.063816367160706294 0.015572580311334495 -0.032189773230089085 0.035444114995854245 -0.016369933320416346 -0.012516100486042878 -0.023014171587096323 -0.0080690796081634136 -0.0015291434007368107 -0.034739050558871692 -0.013183040439344665 -0.017829741427191983 -0.011662342108278718 -0.015131444189437602 -0.030215101385558094 -0.0094811637865172497 -0.025866071341766252 -0.03650489565398958
leaf_weight=36 30 22 20 21 72 32 50 255 22 36 510 85 21 33 72 28 180 518 72 170 51 72 727 108 558 344 54 135 36 54
leaf_count=36 30 22 20 21 72 32 50 255 22 36 510 85 21 33 72 28 180 518 72 170 51 72 727 108 558 344 54 135 36 54
internal_value=9.41243e-11 -0.0105675 0.101167 0.0534423 -0.0135973 0.108772 -0.0116422 -0.0126885 0.0175676 -0.0310028 -0.013681 -0.00838607 0.0717312 0.00964922 -0.0340309 0.0307121 -0.0163566 -0.0128667 -0.0249465 -0.00953145 -0.00366982 -0.0361212 -0.0135568 -0.0186847 -0.0120734 -0.0155569 -0.0313435 -0.0101689 -0.0268789 -0.0372268
internal_weight=4424 4394 116 96 4278 75 3846 3713 133 432 3017 696 43 83 288 50 704 2313 144 560 136 162 1237 180 1076 524 126 390 72 90
internal_count=4424 4394 116 96 4278 75 3846 3713 133 432 3017 696 43 83 288 50 704 2313 144 560 136 162 1237 180 1076 524 126 390 72 90
is_linear=0
shrinkage=0.05


Tree=14
num_leaves=31
num_cat=0
split_feature=10 9 9 10 9 9 8 4 9 9 9 9 9 0 8 9 10 9 9 9 0 8 9 2 4 9 8 9 22 25
split_gain=26621.3 500.417 61.8374 48.3345 45.8902 7.02658 7.02573 5.58549 3.82319 2.36277 1.86374 0.960738 0.960399 0.647864 0.576236 0.435821 0.329221 0.266228 0.256483 0.255455 0.219 0.202798 0.146522 0.0855972 0.0796033 0.0561707 0.064923 0.0543131 0.0473518 0.0453647
threshold=11.399177794160378 2.8573069296991771 0.83676171183830095 6.1846678216089064 -0.41652655234517222 0.14600014741036352 1.3534814394274479 448.67850000000004 1.5426406954617105 -0.10653512279854326 -0.73195567919373161 0.0072147263869437603 0.46637763921042324 34427330048.500008 0.39161726080330123 -0.26033365984407048 -0.56763643127471719 -0.039907120393252719 0.24461505143578535 -0.87886413091980187 24280787406.000004 0.081532052046473472 0.074907181080344123 1.4069794447564397 5.7005000000000008 -0.15496187679850318 0.081532052046473472 -0.074538850102607954 1.0000000180025095e-35 1.0000000180025095e-35
decision_type=2 2 2 2 2 2 2 10 2 2 2 2 2 10 2 2 2 2 2 2 10 2 2 8 8 2 2 2 2 2
left_child=1 2 4 6 10 7 -3 9 14 15 19 17 18 -10 -4 -6 -12 27 24 -1 -14 22 28 -20 -7 26 -17 -11 -13 -19
right_child=-2 3 8 -5 5 12 -8 -9 13 11 16 21 20 -15 -16 25 -18 29 23 -21 -22 -23 -24 -25 -26 -27 -28 -29 -30 -31
leaf_value=-0.035110324869553254 1.4369223687797785 0.065230318801156414 0.011721141516200958 0.15987436138093472 -0.019652986363835737 -0.0042827994224022732 0.10320481743131366 -0.038309025658028469 0.039876888980788575 -0.013691119463070972 -0.028287266145695697 -0.010890242303617055 0.0058513121313548515 0.028334358781576158 0.022606915235519411 -0.016651584711812793 -0.023744488455040357 -0.012158541820558942 -0.0041049040626561228 -0.031671340128889794 -0.000733360291823097 -0.0064536124995599187 -0.0092506718531941753 -0.00042573276581242677 -0.0077763196731370603 -0.014799186575042112 -0.013543343404307961 -0.012881028008459958 -0.012927505138019721 -0.011302765282028813
leaf_weight=108 32 29 31 32 71 22 21 21 31 291 91 579 28 20 20 105 71 1238 43 108 23 30 151 25 63 197 20 716 30 177
leaf_count=108 32 29 31 32 71 22 21 21 31 291 91 579 28 20 20 105 71 1238 43 108 23 30 151 25 63 197 20 716 30 177
internal_value=2.4212e-11 -0.0104694 -0.0127973 0.11189 -0.0137298 -0.0120894 0.0811796 -0.0125974 0.0256702 -0.0124476 -0.0303503 -0.0119999 -0.00306037 0.0353504 0.0159901 -0.0161071 -0.0262963 -0.0124937 -0.00504107 -0.0333908 0.00288175 -0.0104857 -0.0106449 -0.00275227 -0.00687211 -0.0153252 -0.0161543 -0.0131151 -0.0109906 -0.0120515
internal_weight=4424 4392 4310 82 4208 3830 50 3626 102 3605 378 3212 204 51 51 393 162 2422 153 216 51 790 760 68 85 322 125 1007 609 1415
internal_count=4424 4392 4310 82 4208 3830 50 3626 102 3605 378 3212 204 51 51 393 162 2422 153 216 51 790 760 68 85 322 125 1007 609 1415
is_linear=0
shrinkage=0.05


Tree=15
num_leaves=31
num_cat=0
split_feature=5 9 19 8 9 9 9 9 9 9 9 9 3 9 8 9 9 8 8 3 9 3 8 9 2 9 0 3 8 9
split_gain=25458.1 363.327 401.206 658.282 105.122 43.9619 18.838 8.55481 3.20231 1.97473 1.68954 1.60543 0.815407 0.635885 0.469771 0.399135 0.366889 0.293325 0.219725 0.175832 0.156612 0.134962 0.182547 0.128968 0.110412 0.103652 0.0774223 0.0614109 0.0578488 0.0574149
threshold=682.70800000000008 1.5426406954617105 1.0000000180025095e-35 3.4736989278862773 4.5096185978643328 -0.41652655234517222 0.46637763921042324 2.8573069296991771 0.074907181080344123 -0.10653512279854326 -0.683040776100036 0.83676171183830095 44.146000000000008 0.20711420687522122 0.074832378140455583 -0.26033365984407048 -0.84738467871022394 0.39161726080330123 0.079487524999564532 53.170500000000004 -0.58636800185564775 59.355500000000006 0.054915251662533866 0.0072147263869437603 1.6806062782596722 -0.039077947797446437 29376380581.500004 33.735000000000007 0.20656197834241299 -0.047293410847770993
decision_type=10 2 2 2 2 2 2 2 2 2 2 2 10 2 2 2 2 2 2 10 2 10 2 2 8 2 10 10 2 2
left_child=1 5 3 4 7 10 8 26 9 15 16 28 18 21 23 -7 -1 -13 25 -16 -12 -10 -23 29 -15 27 -3 -11 -8 -14
right_child=-2 2 -4 -5 -6 6 11 -9 13 12 20 17 14 24 19 -17 -18 -19 -20 -21 -22 22 -24 -25 -26 -27 -28 -29 -30 -31
leaf_value=-0.033104326989915632 1.4515930143495401 0.036190647408366208 0.25481807962059977 -0.20962124026339987 0.16568638364473978 -0.018670668727200895 0.0025459679162681656 0.07481549183527629 -0.009091383466230972 -0.013489049505274575 -0.026140868332650925 0.013659323826432229 -0.011986044701188803 -0.0040569652565038547 -0.0093665087861674167 -0.014555014251374905 -0.029288688987966566 0.021476568877696993 -0.017203542605663338 -0.0039410036082699667 -0.022578775013486544 -0.0079429010964102206 -0.0029837497603148223 -0.010298041561294675 0.00019133504247292876 -0.011924052902139151 0.040590144023299218 -0.01247824302443894 0.005958341321219569 -0.011093402514031724
leaf_weight=126 30 20 24 23 30 72 27 27 140 222 54 30 224 65 28 324 126 20 24 32 72 72 25 489 20 650 20 465 23 920
leaf_count=126 30 20 24 23 30 72 27 27 140 222 54 30 224 65 28 324 126 20 24 32 72 72 25 489 20 650 20 465 23 920
internal_value=-1.64118e-10 -0.00991074 0.0681984 0.0308745 0.0878992 -0.0125573 -0.0109684 0.0530692 -0.0115362 -0.0119813 -0.0288328 0.0104509 -0.0115506 -0.00676755 -0.010818 -0.0153033 -0.0311965 0.0167862 -0.0124618 -0.00647291 -0.0241054 -0.00809821 -0.00666477 -0.0109777 -0.00305737 -0.0123767 0.0383904 -0.0128049 0.00411566 -0.0112682
internal_weight=4424 4394 144 120 97 4250 3872 67 3772 3450 378 100 3054 322 1693 396 252 50 1361 60 126 237 97 1633 85 1337 40 687 50 1144
internal_count=4424 4394 144 120 97 4250 3872 67 3772 3450 378 100 3054 322 1693 396 252 50 1361 60 126 237 97 1633 85 1337 40 687 50 1144
is_linear=0
shrinkage=0.05


Tree=16
num_leaves=31
num_cat=0
split_feature=10 12 12 12 5 10 12 4 9 12 12 12 12 12 10 12 12 12 12 12 12 12 12 9 12 12 12 12 12 12
split_gain=23679.7 354.597 50.1496 38.4069 29.1104 20.3691 9.66086 6.90673 4.06139 3.32634 2.28258 1.63845 1.18923 0.796833 0.503573 0.479708 0.215599 0.19072 0.151563 0.150972 0.146165 0.109574 0.106373 0.0743473 0.032946 0.0327927 0.0295672 0.0244862 0.0225711 0.0184541
threshold=11.399177794160378 3.4945641487459547 1.1267371911809132 -0.31168979533590546 471.78800000000007 6.1846678216089064 0.23886730478861398 401.26650000000006 2.3183785036855098 -0.023099163816922116 -0.63002729446958883 0.53856930176731688 0.070103756645767082 -0.1260389493331743 1.7104346753605313 -0.79710046112065458 0.77085797855913696 0.021936701793596861 -0.46521282836506522 0.12679355370913328 -0.076051433917211517 0.37247944233302771 -0.20306394996612112 -0.93342527679682707 -0.70585766108035075 -0.047181467350540178 -0.0034110066859553974 0.16663829472073424 0.046541684869274687 -0.54210366508977659
decision_type=2 2 2 2 10 2 2 8 2 2 2 2 2 2 2 2 2 2 2 2 2 2 2 2 2 2 2 2 2 2
left_child=1 2 3 10 6 -3 9 8 14 13 15 21 17 22 -4 23 -13 26 29 -14 -15 -8 -5 -1 -17 -22 -11 -21 -19 -12
right_child=-2 5 7 4 -6 -7 11 -9 -10 12 18 16 19 20 -16 24 -18 28 -20 27 25 -23 -24 -25 -26 -27 -28 -29 -30 -31
leaf_value=-0.032528649325724003 1.3552106887102129 0.077009945754942147 0.018777251988649369 -0.017116889042986763 -0.069613873621537578 0.13115249125985429 -0.0040480838478764609 -0.0033839187026023865 0.047763248465277935 -0.011416215525183938 -0.02392690959903929 0.004038235695792757 -0.0086818153667263687 -0.013498303797982988 0.028068470001220702 -0.027600519607464475 0.0098948471869031596 -0.010243775800904763 -0.019882173318829802 -0.0074698711988054403 -0.012577636964365424 -0.0011099868747360055 -0.014972978425614628 -0.030256424292370129 -0.025966739709730503 -0.011896444629782286 -0.010876741062043704 -0.0064141412904741724 -0.0096494026647062775 -0.022325950778192945
leaf_weight=54 32 38 35 90 21 32 84 20 22 404 36 33 320 315 25 72 30 389 72 119 323 51 162 108 54 390 684 102 271 36
leaf_count=54 32 38 35 90 21 32 84 20 22 404 36 33 320 315 25 72 30 389 72 119 323 51 162 108 54 390 684 102 271 36
internal_value=-2.46781e-10 -0.00987403 -0.0116821 -0.0125194 -0.0109086 0.101761 -0.0105813 0.0229611 0.0293867 -0.0111777 -0.0266442 0.000168984 -0.0100363 -0.013219 0.0226486 -0.0292142 0.0068271 -0.0106703 -0.0215043 -0.00798769 -0.0126013 -0.00293814 -0.0157387 -0.0310138 -0.0269003 -0.012205 -0.0110771 -0.00698261 -0.00999972 -0.0231264
internal_weight=4424 4392 4322 4220 3788 70 3767 102 82 3569 432 198 2289 1280 60 288 63 1748 144 541 1028 135 252 162 126 713 1088 221 660 72
internal_count=4424 4392 4322 4220 3788 70 3767 102 82 3569 432 198 2289 1280 60 288 63 1748 144 541 1028 135 252 162 126 713 1088 221 660 72
is_linear=0
shrinkage=0.05


Tree=17
num_leaves=31
num_cat=0
split_feature=6 12 1 8 10 12 12 9 12 12 12 0 12 12 3 12 4 12 12 10 12 12 12 12 12 8 12 12 12 12
split_gain=21767.1 198.908 389.354 840.549 94.9097 36.3853 12.0881 7.13789 3.18033 2.06003 1.81939 1.45003 1.28924 0.826088 0.440423 0.432936 0.330794 0.284428 0.252652 0.235133 0.209173 0.136786 0.111783 0.110005 0.107256 0.071696 0.0443336 0.0320334 0.0297338 0.023869
threshold=750.06500244140636 1.2555588700797917 15.380210000000003 3.4736989278862773 4.6435702634632428 -0.31168979533590546 0.30578965804712815 2.3183785036855098 0.019071002214115843 -0.63002729446958883 0.66909551658388644 22088823576.000004 -0.091301872748567034 0.11207648918562053 23.399000000000004 -0.79710046112065458 250.00350000000003 0.9107523304455114 -0.034023113076050264 1.7104346753605313 -0.17524722018572095 -0.46521282836506522 0.41203693905935351 0.21870336397730997 0.063530556913849026 0.29534080888572734 -0.0050397072626440767 -0.13241744615286358 -0.70585766108035075 0.15976699936358832
decision_type=2 2 8 2 2 2 2 2 2 2 2 10 2 2 8 2 10 2 2 2 2 2 2 2 2 2 2 2 2 2
left_child=1 5 -3 4 7 9 8 19 12 15 22 -9 20 16 -14 25 24 -12 -16 -4 -7 -11 -8 29 -10 -1 -20 -22 -17 -15
right_child=-2 2 3 -5 -6 6 10 11 13 21 17 -13 14 23 18 28 -18 -19 26 -21 27 -23 -24 -25 -26 -27 -28 -29 -30 -31
leaf_value=-0.028698598326377153 1.2993278323207051 0.22621946477890018 0.02184480551792228 -0.26423971756644876 0.14152702362306657 -0.015847202029729647 -0.0026662076808576128 0.063969124183058737 -0.0095984208067384554 -0.021970108855101797 0.0063339567976072432 0.045157541831334434 -0.018336576010499681 -0.0073066859560854298 -0.011882065144645704 -0.026220493391156199 -0.015557777367177464 0.012949734203743214 -0.01096598988369551 0.029162595633949552 -0.014147830037055192 -0.018888064701524047 0.0006442545642380091 -0.0046483529087923024 -0.0084886841520711836 -0.030910307647926467 -0.01036555461037356 -0.013092370036729549 -0.024668402114400158 -0.0063192446843958376
leaf_weight=106 32 25 23 23 31 126 51 20 629 72 32 21 21 153 616 72 21 33 571 21 108 72 51 68 333 56 666 215 54 102
leaf_count=106 32 25 23 23 31 126 51 20 629 72 32 21 21 153 616 72 21 33 571 21 108 72 51 68 333 56 666 215 54 102
internal_value=2.28894e-10 -0.00946687 0.04456 0.0118875 0.0666368 -0.0115625 -0.00999777 0.039324 -0.010603 -0.025312 0.00315514 0.0543339 -0.0117129 -0.00862896 -0.0111363 -0.0277535 -0.0093498 0.00969274 -0.0110547 0.0253374 -0.0141193 -0.0204291 -0.00101098 -0.00643521 -0.00921428 -0.0294631 -0.0106427 -0.0134453 -0.0255553 -0.00691171
internal_weight=4424 4392 164 139 116 4228 3796 85 3629 432 167 41 2323 1306 1874 288 983 65 1853 44 449 144 102 323 962 162 1237 323 126 255
internal_count=4424 4392 164 139 116 4228 3796 85 3629 432 167 41 2323 1306 1874 288 983 65 1853 44 449 144 102 323 962 162 1237 323 126 255
is_linear=0
shrinkage=0.05


Tree=18
num_leaves=31
num_cat=0
split_feature=9 12 5 12 12 5 5 9 12 12 12 12 12 1 12 12 12 12 12 12 12 8 12 8 12 12 12 12 8 12
split_gain=21233.8 229.122 105.494 50.6646 31.7844 20.0219 31.2323 5.40655 5.12517 1.99912 1.85487 1.16063 1.1161 0.643429 0.430941 0.429773 0.390276 0.128189 0.124874 0.12452 0.0855496 0.0835227 0.0785754 0.0664891 0.0529734 0.0518362 0.0314253 0.0268347 0.0248371 0.0236192
threshold=11.035195934065362 3.4945641487459547 528.18450000000018 0.77085797855913696 -0.31168979533590546 372.34350000000001 162.60250000000002 2.3183785036855098 0.099046028383119392 -0.048201815971853405 -0.63002729446958883 0.30578965804712815 1.2555588700797917 25.873015000000006 0.013554335934494401 -0.13241744615286358 -0.79710046112065458 0.53856930176731688 0.19518961901175705 -0.48972880083811066 0.056499417443840801 0.30506510855281982 -0.20306394996612112 0.28433092082518818 -0.0093813474316259953 -0.086963128215936034 0.41203693905935351 -0.70585766108035075 0.30506510855281982 -0.37983372437790958
decision_type=2 2 10 2 2 8 10 2 2 2 2 2 2 8 2 2 2 2 2 2 2 2 2 2 2 2 2 2 2 2
left_child=1 2 3 4 10 6 -3 12 9 15 16 18 21 -14 24 22 23 26 -10 -12 -16 -5 -6 -1 -11 -17 -13 -18 -25 -21
right_child=-2 5 -4 7 8 -7 -8 -9 11 14 19 17 13 -15 20 25 27 -19 -20 29 -22 -23 -24 28 -26 -27 -28 -29 -30 -31
leaf_value=-0.02687727543589187 1.283311488851905 0.059330879954191354 -0.12001399916004052 0.0084641201502603028 -0.015468684567345514 0.038104708064347508 0.13842867600421113 0.042562813280771182 -0.0068834291273055393 -0.010573524600644223 -0.021305788694708436 -0.0025328972826565745 0.014176399153657258 0.025608656043186784 -0.0092417792973698253 -0.012369535911274723 -0.024909468491872155 0.0018846899627105278 -0.0048401671258898656 -0.0189300954065941 -0.0082849781678504316 0.01263914352655411 -0.013585387703238262 -0.028403941262513402 -0.0099417306377026574 -0.011446564318731313 -0.00057046518903221385 -0.023434981952110925 -0.030290049190322563 -0.017276703566312789
leaf_weight=73 32 26 22 23 90 20 24 24 288 696 54 51 20 32 676 249 72 34 101 54 357 25 144 64 634 391 34 54 24 36
leaf_count=73 32 26 22 23 90 20 24 24 288 696 54 51 20 32 676 249 72 34 101 54 357 25 144 64 634 391 34 54 24 36
internal_value=-2.39098e-10 -0.00935018 -0.0108036 -0.0102448 -0.01118 0.0803855 0.0972978 0.0212513 -0.00970021 -0.010433 -0.0240383 -0.00503106 0.0161366 0.0212116 -0.00967728 -0.0124761 -0.0263618 -0.000710035 -0.00635292 -0.0194076 -0.00891111 0.0106386 -0.0143097 -0.0279929 -0.0102724 -0.0118057 -0.00174792 -0.0242775 -0.0289183 -0.0182687
internal_weight=4424 4392 4322 4300 4176 70 50 124 3745 3237 431 508 100 52 2363 874 287 119 389 144 1033 48 234 161 1330 640 85 126 88 90
internal_count=4424 4392 4322 4300 4176 70 50 124 3745 3237 431 508 100 52 2363 874 287 119 389 144 1033 48 234 161 1330 640 85 126 88 90
is_linear=0
shrinkage=0.05


Tree=19
num_leaves=31
num_cat=0
split_feature=5 8 12 12 9 12 12 9 12 12 12 12 1 12 8 12 12 12 12 8 12 12 12 9 12 12 8 12 12 12
split_gain=20147.5 131.409 318.515 46.8811 44.1006 28.6896 4.6339 4.02185 1.95583 1.67707 1.06264 0.969222 0.606314 0.423236 0.348314 0.328464 0.144906 0.11569 0.108646 0.0874859 0.0740964 0.0670407 0.0632951 0.0601481 0.0540882 0.0413878 0.0341387 0.0283613 0.0241522 0.0168348
threshold=682.70800000000008 3.4736989278862773 3.4945641487459547 0.77085797855913696 6.0477200168942895 -0.29065787758162331 0.10505306531565696 2.3183785036855098 -0.63002729446958883 -0.044727060520953869 1.2555588700797917 0.30578965804712815 25.873015000000006 0.019071002214115843 0.27337798773391536 -0.13241744615286358 -0.46521282836506522 0.53856930176731688 0.21870336397730997 0.30506510855281982 0.059248401901154664 -0.0058986870217621048 -0.75158480290150775 0.020717265699301993 -0.086963128215936034 -0.20306394996612112 0.30506510855281982 0.41203693905935351 0.15514094790256763 -0.37983372437790958
decision_type=10 2 2 2 2 2 2 2 2 2 2 2 8 2 2 2 2 2 2 2 2 2 2 2 2 2 2 2 2 2
left_child=1 2 3 5 -4 8 9 10 14 15 19 18 -12 21 22 25 -10 27 28 -5 -15 23 -1 -11 -17 -7 -16 -13 -8 -18
right_child=-2 -3 4 7 -6 6 11 -9 16 13 12 17 -14 20 26 24 29 -19 -20 -21 -22 -23 -24 -25 -26 -27 -28 -29 -30 -31
leaf_value=-0.024604353881799258 1.2913467405363919 -0.11878380974133809 0.071453480741807393 0.0080409141986266443 0.15945265541474027 -0.014374320033109851 -0.0066954956097892053 0.037977101117372514 -0.019836010245813263 -0.0099487503663123616 0.013467579295393078 -0.0024062524252918133 0.024380757957696914 -0.0086902184764275688 -0.026667196396738292 -0.011751059161491662 -0.017664114137490593 0.0017904554226654856 -0.0040892402682562957 0.012274285721091125 -0.0077781936065072117 -0.0093620173236096862 -0.022658361626995936 -0.012046144219736259 -0.01082965622053427 -0.012906118306434816 -0.028775545954704287 -0.00054194193987367563 -0.0057656133970042239 -0.016268236024512186
leaf_weight=78 30 27 35 23 24 72 169 25 72 677 20 51 35 592 96 249 36 34 68 26 357 685 90 36 442 144 24 34 119 54
leaf_count=78 30 27 35 23 24 72 169 25 72 677 20 51 35 592 96 249 36 34 68 26 357 685 90 36 442 144 24 34 119 54
internal_value=3.23538e-10 -0.00881666 -0.00813676 -0.00971703 0.10725 -0.0106334 -0.00919429 0.0199704 -0.0225592 -0.00986771 0.0156418 -0.00458102 0.0204123 -0.00916207 -0.0250314 -0.0116937 -0.0181641 -0.000674533 -0.00588684 0.0102872 -0.00834713 -0.00971527 -0.0235619 -0.0100546 -0.0111617 -0.0133955 -0.0270889 -0.00166053 -0.00631127 -0.0168266
internal_weight=4424 4394 4367 4308 59 4179 3729 129 450 3254 104 475 55 2347 288 907 162 119 356 49 949 1398 168 713 691 216 120 85 288 90
internal_count=4424 4394 4367 4308 59 4179 3729 129 450 3254 104 475 55 2347 288 907 162 119 356 49 949 1398 168 713 691 216 120 85 288 90
is_linear=0
shrinkage=0.05


Tree=20
num_leaves=31
num_cat=0
split_feature=10 5 8 9 9 10 9 9 9 9 9 1 0 9 9 10 5 8 8 9 10 22 9 8 2 9 8 8 9 8
split_gain=18921.9 303.584 230.18 29.3082 24.8416 24.0864 2.75799 1.86517 1.22556 1.02538 0.442935 0.327591 0.316622 0.314464 0.292468 0.221882 0.158889 0.175127 0.12094 0.114325 0.11383 0.104816 0.0767902 0.0766908 0.086181 0.0594147 0.0489811 0.0488835 0.0481887 0.0456499
threshold=11.399177794160378 682.70800000000008 0.83957650835489839 0.70702937105995756 -0.41652655234517222 4.6435702634632428 0.14600014741036352 1.3480874902198374 -0.086248765405995562 -0.75841963777131016 0.022127485259083705 19.223065000000002 34427330048.500008 -0.26033365984407048 0.27446558371139312 -0.52534256523173062 177.32350000000002 0.16176150784392049 0.30506510855281982 -0.024559038783863393 -0.88369357147957361 1.0000000180025095e-35 -0.12805999860984477 0.074832378140455583 1.4637893310374612 0.074907181080344123 0.084417407877268577 0.087159679920874311 -0.65578378239279644 0.068758765033638661
decision_type=2 10 2 2 2 2 2 2 2 2 2 10 10 2 2 2 8 2 2 2 2 2 2 2 8 2 2 2 2 2
left_child=1 2 3 4 9 -4 8 18 13 20 19 -9 -13 -6 26 28 17 -16 -5 27 -1 29 -15 25 -25 -12 -8 -10 -11 -21
right_child=-2 -3 5 7 6 -7 14 11 10 15 23 12 -14 22 16 -17 -18 -19 -20 21 -22 -23 -24 24 -26 -27 -28 -29 -30 -31
leaf_value=-0.025930364926656086 1.2114368602633476 -0.19000445954177692 0.049473873854407838 0.0061811764684060353 -0.014369560710878838 0.10618958335656387 -0.0053864353429526092 0.016675759557401762 -0.0094178375944568866 -0.021549139213230876 -0.0079947614108587233 0.028983528241515163 0.020193141698837281 -0.011542802852690565 -0.0012829139561455866 -0.016871565221636384 -0.0045317247420566028 0.0043598912155721333 0.011158574308053806 -0.0086504481872299033 -0.023531557821358243 -0.010988235318412384 -0.010289023948495287 -0.0030722000217065218 -0.0076071655547077016 -0.0068188779943641406 -0.0029028924203615778 -0.0069260375597514218 -0.019573239513017513 -0.0064906040038913487
leaf_weight=102 32 23 36 23 72 39 75 20 1239 72 385 20 21 216 44 54 21 20 26 1142 96 48 281 20 22 149 27 20 54 25
leaf_count=102 32 23 36 23 72 39 75 20 1239 72 385 20 21 216 44 54 21 20 26 1142 96 48 281 20 22 149 27 20 54 25
internal_value=-1.3484e-10 -0.0088265 -0.00787271 -0.00938946 -0.0100592 0.078966 -0.00884508 0.0160867 -0.00915104 -0.0222843 -0.00875362 0.021922 0.0244811 -0.0112813 -0.00292394 -0.0195531 -0.000757842 0.000480463 0.00882224 -0.00904435 -0.0247673 -0.00869836 -0.0108339 -0.00750486 -0.00544766 -0.00766666 -0.00472903 -0.00937825 -0.0207023 -0.00860418
internal_weight=4424 4392 4369 4294 4184 75 3806 110 3619 378 3050 61 41 569 187 180 85 64 49 2474 198 1215 497 576 42 534 102 1259 126 1167
internal_count=4424 4392 4369 4294 4184 75 3806 110 3619 378 3050 61 41 569 187 180 85 64 49 2474 198 1215 497 576 42 534 102 1259 126 1167
is_linear=0
shrinkage=0.05


Tree=21
num_leaves=31
num_cat=0
split_feature=5 8 12 10 12 12 12 11 12 12 12 12 1 12 12 12 12 0 12 12 8 12 8 12 4 12 12 12 12 12
split_gain=17980.7 281.656 263.597 38.3493 38.2195 23.5058 3.91495 3.23447 1.5653 1.38404 0.878726 0.836458 0.537323 0.34076 0.285249 0.266969 0.151223 0.116721 0.113712 0.0731216 0.0698665 0.0648377 0.0552143 0.0526819 0.0501697 0.0391065 0.0385773 0.0361684 0.0204527 0.0198419
threshold=682.70800000000008 3.4736989278862773 3.4945641487459547 6.1846678216089064 0.77085797855913696 -0.29065787758162331 0.095770270478993683 2.3183785036855098 -0.63002729446958883 -0.047181467350540178 0.25597454202835995 1.2555588700797917 25.873015000000006 0.012659919370393681 -0.79710046112065458 -0.1260389493331743 0.41203693905935351 27898486783.915714 -0.46521282836506522 0.53856930176731688 0.30506510855281982 0.048126828097083137 0.29957048917896162 0.15976699936358832 250.00350000000003 -0.20306394996612112 -0.016215244694677163 -0.091301872748567034 -0.87733718977757735 -0.70585766108035075
decision_type=10 2 2 2 2 2 2 2 2 2 2 2 8 2 2 2 2 10 2 2 2 2 2 2 10 2 2 2 2 2
left_child=1 2 4 -4 5 8 9 11 14 15 23 20 -13 24 22 25 -12 19 -10 -18 -6 -15 28 -8 26 -7 -11 -17 -1 -16
right_child=-2 -3 3 -5 7 6 10 -9 18 13 16 12 -14 21 29 27 17 -19 -20 -21 -22 -23 -24 -25 -26 -27 -28 -29 -30 -31
leaf_value=-0.024031698358231698 1.2199294275045396 -0.16932295152434595 0.064254578351974498 0.14631527190407118 0.0073938882221346314 -0.01306502977386117 -0.006057231553401877 0.034181928917765621 -0.017942577621175182 -0.0091491988858276255 -0.0025133129077799183 0.011846723130438478 0.022120263917105542 -0.007980721281539347 -0.02136422973126173 -0.010684913559462213 2.0233345339479656e-05 -0.0024489187857224832 -0.015276680671506457 0.0039654636910806101 0.011177024660775296 -0.0071798664553602001 -0.025604949779808525 -0.0048226735486155926 -0.011340853814035655 -0.011664544689802478 -0.0085896822169305147 -0.0098703207110994555 -0.022725638859676864 -0.020096332993772295
leaf_weight=69 30 27 35 24 23 72 237 25 72 519 85 20 35 592 72 197 23 21 90 24 26 441 40 136 20 162 758 442 53 54
leaf_count=69 30 27 35 24 23 72 237 25 72 519 85 20 35 592 72 197 23 21 90 24 26 441 40 136 20 162 758 442 53 54
internal_value=-5.38921e-12 -0.00832906 -0.00733368 0.0976352 -0.00877127 -0.00959871 -0.00829605 0.0180338 -0.0203934 -0.00895257 -0.00429823 0.014152 0.0183844 -0.00831637 -0.0226051 -0.0106506 -0.00110734 0.000650135 -0.0164615 0.00203482 0.00940127 -0.00763883 -0.0239929 -0.0056071 -0.008856 -0.0120955 -0.00881708 -0.0101215 -0.0234643 -0.0208208
internal_weight=4424 4394 4367 59 4308 4179 3729 129 450 3203 526 104 55 2330 288 873 153 68 162 47 49 1033 162 373 1297 234 1277 639 122 126
internal_count=4424 4394 4367 59 4308 4179 3729 129 450 3203 526 104 55 2330 288 873 153 68 162 47 49 1033 162 373 1297 234 1277 639 122 126
is_linear=0
shrinkage=0.05


Tree=22
num_leaves=31
num_cat=0
split_feature=9 5 8 12 5 12 2 12 12 12 12 12 12 2 8 12 12 12 12 12 12 9 12 12 8 9 12 12 12 12
split_gain=16927.5 502.745 183.282 25.9145 22.6872 21.214 4.72906 3.53337 1.41801 1.41269 1.29864 0.717553 0.332504 0.296323 0.257637 0.25377 0.20424 0.104083 0.0816499 0.0796435 0.0683844 0.0582466 0.0472769 0.0456824 0.044732 0.0291702 0.023982 0.0237014 0.0216339 0.0170674
threshold=11.035195934065362 682.70800000000008 0.83957650835489839 0.77085797855913696 162.60250000000002 -0.29065787758162331 1.071707650041531 0.10505306531565696 1.511622369457893 -0.63002729446958883 -0.044727060520953869 0.30578965804712815 0.026577262212889145 1.0341267288546998 0.25901766275771404 -0.11578766122849192 1.1267371911809132 -0.48972880083811066 0.21870336397730997 0.53856930176731688 -0.0058986870217621048 0.020717265699301993 -0.20306394996612112 0.068261087797012357 0.29957048917896162 0.11134347094217535 -0.079669403035239381 -0.73275977266394399 -0.37983372437790958 0.14897475369363603
decision_type=2 10 2 2 8 2 8 2 2 2 2 2 2 8 2 2 2 2 2 2 2 2 2 2 2 2 2 2 2 2
left_child=1 2 3 5 -4 9 -6 10 16 14 15 18 20 -10 27 22 -5 -11 29 25 21 -12 -7 -14 -16 -13 -17 -1 -19 -9
right_child=-2 -3 4 8 6 7 -8 11 13 17 12 19 23 -15 24 26 -18 28 -20 -21 -22 -23 -24 -25 -26 -27 -28 -29 -30 -31
leaf_value=-0.0205939648905769 1.1458151238039136 -0.24150070444397304 0.038489958760328596 0.0072897857869975271 0.11187257647514344 -0.012411778202901284 0.07862861402656722 -0.0057084636499271976 0.017727416843319171 -0.017430771611354971 -0.0085356134172952687 0.00036012716358527544 -0.0072842224718048165 0.0255185397422832 -0.022376823744603567 -0.0099131507488588507 0.012855204452267467 -0.015449946622053783 -0.0034180852703524153 0.0015536177389816764 -0.0079704882452280319 -0.010599589285751184 -0.010932338092890051 -0.0064764249266362666 -0.02432470161467791 -0.0018234942604501089 -0.0092679397300686073 -0.019271541138490042 -0.014034624273578326 -0.004937456778305419
leaf_weight=64 32 23 32 32 20 72 23 152 26 54 677 20 558 23 112 228 34 54 68 34 821 36 216 255 40 65 391 72 54 136
leaf_count=64 32 23 32 32 20 72 23 152 26 54 677 20 558 23 112 228 34 54 68 34 821 36 216 255 40 65 391 72 54 136
internal_value=2.7669e-10 -0.00834838 -0.00712098 -0.00847442 0.0703678 -0.00911877 0.0940909 -0.00788124 0.0149408 -0.0193737 -0.00846928 -0.00385287 -0.00784834 0.0213845 -0.0214749 -0.0100761 0.0101568 -0.0156384 -0.00497643 -0.00049161 -0.00828159 -0.00863983 -0.0113022 -0.00703085 -0.0228894 -0.0013097 -0.00950559 -0.0198939 -0.0147423 -0.00534438
internal_weight=4424 4392 4369 4294 75 4179 43 3729 115 450 3254 475 2347 49 288 907 66 162 356 119 1534 713 288 813 152 85 619 136 108 288
internal_count=4424 4392 4369 4294 75 4179 43 3729 115 450 3254 475 2347 49 288 907 66 162 356 119 1534 713 288 813 152 85 619 136 108 288
is_linear=0
shrinkage=0.05


Tree=23
num_leaves=31
num_cat=0
split_feature=5 11 12 12 5 12 6 12 12 12 12 12 1 12 12 12 12 12 0 12 12 12 12 4 12 12 12 12 12 12
split_gain=16112.6 385.031 165.352 22.9399 20.6463 19.1456 3.58575 3.19145 1.27495 1.22562 1.10086 0.76427 0.46196 0.267097 0.233182 0.214792 0.184327 0.126595 0.104251 0.0939345 0.0613026 0.0527507 0.0505259 0.0479593 0.0424043 0.0324189 0.0279793 0.027227 0.0195246 0.0164632
threshold=682.70800000000008 11.035195934065362 2.7418705502372442 0.77085797855913696 162.60250000000002 -0.29065787758162331 360.27500915527349 0.09062151231254735 -0.63002729446958883 1.511622369457893 -0.048201815971853405 0.25597454202835995 26.458335372422646 0.008912433457629822 -0.79710046112065458 -0.13241744615286358 1.1267371911809132 0.41203693905935351 27898486783.915714 -0.48972880083811066 0.53856930176731688 0.046541684869274687 0.15976699936358832 238.78250000000003 -0.89522616635323626 -0.095404573272793378 -0.022298746957791656 -0.20306394996612112 -0.37983372437790958 -0.70585766108035075
decision_type=10 2 2 2 10 2 2 2 2 2 2 2 8 2 2 2 2 2 10 2 2 2 2 10 2 2 2 2 2 2
left_child=1 2 3 5 -4 8 -6 10 14 16 15 22 -11 23 24 27 -5 -13 20 -10 -19 -15 -9 26 -1 -17 -12 -7 -21 -16
right_child=-2 -3 4 9 6 7 -8 11 19 12 13 17 -14 21 29 25 -18 18 -20 28 -22 -23 -24 -25 -26 -27 -28 -29 -30 -31
leaf_value=-0.022379374735885197 1.1548226872086527 -0.20354764401912689 0.036593656874064247 0.0069252964865881951 0.10263601275889769 -0.011791189294308425 0.073688236549496661 -0.0055347147665752924 -0.016559232688612407 0.014345586381386966 -0.008331079352245056 -0.0022812790199018577 0.02429502755403519 -0.0072426084787443742 -0.019282850809395315 -0.0097055228295350321 0.012212444285807365 7.7167374800647741e-05 -0.0023157056409954316 -0.014677449177812647 0.0036895095545332879 -0.0065278755096753807 -0.0043536591692827642 -0.010468209236860275 -0.020751409915586314 -0.0089356559965068413 -0.0078250551680949607 -0.010600361662606399 -0.01333289296814689 -0.018127939325791816
leaf_weight=90 30 25 33 32 23 72 20 271 54 20 417 85 28 660 72 198 34 23 21 54 24 424 136 20 72 442 792 144 54 54
leaf_count=90 30 25 33 32 23 72 20 271 54 20 417 85 28 660 72 198 34 23 21 54 24 424 136 20 72 442 792 144 54 54
internal_value=2.89848e-10 -0.00788454 -0.00676493 -0.00805916 0.0663419 -0.00866283 0.0891719 -0.00748718 -0.0184051 0.0140702 -0.00810208 -0.00400754 0.0201494 -0.00753515 -0.0204011 -0.00963396 0.00964898 -0.000994872 0.000613136 -0.0148565 0.00192177 -0.00696305 -0.00514006 -0.00803976 -0.0216558 -0.00917383 -0.00799959 -0.0109973 -0.0140052 -0.0187879
internal_weight=4424 4394 4369 4293 76 4179 43 3729 450 114 3169 560 48 2313 288 856 66 153 68 162 47 1084 407 1229 162 640 1209 216 108 126
internal_count=4424 4394 4369 4293 76 4179 43 3729 450 114 3169 560 48 2313 288 856 66 153 68 162 47 1084 407 1229 162 640 1209 216 108 126
is_linear=0
shrinkage=0.05


Tree=24
num_leaves=31
num_cat=0
split_feature=10 5 12 12 12 10 12 12 12 12 12 3 12 12 8 12 12 5 4 12 12 12 9 12 9 12 8 9 12 12
split_gain=15174.8 721.262 148.502 27.2395 17.2789 9.98291 2.88381 2.11019 1.15064 1.05746 0.586115 0.360078 0.294268 0.27172 0.21349 0.207742 0.0850053 0.0776093 0.0746562 0.146614 0.0666231 0.0566099 0.0518378 0.0396903 0.037538 0.0374487 0.0261746 0.0251212 0.0199366 0.0137869
threshold=11.399177794160378 682.70800000000008 3.4945641487459547 0.77085797855913696 -0.29065787758162331 4.6435702634632428 0.10505306531565696 1.9357385197259827 -0.63002729446958883 -0.044727060520953869 0.30578965804712815 48.689500000000002 1.1267371911809132 0.026577262212889145 0.27337798773391536 -0.11578766122849192 -0.46521282836506522 162.60250000000002 197.80500000000004 0.53856930176731688 0.21870336397730997 -0.0034110066859553974 0.020717265699301993 -0.17524722018572095 -0.77313735815170193 0.068261087797012357 0.30506510855281982 0.14600014741036352 -0.079669403035239381 0.14088413758869781
decision_type=2 10 2 2 2 2 2 2 2 2 2 10 2 2 2 2 2 10 8 2 2 2 2 2 2 2 2 2 2 2
left_child=1 2 3 4 8 -4 9 12 14 15 20 -9 -5 21 24 23 -10 -14 19 27 29 22 -11 -6 -1 -15 -16 -12 -17 -8
right_child=-2 -3 5 7 6 -7 10 11 16 13 18 -13 17 25 26 28 -18 -19 -20 -21 -22 -23 -24 -25 -26 -27 -28 -29 -30 -31
leaf_value=-0.01922039186856786 1.0848756186431274 -0.28716680329778921 0.044101954657923097 0.0065790317021310329 -0.01096114528675874 0.086224998495517638 -0.0051896240489764343 0.028515013881163516 -0.015394231263134215 -0.0076850776951657152 0.00042075161851244051 0.019633902497589589 0.011129110597915227 -0.0065741481553215717 -0.020622571852679055 -0.008949437797919178 -0.013089273141490089 0.015124104283750057 -0.0032219895778689538 0.0031912465396869392 -0.0030813075516455098 -0.0071732392119081877 -0.0095564229748187918 -0.009748705273701086 -0.017666204412963904 -0.0058427626120985728 -0.022468690263728303 -0.0016700793212900561 -0.0083611562524152829 -0.0044963778964444701
leaf_weight=61 32 23 22 32 108 39 135 21 72 724 20 25 31 558 96 228 90 20 20 28 68 771 39 180 107 255 24 51 391 153
leaf_count=61 32 23 22 32 108 39 135 21 72 724 20 25 31 558 96 228 90 20 20 28 68 771 39 180 107 255 24 51 391 153
internal_value=-1.30184e-10 -0.00790438 -0.00643424 -0.00753115 -0.00822969 0.0710331 -0.00711282 0.0150983 -0.0174848 -0.00764407 -0.00347351 0.0236883 0.0103375 -0.00708374 -0.0193811 -0.009094 -0.0141137 0.0126958 -0.000435663 0.000127231 -0.00448897 -0.0074754 -0.00778073 -0.0102034 -0.0182305 -0.00634475 -0.0209918 -0.00108111 -0.00857784 -0.00482134
internal_weight=4424 4392 4369 4308 4179 61 3729 129 450 3254 475 46 83 2347 288 907 162 51 119 99 356 1534 763 288 168 813 120 71 619 288
internal_count=4424 4392 4369 4308 4179 61 3729 129 450 3254 475 46 83 2347 288 907 162 51 119 99 356 1534 763 288 168 813 120 71 619 288
is_linear=0
shrinkage=0.05


Tree=25
num_leaves=31
num_cat=0
split_feature=6 8 12 12 12 4 12 12 0 1 12 12 12 12 12 12 8 12 12 12 2 3 12 12 12 12 8 12 9 8
split_gain=14228.7 666.464 187.041 32.0119 15.0575 5.04181 3.54348 2.36129 1.51672 1.46298 0.917343 0.888987 0.618483 0.426793 0.191496 0.173539 0.134608 0.125687 0.0837325 0.0828163 0.0733251 0.0609738 0.0315208 0.0287115 0.0284808 0.025699 0.0236226 0.0181919 0.0180606 0.0175141
threshold=750.06500244140636 3.4736989278862773 4.2722077746127978 0.66909551658388644 -0.31168979533590546 401.26650000000006 1.9357385197259827 0.073757941466097501 34427330048.500008 25.873015000000006 -0.056012045865942099 -0.68398318895316834 0.28524351497188843 1.1267371911809132 -0.14684475509841791 0.00719770663456032 0.27337798773391536 -0.48972880083811066 0.14088413758869781 0.41203693905935351 1.2626527680826432 48.689500000000002 -0.023099163816922116 0.040762621377135939 -0.20306394996612112 -0.10108286939002296 0.30506510855281982 0.19518961901175705 -0.77313735815170193 0.24558510170272171
decision_type=2 2 2 2 2 10 2 2 10 10 2 2 2 2 2 2 2 2 2 2 8 10 2 2 2 2 2 2 2 2
left_child=1 2 3 4 11 7 13 10 21 -4 14 16 18 29 24 22 28 -13 -9 -14 -15 -8 -12 -17 -6 -16 -18 -20 -1 -5
right_child=-2 -3 9 6 5 -7 8 12 -10 -11 15 17 19 20 25 23 26 -19 27 -21 -22 -23 -24 -25 -26 -27 -28 -29 -30 -31
leaf_value=-0.018259372330102764 1.0505143444053828 -0.25530348618825277 0.10984709143638612 0.004684922348574868 -0.01089848123407096 -0.030818164674565197 0.031871467866003513 -0.0052903913422998943 0.013574591020799496 0.0909516548117002 -0.0075887385998251872 -0.015450750208563275 -0.0019671471323817968 0.010273531987331809 -0.0088898586553668012 -0.0066160107254981991 -0.019591443240642548 -0.012808286539382405 -0.0043999101666702053 0.00070675995271171014 0.014071871836980186 0.027967181764543061 -0.0070803713306687235 -0.0060688661971634644 -0.0096904666059547014 -0.0081839022044362091 -0.021345254468421143 -0.0034337996998914039 -0.017086287136648743 0.0066221924871206293
leaf_weight=61 32 27 20 28 89 22 20 337 22 21 507 90 67 27 197 625 96 90 118 51 24 20 765 389 108 373 24 83 71 20
leaf_count=61 32 27 20 28 89 22 20 337 22 21 507 90 67 27 197 625 96 90 118 51 24 20 765 389 108 373 24 83 71 20
internal_value=-4.75948e-10 -0.00765402 -0.00612217 -0.00713002 -0.00797606 -0.00695283 0.0147462 -0.00681127 0.0241196 0.100169 -0.00739607 -0.0168133 -0.00408965 0.00887608 -0.00889235 -0.00689404 -0.0187302 -0.0141295 -0.00480866 -0.000811475 0.012061 0.0299193 -0.007283 -0.00640611 -0.0102362 -0.00842789 -0.0199422 -0.00400097 -0.0176284 0.00549212
internal_weight=4424 4392 4365 4324 4163 3731 161 3709 62 41 3053 432 656 99 767 2286 252 180 538 118 51 40 1272 1014 197 570 120 201 132 48
internal_count=4424 4392 4365 4324 4163 3731 161 3709 62 41 3053 432 656 99 767 2286 252 180 538 118 51 40 1272 1014 197 570 120 201 132 48
is_linear=0
shrinkage=0.05


Tree=26
num_leaves=31
num_cat=0
split_feature=9 5 12 5 10 12 12 12 12 12 12 2 12 6 12 12 12 6 12 12 12 12 12 12 12 12 12 12 10 12
split_gain=13710.5 893.742 112.286 18.3612 30.9495 16.0175 14.0106 2.26994 0.940374 0.70536 0.687091 0.667899 0.580591 0.183974 0.186053 0.171207 0.169853 0.17532 0.147596 0.128416 0.0686591 0.0536702 0.0402365 0.0330547 0.0256053 0.0205993 0.0193046 0.0192607 0.0136219 0.0125079
threshold=11.035195934065362 682.70800000000008 2.7418705502372442 152.72950000000003 4.6435702634632428 0.77085797855913696 -0.29065787758162331 0.070103756645767082 -0.63002729446958883 -0.052850086115290178 1.511622369457893 0.9952998252452373 0.23886730478861398 219.11499786376956 0.53856930176731688 -0.79710046112065458 0.0032832998516011407 233.16500091552737 -0.13241744615286358 1.1267371911809132 -0.46521282836506522 0.1151082273487687 0.37247944233302771 -0.9311893149057292 0.040762621377135939 -0.095404573272793378 -0.023099163816922116 -0.20306394996612112 0.050502542988258743 -0.70585766108035075
decision_type=2 10 2 10 2 2 2 2 2 2 2 8 2 2 2 2 2 2 2 2 2 2 2 2 2 2 2 2 2 2
left_child=1 2 5 -4 -5 6 8 9 15 18 19 -12 21 14 22 23 17 26 27 -7 -10 -9 -14 -1 -18 -20 -11 -8 -24 -17
right_child=-2 -3 3 4 -6 10 7 12 20 16 11 -13 13 -15 -16 29 24 -19 25 -21 -22 -23 28 -25 -26 -27 -28 -29 -30 -31
leaf_value=-0.019581173553510949 1.0312043392099441 -0.31837852053020316 0.024757327451821298 0.028405251540243627 0.11185363507270814 0.0059643751999828966 -0.010094815461585921 -0.0051709627226147054 -0.013885012703637283 -0.0071786699030134422 0.0091212175413966177 0.021084544972317029 -0.0023026102175782927 -0.0057362491331462359 0.0028566721537760624 -0.01654509912348456 -0.0063054570600926231 -0.011539218024838538 -0.008314630091942922 0.010377403092570604 -0.011813493147492408 -0.0041749378067313459 0.000561045307549648 -0.01806609351877813 -0.0057890571967771885 -0.0076886897511265779 -0.0067522421680747818 -0.0090932370836122167 -0.0012057846272606791 -0.015538435650092584
leaf_weight=54 32 23 31 20 25 32 72 288 72 450 20 28 76 21 29 72 737 21 198 34 90 255 20 108 356 391 647 144 24 54
leaf_count=54 32 23 31 20 25 32 72 288 72 450 20 28 76 21 29 72 737 21 198 34 90 255 20 108 356 391 647 144 24 54
internal_value=3.34911e-11 -0.00751333 -0.00587682 0.0543674 0.0747655 -0.00694334 -0.00744777 -0.00644206 -0.0157817 -0.00704187 0.0115481 0.0160998 -0.00390488 -0.00135491 -0.000737401 -0.017496 -0.00658048 -0.0070138 -0.0083091 0.00823775 -0.0127342 -0.00470322 -0.00160597 -0.0185711 -0.00613726 -0.00789911 -0.00692717 -0.0094271 -0.00040268 -0.0161137
internal_weight=4424 4392 4369 76 45 4293 4179 3729 450 3016 114 48 713 170 149 288 2211 1118 805 66 162 543 120 162 1093 589 1097 216 44 126
internal_count=4424 4392 4369 76 45 4293 4179 3729 450 3016 114 48 713 170 149 288 2211 1118 805 66 162 543 120 162 1093 589 1097 216 44 126
is_linear=0
shrinkage=0.05


Tree=27
num_leaves=31
num_cat=0
split_feature=5 8 12 12 12 5 8 12 12 12 12 12 2 7 12 8 12 4 12 12 12 12 12 12 12 8 12 12 12 12
split_gain=13280.1 871.619 155.206 27.0787 12.6445 3.21132 3.16818 2.04864 0.848687 0.644302 0.626832 0.512386 0.396179 0.194146 0.184503 0.158188 0.155613 0.162004 0.136591 0.115895 0.0632603 0.0460476 0.0356504 0.0271227 0.0226351 0.0201053 0.0200536 0.0192198 0.0148488 0.0146686
threshold=682.70800000000008 3.4736989278862773 4.2722077746127978 0.77085797855913696 -0.29065787758162331 193.62300000000002 0.83957650835489839 0.072316426555077432 -0.63002729446958883 -0.050821648904208976 1.511622369457893 0.23886730478861398 0.98990615974902951 226650.00000000003 0.53856930176731688 0.27337798773391536 0.00719770663456032 238.78250000000003 -0.13903085799366235 1.1267371911809132 -0.48972880083811066 0.12679355370913328 0.37247944233302771 -0.75158480290150775 -0.095404573272793378 0.30506510855281982 0.040762621377135939 -0.022298746957791656 -0.37983372437790958 -0.20306394996612112
decision_type=10 2 2 2 2 10 2 2 2 2 2 2 8 2 2 2 2 10 2 2 2 2 2 2 2 2 2 2 2 2
left_child=1 2 3 4 8 -4 10 9 15 18 19 21 -12 -13 22 23 17 27 29 -5 -10 -9 -15 -1 -20 -17 -18 -11 -22 -6
right_child=-2 -3 5 6 7 -7 -8 11 20 16 12 13 -14 14 -16 25 26 -19 24 -21 28 -23 -24 -25 -26 -27 -28 -29 -30 -31
leaf_value=-0.016313245300299081 1.0484134729703267 -0.29037093873377201 0.076420974731445324 0.0056661564944079151 -0.0095900746683279681 0.10407239255451023 0.029016880715085614 -0.0048429758593317917 -0.013494771594802538 -0.0068012202779452018 0.0098769780248403553 -0.005788000360674536 0.019024422421152223 -0.0022369802232563804 0.0027799107999007611 -0.017684104169408479 -0.0059483105610020964 -0.011081261052750051 -0.0079273676603204678 0.0098585329648545571 -0.011985082882973883 -0.0038951683776849268 -0.00044771149596878486 -0.015039383868376414 -0.0072943784346730977 -0.019302089574436347 -0.0054854514132236347 -0.0063868435326258884 -0.010812526003078179 -0.0086954391871889424
leaf_weight=78 30 27 21 32 72 21 31 305 54 450 20 21 29 73 31 96 628 20 216 34 54 221 45 90 408 24 373 740 54 126
leaf_count=78 30 27 21 32 72 21 31 305 54 450 20 21 29 73 31 96 628 20 216 34 54 221 45 90 408 24 373 740 54 126
internal_value=1.64073e-10 -0.00715803 -0.005407 -0.0063359 -0.00707538 0.0902467 0.0148307 -0.00611996 -0.0149926 -0.00668136 0.0110066 -0.0036735 0.0152908 -0.00128716 -0.000652814 -0.0166212 -0.00623702 -0.00661854 -0.00787656 0.00782587 -0.0120975 -0.00444475 -0.00155463 -0.0156308 -0.00751349 -0.0180077 -0.00577584 -0.00654354 -0.0113988 -0.00902076
internal_weight=4424 4394 4367 4325 4179 42 146 3729 450 3033 115 696 49 170 149 288 2211 1210 822 66 162 526 118 168 624 120 1001 1190 108 198
internal_count=4424 4394 4367 4325 4179 42 146 3729 450 3033 115 696 49 170 149 288 2211 1210 822 66 162 526 118 168 624 120 1001 1190 108 198
is_linear=0
shrinkage=0.05


Tree=28
num_leaves=31
num_cat=0
split_feature=10 5 12 12 2 12 12 12 12 2 12 12 12 12 6 6 12 12 10 12 12 12 12 12 10 12 12 12 9 10
split_gain=12397.2 1118.32 89.6411 13.0234 11.508 11.4125 1.88048 0.655168 0.631848 0.589266 1.11985 0.47275 0.184499 0.183687 0.167769 0.153127 0.150968 0.111531 0.0971248 0.0923101 0.0441382 0.033124 0.0329178 0.022725 0.0164045 0.016296 0.013727 0.0136174 0.0134029 0.0131222
threshold=11.399177794160378 682.70800000000008 2.7418705502372442 0.77085797855913696 1.071707650041531 -0.31168979533590546 0.070103756645767082 -0.68398318895316834 -0.070426262371758072 0.72546808515101469 1.9357385197259827 0.23886730478861398 1.2555588700797917 -0.0034110066859553974 219.11499786376956 219.11499786376956 0.53856930176731688 -0.1616247143053163 -0.86388927571250695 -0.48972880083811066 0.1151082273487687 0.37247944233302771 0.031718771140458742 -0.036388045284526931 -0.95187554019993825 -0.11018200555167111 -0.77216942087056684 -0.21777247906885985 0.095734682849614852 0.050502542988258743
decision_type=2 10 2 2 8 2 2 2 2 8 2 2 2 2 2 2 2 2 2 2 2 2 2 2 2 2 2 2 2 2
left_child=1 2 3 5 -4 7 8 18 17 -5 12 20 -11 15 16 23 21 27 24 -9 -8 28 -15 -10 -1 -19 -20 -7 -13 -23
right_child=-2 -3 4 9 -6 6 11 19 13 10 -12 14 -14 22 -16 -17 -18 25 26 -21 -22 29 -24 -25 -26 -27 -28 -29 -30 -31
leaf_value=-0.018028509835986532 0.98057513441890487 -0.35488026815911999 0.067464897189384851 0.0045250074907896981 0.028538565700118607 -0.0094424085795051516 -0.0046683695962807786 -0.013245262528459232 -0.0067058555450505361 0.0063364937901496891 0.021450187182985248 -0.0011531011950595442 0.012030977062880994 -0.0058108688041204268 -0.0054067340568594996 -0.010835316677112133 0.0026043875472106298 -0.0077734185775948901 -0.015685923458611379 -0.010980679434206752 -0.0037651137711808961 0.00062213224009610713 -0.0052971985479418476 -0.0062301249877442302 -0.016729010694167195 -0.0071623456358425458 -0.014666505116555427 -0.0085198661146892434 -0.0025404814022536183 -0.0011119842235833251
leaf_weight=34 32 23 39 31 37 72 288 90 416 33 25 27 25 855 21 20 29 180 61 90 255 20 491 633 85 277 72 90 49 24
leaf_count=34 32 23 39 31 37 72 288 90 416 33 25 27 25 855 21 20 29 180 61 90 255 20 491 633 85 277 72 90 49 24
internal_value=-2.45352e-10 -0.00714445 -0.00531384 -0.00626676 0.0485139 -0.00672161 -0.00583441 -0.0144169 -0.00637741 0.0104071 0.012604 -0.0035238 0.00879101 -0.0060121 -0.0012228 -0.00650141 -0.000633121 -0.00780263 -0.0160626 -0.012113 -0.00424419 -0.00141552 -0.00562349 -0.00641878 -0.0171003 -0.00740303 -0.0151341 -0.00892988 -0.0020476 -0.000323749
internal_weight=4424 4392 4369 4293 76 4179 3747 432 3034 114 83 713 58 2415 170 1069 149 619 252 180 543 120 1346 1049 119 457 133 162 76 44
internal_count=4424 4392 4369 4293 76 4179 3747 432 3034 114 83 713 58 2415 170 1069 149 619 252 180 543 120 1346 1049 119 457 133 162 76 44
is_linear=0
shrinkage=0.05


Tree=29
num_leaves=31
num_cat=0
split_feature=5 10 12 12 2 12 12 12 12 12 3 12 7 12 12 12 6 12 12 5 12 12 12 12 12 12 12 12 12 9
split_gain=12037.4 958.775 81.3808 15.4079 10.7471 10.3027 1.66919 0.926792 0.693833 0.537406 0.475712 0.397562 0.177072 0.175362 0.152245 0.137626 0.126843 0.126263 0.111591 0.0648082 0.0511237 0.0345055 0.0296704 0.0255081 0.0176869 0.0170883 0.0160253 0.0138299 0.0127317 0.0111402
threshold=682.70800000000008 11.399177794160378 3.4945641487459547 0.77085797855913696 1.0792637580985589 -0.29065787758162331 0.075284421858803144 1.9357385197259827 -0.63002729446958883 -0.050821648904208976 48.689500000000002 0.23886730478861398 226650.00000000003 1.1267371911809132 0.53856930176731688 0.008912433457629822 233.16500091552737 -0.79710046112065458 -0.13241744615286358 162.60250000000002 -0.41774708693082552 0.14088413758869781 0.37247944233302771 -0.89522616635323626 -0.016970792447563606 0.042192235339632352 -0.091301872748567034 -0.20306394996612112 -0.54210366508977659 -0.097700844216796243
decision_type=10 2 2 2 8 2 2 2 2 2 10 2 2 2 2 2 2 2 2 10 2 2 2 2 2 2 2 2 2 2
left_child=1 2 3 5 -4 8 9 13 17 18 -9 21 -13 -5 22 16 24 23 27 -15 28 -8 -14 -1 -11 -17 -20 -7 -10 -29
right_child=-2 -3 4 7 -6 6 11 10 20 15 -12 12 14 19 -16 25 -18 -19 26 -21 -22 -23 -24 -25 -26 -27 -28 29 -30 -31
leaf_value=-0.01648907267385059 0.99815651377042147 -0.31557371616363528 0.071630949030319843 0.0051028198038693519 0.029515190954719273 -0.0086499822739925653 -0.0042706629692328092 0.022399918876943134 -0.012437155780692896 -0.0061038071103732081 0.012191901259124279 -0.0054600317053319445 -0.0019975431477738713 0.0083930760501853881 0.002562380552051529 -0.0053394118712497621 -0.0097226570164573138 -0.013817517406174117 -0.0071073155139767851 0.01204376019537449 -0.0099212883868151254 -0.0033901320934733923 -0.00036522504592236753 -0.015226435040434203 -0.0057238969684618975 -0.004913144632696341 -0.0065699108609515236 -0.0074951470128654211 -0.011223246226156201 -0.0084330607760459819
leaf_weight=90 30 25 33 32 28 72 322 21 36 551 25 21 73 31 31 592 22 126 215 20 72 170 45 72 690 390 391 97 54 47
leaf_count=90 30 25 33 32 28 72 322 21 36 551 25 21 73 31 31 592 22 126 215 20 72 170 45 72 690 390 391 97 54 47
internal_value=3.06705e-10 -0.00681491 -0.00504815 -0.00586017 0.0522991 -0.00638553 -0.00552311 0.0111593 -0.0135321 -0.00601459 0.0168521 -0.00324616 -0.00116166 0.00800423 -0.000555852 -0.0056141 -0.00595929 -0.0150046 -0.00710838 0.00982472 -0.0109144 -0.00396641 -0.00137505 -0.0159279 -0.00589258 -0.00517012 -0.00676057 -0.00808418 -0.0117088 -0.00780127
internal_weight=4424 4394 4369 4308 61 4179 3729 129 450 3067 46 662 170 83 149 2245 1263 288 822 51 162 492 118 162 1241 982 606 216 90 144
internal_count=4424 4394 4369 4308 61 4179 3729 129 450 3067 46 662 170 83 149 2245 1263 288 822 51 162 492 118 162 1241 982 606 216 90 144
is_linear=0
shrinkage=0.05


Tree=30
num_leaves=31
num_cat=0
split_feature=9 5 8 5 12 12 2 12 12 2 12 12 12 12 7 12 4 12 12 12 8 12 12 12 12 12 9 8 9 12
split_gain=11242.6 1337.16 72.4639 16.0716 10.6636 9.29911 3.49938 1.55866 0.567882 0.515288 0.777447 0.452383 0.384728 0.162216 0.159807 0.152445 0.148199 0.137401 0.103881 0.0736288 0.0674908 0.0370388 0.0290229 0.0267775 0.0216309 0.0166115 0.0149484 0.0135148 0.0129863 0.0110555
threshold=11.035195934065362 682.70800000000008 0.83957650835489839 162.60250000000002 0.77085797855913696 -0.34689026835938996 1.071707650041531 0.070103756645767082 -0.076051433917211517 0.61954186562850022 1.9357385197259827 -0.70585766108035075 0.23886730478861398 -0.0058986870217621048 226650.00000000003 1.2555588700797917 401.26650000000006 0.53856930176731688 -0.1616247143053163 -0.54210366508977659 0.27934011298399203 0.10794060899833759 0.026577262212889145 0.37247944233302771 -0.038447320941300038 -0.29065787758162331 -0.10653512279854326 0.30506510855281982 -0.097700844216796243 0.17340333842727909
decision_type=2 10 2 8 2 2 8 2 2 8 2 2 2 2 2 2 8 2 2 2 2 2 2 2 2 2 2 2 2 2
left_child=1 2 4 -4 5 11 -5 8 18 -6 15 20 21 16 -14 -11 24 23 25 -13 -1 -9 -15 -16 -10 -7 -20 -22 -27 -23
right_child=-2 -3 3 6 9 7 -8 12 13 10 -12 19 14 22 17 -17 -18 -19 26 -21 27 29 -24 -25 -26 28 -28 -29 -30 -31
leaf_value=-0.013869103840910472 0.9337974339723587 -0.38704408148060676 0.017091300064930693 0.079184775032626942 0.002673521698654994 -0.009135435976915891 0.050587748638961628 -0.0042680711408748344 -0.0060925448390253649 0.0059720521424645309 0.018172425338653504 -0.012305750242537923 -0.0051870301102531985 -0.0052791397205534663 -0.0018976659661522517 0.010861990993310299 -0.010065489961943102 0.0024342615054094145 -0.0063202626254227198 -0.010283255030711494 -0.015265794768929482 -0.0036410981142352078 -0.0048159296603306478 -0.00034696378410444597 -0.005631841765944565 -0.0076859176554511079 -0.0069554252245466984 -0.016618617624044419 -0.0088411614779503114 -0.0029618984077344926
leaf_weight=130 32 23 32 20 23 36 23 255 436 37 27 90 21 821 73 28 21 31 143 90 80 203 575 45 613 113 263 24 31 85
leaf_count=130 32 23 32 20 23 36 23 255 436 37 27 90 21 821 73 28 21 31 143 90 80 203 575 45 613 113 263 24 31 85
internal_value=6.55071e-11 -0.00680362 -0.0048019 0.0439218 -0.00565292 -0.00606626 0.0638887 -0.00528414 -0.00577586 0.00936738 0.0110408 -0.013179 -0.00317934 -0.00544338 -0.00110358 0.00807849 -0.00590658 -0.00052806 -0.00717497 -0.0112945 -0.0146286 -0.00382921 -0.00508835 -0.0013063 -0.00582333 -0.00817478 -0.00673171 -0.015578 -0.00793462 -0.00344064
internal_weight=4424 4392 4369 75 4294 4179 43 3765 3052 115 92 414 713 2466 170 65 1070 149 586 180 234 543 1396 118 1049 180 406 104 144 288
internal_count=4424 4392 4369 75 4294 4179 43 3765 3052 115 92 414 713 2466 170 65 1070 149 586 180 234 543 1396 118 1049 180 406 104 144 288
is_linear=0
shrinkage=0.05


Tree=31
num_leaves=31
num_cat=0
split_feature=5 8 12 12 12 5 19 12 12 12 12 12 12 12 4 1 12 8 12 12 12 12 12 12 12 12 8 12 12 5
split_gain=10954.3 1283.3 115.177 17.039 8.47612 2.38653 1.84941 2.40443 1.57655 0.567742 0.512983 0.423325 0.323963 0.189863 0.165615 0.134811 0.144443 0.105684 0.0651305 0.0629014 0.0424583 0.0416243 0.0261374 0.0200804 0.018742 0.0169417 0.0147764 0.0107326 0.00956355 0.00925153
threshold=682.70800000000008 3.4736989278862773 4.2722077746127978 0.9107523304455114 -0.29065787758162331 193.62300000000002 1.0000000180025095e-35 2.7418705502372442 0.10505306531565696 -0.63002729446958883 -0.0058986870217621048 1.9357385197259827 0.25597454202835995 -0.10626859594171949 491.50100000000003 45.809910000000009 0.53856930176731688 0.27337798773391536 1.2555588700797917 0.044891023446338003 -0.41774708693082552 -0.047181467350540178 -0.1616247143053163 0.41203693905935351 -0.73275977266394399 0.18320111998822355 0.30506510855281982 0.008912433457629822 -0.54210366508977659 171.29400000000001
decision_type=10 2 2 2 2 10 2 2 2 2 2 2 2 2 8 10 2 2 2 2 2 2 2 2 2 2 2 2 2 10
left_child=1 2 3 4 9 -4 7 11 10 17 13 18 25 22 21 16 23 24 -5 27 28 -15 -6 -14 -1 -10 -19 -12 -11 -23
right_child=-2 -3 5 6 8 -7 -8 -9 12 20 19 -13 15 14 -16 -17 -18 26 -20 -21 -22 29 -24 -25 -26 -27 -28 -29 -30 -31
leaf_value=-0.013192584575153888 0.95219107667605085 -0.35014916481795133 0.066105445616302036 0.0070227451123563312 -0.0075378851370058123 0.089942830233346857 -0.0013350704498589041 0.028481146034139856 -0.0034566262679936893 -0.011200010776519775 -0.0051241897383043841 0.016534110516309739 -0.0013389331065147057 -0.0059659118437167596 -0.010213138691615314 -0.0043906676792539656 0.0026419038650170768 -0.014400600067650281 0.010349558786519114 -0.004283643689548553 -0.008939756696215934 -0.0054128100453717468 -0.0066525649467501979 0.00017537549564925335 -0.012125420787682136 -0.0026338287032044989 -0.015787687090535959 -0.0048070716432864063 -0.010147921216708643 -0.0043224102002568541
leaf_weight=96 30 27 21 28 144 21 20 26 237 36 465 25 81 527 20 20 38 96 31 543 72 711 198 30 72 85 24 626 54 20
leaf_count=96 30 27 21 28 144 21 20 26 237 36 465 25 81 527 20 20 38 96 31 543 72 711 198 30 72 85 24 626 54 20
internal_value=2.89528e-10 -0.00650108 -0.00437639 -0.00517658 -0.00572905 0.0780241 0.012651 0.015194 -0.00494997 -0.0122127 -0.00534847 0.0110813 -0.00230898 -0.00597896 -0.00569895 -0.000536174 -1.87917e-05 -0.0135447 0.00877073 -0.00472337 -0.00984476 -0.00562718 -0.00702533 -0.000929661 -0.0127352 -0.00323943 -0.014678 -0.00494223 -0.0105688 -0.00538298
internal_weight=4424 4394 4367 4325 4195 42 130 110 3745 450 3254 84 491 1620 1278 169 149 288 59 1634 162 1258 342 111 168 322 120 1091 90 731
internal_count=4424 4394 4367 4325 4195 42 130 110 3745 450 3254 84 491 1620 1278 169 149 288 59 1634 162 1258 342 111 168 322 120 1091 90 731
is_linear=0
shrinkage=0.05


Tree=32
num_leaves=31
num_cat=0
split_feature=10 5 8 2 10 9 8 9 2 10 9 5 9 9 9 9 9 25 9 1 8 9 9 4 10 8 6 8 2 4
split_gain=10267.8 1545.57 56.4944 9.5801 9.66941 7.90023 7.53751 0.62483 0.58598 0.699418 0.423433 0.3248 0.257215 0.200281 0.136161 0.108309 0.0905208 0.0686889 0.053439 0.0406454 0.0388027 0.0366298 0.0277094 0.0209785 0.0168967 0.0164883 0.0271749 0.0146912 0.0214703 0.0151256
threshold=11.399177794160378 682.70800000000008 0.83957650835489839 1.071707650041531 4.6435702634632428 -0.46277136174752864 0.22361762713690847 0.14600014741036352 0.62763191783366024 1.7104346753605313 -0.1705194290755819 343.3155000000001 -0.77313735815170193 0.57720251058728367 0.022127485259083705 0.018723083086408136 -0.057849300214237002 1.0000000180025095e-35 -0.61430799325767549 36.986905000000007 0.095466719648905352 -0.33267153578408715 -0.89789387737627646 310.01350000000008 -0.028310880234781229 0.054273372863464196 13.574999809265138 0.07337333944153461 1.4637893310374612 250.00350000000003
decision_type=2 10 2 10 2 2 2 2 8 2 2 8 2 2 2 2 2 2 2 8 2 2 2 10 2 2 2 2 8 8
left_child=1 2 5 4 -4 12 7 10 -8 17 21 13 22 20 15 16 24 19 -14 -10 -9 -7 -1 25 -12 -18 -27 29 -29 -16
right_child=-2 -3 3 -5 -6 6 8 11 9 -11 14 -13 18 -15 27 -17 23 -19 -20 -21 -22 -23 -24 -25 -26 26 -28 28 -30 -31
leaf_value=-0.014147820903195274 0.89239413142204294 -0.41530143281687865 0.028660645885393021 0.01795633400324732 0.076196940534788635 -0.0084861525477698228 0.00031779296987224372 -0.0025496848179215586 0.0064491120207568883 0.015905490553667467 -0.0059304858152647967 -0.0080564541878993621 -0.011557890343721268 0.0031311747882599855 -0.0042801649156999138 -0.0078037204933078851 -0.0048348658256162566 0.0044255750763806554 -0.0097993305987781956 0.0094915981981016345 -0.00081739245239684049 -0.0069051546720607622 -0.012907089748316343 -0.0031748803383015913 -0.0053105634444571845 -0.0047324168810840041 -0.0029461924253301997 -0.0020685218085418457 -0.0043085017757814219 -0.0028785368520766498
leaf_weight=90 32 23 20 32 23 52 20 99 23 31 131 20 108 22 512 34 1911 21 72 21 48 124 90 20 683 68 31 20 23 20
leaf_count=90 32 23 20 32 23 52 20 99 23 31 131 20 108 22 512 34 1911 21 72 21 48 124 90 20 683 68 31 20 23 20
internal_value=5.24839e-11 -0.00650196 -0.00434989 0.0386713 0.054087 -0.00510131 -0.00445254 -0.00483402 0.00810359 0.00972563 -0.00497999 -0.0020312 -0.012191 -0.00131815 -0.00485806 -0.0049984 -0.00496486 0.00677831 -0.0108545 0.00790121 -0.00198404 -0.00737227 -0.0135275 -0.00478624 -0.00541033 -0.00480227 -0.00417309 -0.00415562 -0.00326665 -0.00422747
internal_weight=4424 4392 4369 75 43 4294 3934 3818 116 96 3629 189 360 169 3453 2878 2844 65 180 44 147 176 180 2030 814 2010 99 575 43 532
internal_count=4424 4392 4369 75 43 4294 3934 3818 116 96 3629 189 360 169 3453 2878 2844 65 180 44 147 176 180 2030 814 2010 99 575 43 532
is_linear=0
shrinkage=0.05


Tree=33
num_leaves=31
num_cat=0
split_feature=5 8 9 12 12 12 12 12 12 12 3 12 7 4 12 12 8 6 5 12 12 12 12 12 9 12 4 8 9 9
split_gain=10007 1470.1 98.9 22.2704 6.94746 4.22396 1.33156 0.454489 0.428717 0.350732 0.409711 0.281144 0.181934 0.173331 0.174099 0.140467 0.0863792 0.0495825 0.0736004 0.0486134 0.0338761 0.0319177 0.0244316 0.0164758 0.0159025 0.0153039 0.0139289 0.0135674 0.0121935 0.0121061
threshold=682.70800000000008 3.4736989278862773 6.0477200168942895 0.9107523304455114 -0.29065787758162331 3.4945641487459547 0.099046028383119392 -0.63002729446958883 -0.0058986870217621048 1.9357385197259827 48.689500000000002 0.25597454202835995 226650.00000000003 559.00300000000004 -0.10108286939002296 0.53856930176731688 0.27337798773391536 233.16500091552737 87.404500000000013 0.042192235339632352 -0.48972880083811066 -0.047181467350540178 -0.1616247143053163 0.17340333842727909 0.12299760837131025 -0.73275977266394399 197.80500000000004 0.30506510855281982 -0.0046519731473582673 -0.10653512279854326
decision_type=10 2 2 2 2 2 2 2 2 2 10 2 2 8 2 2 2 2 8 2 2 2 2 2 2 2 10 2 2 2
left_child=1 2 3 4 7 9 8 16 13 17 -11 23 -13 14 22 24 25 18 -5 28 -9 -16 -6 -8 -14 -1 -23 -18 -10 -24
right_child=-2 -3 -4 5 6 -7 11 20 19 10 -12 12 15 -15 21 -17 27 -19 -20 -21 -22 26 29 -25 -26 -27 -28 -29 -30 -31
leaf_value=-0.011914618810017904 0.91009010414282487 -0.37402275712401778 0.097280315868556511 0.008776092444631187 -0.0068294262044506964 0.029740975637521063 -0.0031439379291763846 -0.0099452704743102759 -0.0043175835274405399 0.018372741997951553 0.0088992979750037206 -0.0049296171154128397 0.00037122947062016463 -0.0093927749329143113 -0.0053773249349110333 0.002410797237547392 -0.012991919306417308 0.0096392851788550619 0.0048107767626643181 -0.0038817401112676434 -0.008411482945774441 -0.0048934354425899766 -0.005565019489563618 -0.0023916206463564225 -0.0012012338989556956 -0.010950292357140118 -0.0035555185057455675 -0.01432104834044973 -0.004661039368145996 -0.0063007470361436868
