tree
version=v4
num_class=1
num_tree_per_iteration=1
label_index=0
max_feature_idx=26
objective=regression
feature_names=marketCap peRatio beta rsi ma50 ma200 close volume volatility_10d momentum_5d ret1 ret5 ret10 sector_Communication_Services sector_Consumer_Defensive sector_Consumer_Discretionary sector_Consumer_Staples sector_Energy sector_Financial_Services sector_Financials sector_Healthcare sector_Industrials sector_Materials sector_Real_Estate sector_Software sector_Technology sector_Utilities
feature_infos=[19398000:4867776000000] [0.31368000000000001:8219.5448500000002] [-515798.57250670553:13.444039990702761] [0:98.102999999999994] [0.36459999999999998:740248.94700000004] [0.3926:742158.65500000003] [9.9999997473787516e-06:7210.81982421875] [0:323756100] [0:194.24506990387295] [-0.99999908256883052:613.20953703578846] [-0.99999907749079819:614.25765016443961] [-0.99999908256883052:613.20953703578846] [-0.99999908256883052:618.48622092225378] [0:1] none [0:1] [0:1] [0:1] none [0:1] [0:1] [0:1] [0:1] [0:1] none [0:1] [0:1]
tree_sizes=2644 2768 2757 2757 2757 2792 2770 2763 2766 2795 2783 2776 2772 2786 2780 2773 2797 2779 2776 2789 2802 2798 2796 2825 2808 2797 2797 2832 2813 2808 2812 2850 2810 2811 2813 2823 2793 2833 2816 2825 2822 2823 2820 2822 2834 2850 2832 2818 2837 2828 2822 2842 2830 2821 2822 2812 2818 2830 2836 2835 2833 2841 2832 2845 2840 2858 2860 2864 2856 2857 2855 2852 2864 2855 2838 2869 2863 2879 2860 2863 2868 2858 2861 2851 2852 2864 2854 2871 2852 2837 2853 2860 2863 2859 2851 2858 2842 2841 2851 2820 2833 2849 2843 2823 2829 2838 2858 2850 2845 2854 2853 2841 2819 2835 2847 2854 2817 2822 2809 2818 2827 2830 2828 2828 2830 2815 2809 2780 2815 2797 2784 2795 2789 2809 2801 2805 2792 2782 2794 2767 2790 2799 2792 2779 2796 2796 2795 2792 2796 2803 2794 2795 2798 2804 2800 2807 2815 2791 2785 2801 2766 2760 2783 2786 2784 2800 2789 2785 2814 2778 2781 2773 2802 2807 2811 2796 2795 2782 2767 2791 2793 2789 2801 2801 2812 2815 2816 2781 2765 2782 2773 2777 2790 2776 2773 2797 2787 2796 2795 2788 2765 2799 2770 2776 2774 2792 2759 2766 2796 2819 2787 2765 2781 2777 2764 2772 2771 2781 2794 2789 2774 2765 2772 2784 2781 2775 2788 2786 2801 2794 2795 2753 2804 2762 2767 2778 2788 2788 2795 2791 2781 2786 2788 2790 2791 2811 2780 2789 2785 2761 2793 2799 2786 2803 2795 2808 2777 2780 2827 2798 2754 2793 2774 2771 2783 2798 2756 2783 2768 2764 2821 2783 2746 2797 2785 2790 2760 2773 2768 2798 2779 2813 2785 2804 2785 2791 2799 2770 2773 2757 2815 2809 2763 2768 2795 2785 2792 2757 2748 2770 2805 2801 2765 2779 2778 2774 2767 2750 2766 2786 2793 2801 2780 2780 2798 2809 2795 2818 2774 2778 2810 2773 2818 2779 2767 2792 2777 2784 2796 2809 2777 2816 2797 2799 2813 2781 2782 2790 2776 2812 2760 2782 2754 2788 2777 2796 2768 2796 2799 2776 2803 2781 2793 2789 2772 2774 2780 2786 2775 2784 2760 2792 2794 2782 2799 2779 2804 2823 2822 2816 2795 2791 2797 2804 2791 2796 2776 2803 2792 2777 2783 2779 2792 2788 2789 2800 2749 2800 2781 2810 2775 2787 2783 2761 2786 2790 2786 2769 2789 2782

Tree=0
num_leaves=31
num_cat=0
split_feature=9 9 9 9 9 9 9 9 9 9 9 2 10 9 9 9 9 9 9 9 9 9 9 10 9 9 9 9 9 10
split_gain=9.77656e+06 275323 36027.4 30839.2 18457.1 3175.24 2071.94 903.286 877.011 396.458 358.96 339.714 335.043 278.947 232.498 155.806 98.1638 76.2334 59.9302 46.6208 33.9634 26.9397 19.4603 13.7211 13.0112 10.9075 10.0668 8.85073 8.66377 8.15757
threshold=11.035195934065362 2.8573069296991771 6.0477200168942895 0.70702937105995756 -0.36990549464180994 1.5426406954617105 0.12299760837131025 -0.072473733131433668 -0.683040776100036 0.38589273616210679 1.0939253615528342 1.0401204089307157 1.9959421935603325 0.0072147263869437603 -0.18270596041283646 -0.84738467871022394 -0.53302922896616212 -0.028812381037553066 0.24461505143578535 0.052513527456494409 -0.11786414791865173 -0.28753372834095542 -0.75841963777131016 -0.91321427501028307 -0.46277136174752864 -0.050076323407867822 -0.61430799325767549 0.16900357261036716 -0.010828171282815711 0.46310208984150786
decision_type=2 2 2 2 2 2 2 2 2 2 2 8 2 2 2 2 2 2 2 2 2 2 2 2 2 2 2 2 2 2
left_child=1 3 11 4 8 10 7 14 15 18 -5 -3 -7 17 21 23 26 25 27 -15 -16 -6 -17 -1 -18 -9 -10 -8 -19 -11
right_child=-2 2 -4 5 6 12 9 13 16 29 -12 -13 -14 19 20 22 24 28 -20 -21 -22 -23 -24 -25 -26 -27 -28 -29 -30 -31
leaf_value=4.0072000945866151 32.257291739883499 6.6819282235527782 8.700089960994795 4.9205344803743545 4.3186506122706421 5.40414443014879 4.5573696934675514 4.4541907072617768 4.156457048358992 4.7279530274090229 5.1502912683195969 6.4212697915459422 5.6645410880471019 4.4975387694585409 4.412159835731793 4.0840519292842767 4.2364627444437559 4.4747079422510181 4.633961468171961 4.5242010239843102 4.4383435839867076 4.3698280873257005 4.1237588753658621 4.0403041814035303 4.2789728088867083 4.4648645745893507 4.1938490606372305 4.5849242610640433 4.4835416858302084 4.767954751851633
leaf_weight=68 32 25 32 34 36 21 68 408 36 26 34 25 30 527 180 72 36 510 51 238 397 90 54 58 36 579 36 51 609 25
leaf_count=68 32 25 32 34 36 21 68 408 36 26 34 25 30 527 180 72 36 510 51 238 397 90 54 58 36 579 36 51 609 25
internal_value=4.7206 4.51997 7.39003 4.46537 4.44283 5.25909 4.47672 4.46754 4.118 4.62529 5.03541 6.5516 5.55732 4.47997 4.41674 4.06175 4.21644 4.47058 4.58861 4.50583 4.43018 4.35521 4.10107 4.02244 4.25772 4.46045 4.17515 4.56918 4.47952 4.74756
internal_weight=4424 4392 82 4310 4191 119 3795 3574 396 221 68 50 51 2871 703 252 144 2106 170 765 577 126 126 126 72 987 72 119 1119 51
internal_count=4424 4392 82 4310 4191 119 3795 3574 396 221 68 50 51 2871 703 252 144 2106 170 765 577 126 126 126 72 987 72 119 1119 51
is_linear=0
shrinkage=1


Tree=1
num_leaves=31
num_cat=0
split_feature=10 9 9 9 9 12 9 9 9 9 12 9 9 9 12 9 9 9 9 9 9 12 9 9 10 9 9 9 9 9
split_gain=8.85365e+06 245356 31100.6 27851.1 16826 2808.61 2524.62 1992.35 889.829 791.503 427.77 380.021 332.231 262.128 148.928 140.615 88.5929 74.5008 57.3527 43.9335 36.7324 32.5975 31.4094 17.955 12.3833 11.7426 11.66 9.08527 8.85282 8.60962
threshold=11.399177794160378 2.8573069296991771 6.0477200168942895 0.83676171183830095 -0.36990549464180994 4.2722077746127978 0.19045556081281559 1.5426406954617105 -0.058651242951122722 -0.683040776100036 2.1730160767787692 0.46637763921042324 0.029963767721891469 -0.1705194290755819 1.2555588700797917 -0.84738467871022394 -0.53302922896616212 -0.018422311261472531 0.095734682849614852 -0.10149496639237097 0.31224685105613442 0.66909551658388644 -0.26033365984407048 -0.77313735815170193 -0.91321427501028307 -0.46277136174752864 0.0047225372988390921 -0.61430799325767549 0.062538014132738642 -0.038000761984353308
decision_type=2 2 2 2 2 10 2 2 2 2 10 2 2 2 10 2 2 2 2 2 2 10 2 2 2 2 2 2 2 2
left_child=1 3 5 4 9 -3 8 14 13 15 -9 20 17 22 -5 24 27 29 28 -15 -8 -13 -6 -17 -1 -18 -19 -11 -14 -10
right_child=-2 2 -4 7 6 -7 11 10 12 16 -12 21 18 19 -16 23 25 26 -20 -21 -22 -23 -24 -25 -26 -27 -28 -29 -30 -31
leaf_value=-0.6777312131489025 26.204734814167026 1.4205574627580315 3.7356354534626011 0.28429255523989277 -0.37249498455612751 2.1798201243082684 -0.10798698260503657 0.66875637481952532 -0.24678118064818594 -0.53593709468841555 0.96113784096457744 0.034495648919520054 -0.20284334393108594 -0.28544754893691454 0.45929659366607667 -0.61035005251566576 -0.45993168089124892 -0.22713714098899751 -0.15967189003439511 -0.26064422433697526 -0.044336650564390068 0.11520745988678316 -0.32425989362928603 -0.57220969133906896 -0.64628232347554171 -0.41954711212052243 -0.21655546137134132 -0.50041466554005942 -0.18632741635587036 -0.23766321772161653
leaf_weight=68 32 29 32 31 54 21 68 29 494 36 22 22 255 270 20 54 36 779 136 527 34 29 90 72 58 36 391 36 119 544
leaf_count=68 32 29 32 31 54 21 68 29 494 36 22 22 255 270 20 54 36 779 136 527 34 29 90 72 58 36 391 36 119 544
internal_value=-6.52599e-11 -0.190927 2.51845 -0.242474 -0.262263 1.73945 -0.230038 0.573902 -0.238358 -0.57247 0.794882 -0.0310499 -0.22385 -0.280264 0.352922 -0.625905 -0.478958 -0.232252 -0.187477 -0.269047 -0.0867702 0.0803906 -0.342348 -0.588556 -0.663255 -0.439739 -0.223601 -0.518176 -0.197588 -0.242003
internal_weight=4424 4392 82 4310 4208 50 3812 102 3659 396 51 153 2718 941 51 252 144 2208 510 797 102 51 144 126 126 72 1170 72 374 1038
internal_count=4424 4392 82 4310 4208 50 3812 102 3659 396 51 153 2718 941 51 252 144 2208 510 797 102 51 144 126 126 72 1170 72 374 1038
is_linear=0
shrinkage=0.05


Tree=2
num_leaves=31
num_cat=0
split_feature=9 9 10 9 9 8 9 9 9 9 12 9 9 9 12 9 9 9 9 9 9 10 9 9 9 9 10 9 9 9
split_gain=8.00669e+06 219768 27351 25135.6 15185.5 2532.01 2278.47 1798.1 803.441 715.909 386.062 342.969 307.761 226.91 134.408 106.359 100.312 66.9559 58.5594 36.021 33.151 29.9847 28.347 13.6981 11.4049 10.5977 10.2608 9.44233 9.40467 7.66656
threshold=11.035195934065362 2.8573069296991771 6.1846678216089064 0.83676171183830095 -0.36990549464180994 1.3534814394274479 0.19045556081281559 1.5426406954617105 -0.061761154498964292 -0.7112048028400656 2.1730160767787692 0.46637763921042324 0.026565874492979983 -0.1705194290755819 1.2555588700797917 -0.53302922896616212 -0.84738467871022394 -0.020581075856841487 0.087099576088416578 -0.10653512279854326 0.31224685105613442 0.59128385380774451 -0.26033365984407048 -0.61430799325767549 -0.93342527679682707 -0.46277136174752864 -0.78631030101427923 0.13374336657394761 -0.00078544071784386593 -0.041071097109022396
decision_type=2 2 2 2 2 10 2 2 2 2 10 2 2 2 10 2 2 2 2 2 2 2 2 2 2 2 2 2 2 2
left_child=1 3 5 4 9 -3 8 14 13 16 -9 20 17 22 -5 23 24 29 -14 -15 -8 -13 -6 -11 -1 -17 -18 -20 -19 -10
right_child=-2 2 -4 7 6 -7 11 10 12 15 -12 21 18 19 -16 25 26 28 27 -21 -22 -23 -24 -25 -26 -27 -28 -29 -30 -31
leaf_value=-0.64746197771143033 24.919835454225542 1.3493245026160932 3.5240946888923648 0.27007794111005723 -0.35387023643211085 2.0702314740135557 -0.10258763555218192 0.63531855057025777 -0.2357420427866751 -0.51521137732046618 0.91308095238425513 0.035706989248865284 -0.19073927213468822 -0.27292723023993343 0.43633178234100339 -0.43693508307139084 -0.58301061283458366 -0.21767640993212289 -0.1652097523212433 -0.2492476156912744 -0.042119818126015805 0.11251691314909194 -0.30804689672258168 -0.4753939456409878 -0.61706451310051813 -0.39856975608401829 -0.55164477750658991 -0.141156188880696 -0.20875928696765694 -0.227032230672463
leaf_weight=54 32 29 32 31 54 21 68 29 459 54 22 24 391 234 20 36 44 629 102 512 34 27 90 36 72 36 64 68 558 562
leaf_count=54 32 29 32 31 54 21 68 29 459 54 22 24 391 234 20 36 44 629 102 512 34 27 90 36 72 36 64 68 558 562
internal_value=2.78041e-09 -0.181565 2.38264 -0.230351 -0.24915 1.65211 -0.218536 0.545207 -0.226441 -0.543846 0.755138 -0.0294974 -0.213157 -0.267767 0.335276 -0.463048 -0.599783 -0.22156 -0.180087 -0.256675 -0.0824317 0.0763711 -0.325231 -0.499284 -0.630092 -0.417752 -0.564423 -0.155588 -0.213485 -0.230948
internal_weight=4424 4392 82 4310 4208 50 3812 102 3659 396 51 153 2769 890 51 162 234 2208 561 746 102 51 144 90 126 72 108 170 1187 1021
internal_count=4424 4392 82 4310 4208 50 3812 102 3659 396 51 153 2769 890 51 162 234 2208 561 746 102 51 144 90 126 72 108 170 1187 1021
is_linear=0
shrinkage=0.05


Tree=3
num_leaves=31
num_cat=0
split_feature=10 9 9 9 9 9 12 9 9 9 12 9 9 9 9 9 9 9 9 9 12 9 9 9 9 9 9 9 9 9
split_gain=7.25141e+06 195759 23620.3 22691 13566.8 2328.24 2284.41 1523.4 670.08 646.108 348.421 290.411 271.872 215.325 156.784 95.9894 90.5317 65.396 44.9097 32.7347 25.3623 20.8319 20.6957 12.3625 10.2929 9.5644 9.42438 9.31485 7.73681 6.0959
threshold=11.399177794160378 2.8573069296991771 6.0477200168942895 0.70702937105995756 -0.36990549464180994 1.5426406954617105 4.2722077746127978 0.12299760837131025 -0.078060200156558276 -0.7112048028400656 2.1730160767787692 0.38589273616210679 1.0939253615528342 0.0090591562779792651 -0.18270596041283646 -0.53302922896616212 -0.84738467871022394 -0.030532026516396468 0.24461505143578535 0.056856062952460047 0.53856930176731688 -0.12805999860984477 -0.28753372834095542 -0.61430799325767549 -0.93342527679682707 -0.46277136174752864 -0.77313735815170193 -0.052701079880605232 -0.010063206420795832 0.16900357261036716
decision_type=2 2 2 2 2 2 10 2 2 2 10 2 2 2 2 2 2 2 2 2 10 2 2 2 2 2 2 2 2 2
left_child=1 3 6 4 9 12 -3 8 14 16 -7 18 -5 17 22 23 24 27 29 -15 -13 -16 -6 -11 -1 -17 -18 -10 -19 -9
right_child=-2 2 -4 5 7 10 -8 11 13 15 -12 20 -14 19 21 25 26 28 -20 -21 -22 -23 -24 -25 -26 -27 -28 -29 -30 -31
leaf_value=-0.61508888315271459 23.715368300676346 1.2808203927401838 3.3080587804317476 0.17049705877023585 -0.34553492930200369 0.60355261276508199 1.9655723299298966 -0.13972800040946287 -0.22964009346681485 -0.48945081587190986 0.8674269286069004 -0.011639750842005015 0.37044990202959849 -0.18998123733097055 -0.26730249888367125 -0.41508834097120495 -0.55097241931491436 -0.21099004626486606 -0.073847793013441798 -0.16639207110685461 0.058893366932868965 -0.24484480459396152 -0.30067867173088925 -0.45162423319286771 -0.586211289299859 -0.37864126960436506 -0.52143214190447773 -0.2199516695217798 -0.2029045311025918 -0.11686027727875055
leaf_weight=54 32 29 32 34 36 29 21 68 425 54 22 26 34 527 144 36 54 561 51 204 25 365 90 36 72 36 54 596 626 51
leaf_count=54 32 29 32 34 36 29 21 68 425 54 22 26 34 527 144 36 54 561 51 204 25 365 90 36 72 36 54 596 626 51
internal_value=5.36016e-10 -0.17279 2.2473 -0.218833 -0.238165 0.462005 1.56842 -0.209105 -0.216983 -0.516654 0.717381 -0.08171 0.270473 -0.206919 -0.263559 -0.439896 -0.569794 -0.214706 -0.113104 -0.183398 0.0229353 -0.251198 -0.313495 -0.47432 -0.598587 -0.396865 -0.536202 -0.223985 -0.206726 -0.129928
internal_weight=4424 4392 82 4310 4191 119 50 3795 3574 396 51 221 68 2939 635 162 234 2208 170 731 51 509 126 90 126 72 108 1021 1187 119
internal_count=4424 4392 82 4310 4191 119 50 3795 3574 396 51 221 68 2939 635 162 234 2208 170 731 51 509 126 90 126 72 108 1021 1187 119
is_linear=0
shrinkage=0.05


Tree=4
num_leaves=31
num_cat=0
split_feature=9 8 10 9 9 8 9 9 9 9 9 9 9 10 9 10 9 9 9 9 12 9 9 9 9 9 9 10 9 9
split_gain=6.55733e+06 175472 22834.5 18331.2 12244 2464.85 1712.62 1374.87 604.92 583.977 262.096 245.364 192.228 148.397 144.775 103.598 64.5519 59.4583 40.531 27.5902 22.8895 19.99 18.6779 12.2821 10.516 9.23466 8.63187 6.42193 6.27077 5.50155
threshold=11.035195934065362 0.83957650835489839 6.1846678216089064 0.70702937105995756 -0.36990549464180994 1.3534814394274479 1.5426406954617105 0.12299760837131025 -0.075966519929159079 -0.683040776100036 0.38589273616210679 1.0939253615528342 0.011092908582885476 1.9959421935603325 -0.18270596041283646 -0.83363860414985336 -0.53302922896616212 -0.027575419827067179 0.24461505143578535 0.059680268091987128 0.53856930176731688 -0.12372489100285754 -0.28753372834095542 -0.90975528819722762 -0.75841963777131016 -0.048283164727379639 -0.46277136174752864 -0.60839496951453353 -0.0075370338877051015 0.16900357261036716
decision_type=2 10 2 2 2 10 2 2 2 2 2 2 2 2 2 2 2 2 2 2 10 2 2 2 2 2 2 2 2 2
left_child=1 3 5 4 9 -3 11 8 14 15 18 -5 17 -8 22 23 27 25 29 -14 -12 -16 -6 -1 -17 -10 -18 -11 -19 -9
right_child=-2 2 -4 6 7 -7 13 10 12 16 20 -13 19 -15 21 24 26 28 -20 -21 -22 -23 -24 -25 -26 -27 -28 -29 -30 -31
leaf_value=-0.58049417336781817 22.551848141476512 1.1779092199662153 3.1208117842674259 0.16197221173959619 -0.328258189227846 1.8668752125331336 0.55398451941353943 -0.13274159694419188 -0.21694277337953155 -0.45809994496797257 -0.011057763682821624 0.3519274010377772 -0.17952721717310888 0.73427889251708989 -0.25275996128718059 -0.51605716136194046 -0.39433392087618513 -0.1993910594588745 -0.070155404128280349 -0.15707504857670179 0.05594870004057885 -0.23164641830947375 -0.28564473708470661 -0.55039055049419405 -0.48587627675798206 -0.2076504461705897 -0.35970921383963694 -0.42818846983068132 -0.19201630977962328 -0.11101726655866587
leaf_weight=72 32 34 32 34 36 21 21 68 510 38 26 34 510 25 162 62 36 578 51 187 25 364 90 64 54 562 36 34 575 51
leaf_count=72 32 34 32 34 36 21 21 68 510 38 26 34 510 25 162 62 36 578 51 187 25 364 90 64 54 562 36 34 575 51
internal_value=1.45243e-09 -0.164312 2.05884 -0.20924 -0.226257 1.44097 0.416344 -0.19865 -0.206134 -0.490821 -0.0776245 0.25695 -0.196417 0.651971 -0.249681 -0.53672 -0.410498 -0.203595 -0.107448 -0.173503 0.0217885 -0.238149 -0.29782 -0.566328 -0.502007 -0.212071 -0.377022 -0.443975 -0.195713 -0.123431
internal_weight=4424 4392 87 4305 4191 55 114 3795 3574 396 221 68 2922 46 652 252 144 2225 170 697 51 526 126 136 116 1072 72 72 1153 119
internal_count=4424 4392 87 4305 4191 55 114 3795 3574 396 221 68 2922 46 652 252 144 2225 170 697 51 526 126 136 116 1072 72 72 1153 119
is_linear=0
shrinkage=0.05


Tree=5
num_leaves=31
num_cat=0
split_feature=10 8 11 11 11 12 11 11 11 11 11 11 11 11 10 11 11 11 11 11 11 12 11 12 11 11 11 11 11 11
split_gain=5.93926e+06 156290 19688.5 16543.9 11050.2 2224.29 1545.64 1241.1 553.784 527.039 221.441 217.636 174.879 147.131 133.928 93.6407 58.2581 49.7945 31.1779 25.4505 23.8848 20.6578 16.8568 13.3047 7.79026 7.42182 6.74596 5.89664 5.76097 4.52538
threshold=11.399177794160378 0.83957650835489839 6.0477200168942895 0.70702937105995756 -0.36990549464180994 4.2722077746127978 1.5426406954617105 0.13374336657394761 -0.069078996241234411 -0.683040776100036 1.0939253615528342 0.38589273616210679 0.016350713731904557 -0.18270596041283646 1.9959421935603325 -0.82572868143671363 -0.53302922896616212 -0.025096580950863531 0.24461505143578535 0.066274454371082162 -0.11548907592762923 0.53856930176731688 -0.28753372834095542 -0.90902327640918867 -0.46277136174752864 -0.75841963777131016 -0.045250113007798014 -0.61430799325767549 -0.0059355813147600181 0.039421875711537886
decision_type=2 10 2 2 2 10 2 2 2 2 2 2 2 2 2 2 2 2 2 2 2 10 2 10 2 2 2 2 2 2
left_child=1 3 5 4 9 -3 10 8 13 15 -5 18 17 22 -8 23 27 26 -9 29 -15 -13 -6 -1 -18 -17 -10 -11 -19 -14
right_child=-2 2 -4 6 7 -7 14 11 12 16 -12 21 19 20 -16 25 24 28 -20 -21 -22 -23 -24 -25 -26 -27 -28 -29 -30 -31
leaf_value=-0.5514777925279406 21.462729298847265 1.1181222971747904 2.9278526782989505 0.15387359489412869 -0.31184527940220308 1.7726047924586705 0.52628533386048815 -0.11452763688330557 -0.2043874030854522 -0.436085221502516 0.33433103070539588 -0.01050487513600204 -0.17238880671999035 -0.23809609208444155 0.6975649509429932 -0.48779705718711575 -0.3746172255939908 -0.18861893105209404 -0.066647633793307279 -0.14562519683557398 -0.21710942296094671 0.053151264041662219 -0.27136249833636816 -0.52108150654368934 -0.34172375069724192 -0.46158244874742299 -0.19629795695539048 -0.40746742950545417 -0.18159596299498737 -0.16228468838860008
leaf_weight=72 32 34 32 34 36 21 21 102 476 36 34 26 272 198 25 54 36 561 51 170 430 25 90 72 36 54 562 36 609 187
leaf_count=72 32 34 32 34 36 21 21 102 476 36 34 26 272 198 25 54 36 561 51 170 430 25 90 72 36 54 562 36 609 187
internal_value=4.74645e-10 -0.156377 1.94175 -0.198778 -0.214944 1.36802 0.395527 -0.188717 -0.195533 -0.46628 0.244102 -0.0687509 -0.18541 -0.23362 0.619372 -0.509884 -0.389973 -0.192036 -0.0985676 -0.162151 -0.223726 0.0206991 -0.282929 -0.53628 -0.35817 -0.47469 -0.200008 -0.421776 -0.184963 -0.168272
internal_weight=4424 4392 87 4305 4191 55 114 3795 3591 396 68 204 2837 754 46 252 144 2208 153 629 628 51 126 144 72 108 1038 72 1170 459
internal_count=4424 4392 87 4305 4191 55 114 3795 3591 396 68 204 2837 754 46 252 144 2208 153 629 628 51 126 144 72 108 1038 72 1170 459
is_linear=0
shrinkage=0.05


Tree=6
num_leaves=31
num_cat=0
split_feature=9 10 9 10 9 8 9 9 9 9 9 9 9 9 9 10 9 9 9 9 9 12 12 9 9 9 9 9 10 9
split_gain=5.37042e+06 140130 17401.5 14962.8 10072.2 1503.07 1502.84 1280.31 535.613 476.319 265.24 222.748 212.116 144.517 70.1987 67.4081 53.0465 33.1148 22.1505 22.0324 19.9188 18.4564 9.12913 8.65701 7.51748 7.03072 7.02121 6.91416 4.81691 4.70225
threshold=11.035195934065362 3.0541620321356264 0.83676171183830095 6.1846678216089064 -0.36990549464180994 1.3534814394274479 0.19045556081281559 1.9571898834296355 -0.064301093286859887 -0.7112048028400656 1.3480874902198374 0.46637763921042324 0.03122628787018145 -0.1705194290755819 -0.53302922896616212 -0.86388927571250695 -0.018993834757549063 0.095734682849614852 0.27446558371139312 -0.1043200703360969 -0.23282799697220266 0.66909551658388644 -0.63002729446958883 -0.79876302725591719 0.0031777557892833657 -0.46277136174752864 -0.94860995504789702 -0.039981839460148931 -0.28335121620582276 0.066274454371082162
decision_type=2 2 2 2 2 10 2 2 2 2 2 2 2 2 2 2 2 2 2 2 2 10 10 2 2 2 2 2 2 2
left_child=1 2 4 5 9 -3 8 10 13 15 -4 18 16 20 22 26 27 29 -8 -15 28 -13 -11 -17 -18 -16 -1 -10 -6 -14
right_child=-2 3 7 -5 6 -7 11 -9 12 14 -12 21 17 19 25 23 24 -19 -20 -21 -22 -23 -24 -25 -26 -27 -28 -29 -30 -31
leaf_value=-0.53341543674468994 20.409040399082006 1.119696479373508 0.22535446461509256 2.7622620761394501 -0.30090552109938407 1.6837088993617468 -0.090459310657837813 0.69285888539420237 -0.19218107632540782 -0.42106611096129126 0.42285356451483341 0.026285640946166085 -0.155847140714234 -0.22187617827975559 -0.35588637060589262 -0.47904586570207464 -0.17604225349864311 -0.12322434362243205 -0.043858743450312203 -0.20335828795120894 -0.24651145140329997 0.087017652289620773 -0.38909070666243389 -0.45069263908598156 -0.16784570818573102 -0.32463755872514516 -0.50697556748447647 -0.18433111549248746 -0.27398057916890023 -0.14314471401420295
leaf_weight=36 32 27 34 32 26 21 51 36 545 49 34 22 255 252 36 43 762 136 51 443 72 29 41 72 442 36 83 578 46 102
leaf_count=36 32 27 34 32 26 21 51 36 545 49 34 22 255 252 36 43 762 136 51 443 72 29 41 72 442 36 83 578 46 102
internal_value=-1.79274e-09 -0.1487 -0.187169 1.92478 -0.202959 1.36645 -0.178027 0.45175 -0.184447 -0.442966 0.324104 -0.0244995 -0.174012 -0.219518 -0.377061 -0.488593 -0.180324 -0.14422 -0.067159 -0.210073 -0.265107 0.0608195 -0.4065 -0.461294 -0.173033 -0.340262 -0.514974 -0.188141 -0.283703 -0.152218
internal_weight=4424 4392 4312 80 4208 48 3812 104 3659 396 68 153 2820 839 162 234 2327 493 102 695 144 51 90 115 1204 72 119 1123 72 357
internal_count=4424 4392 4312 80 4208 48 3812 104 3659 396 68 153 2820 839 162 234 2327 493 102 695 144 51 90 115 1204 72 119 1123 72 357
is_linear=0
shrinkage=0.05


Tree=7
num_leaves=31
num_cat=0
split_feature=10 9 9 9 9 12 9 10 9 9 9 9 12 9 9 9 9 9 9 9 9 10 9 9 9 9 9 9 9 9
split_gain=4.86466e+06 124700 15032.3 13430.5 9090.5 1487.34 1367.54 1066.96 533.093 348.408 230.183 201.26 193.51 133.488 128.14 56.268 54.7982 46.9533 35.1709 27.032 20.1958 17.3455 13.6201 8.0673 7.02044 6.48886 5.98663 5.91607 5.10457 4.93999
threshold=11.399177794160378 2.8573069296991771 0.83676171183830095 6.0477200168942895 -0.41652655234517222 4.2722077746127978 0.16900357261036716 1.7104346753605313 -0.083737963285521619 -0.73195567919373161 0.46637763921042324 0.018723083086408136 2.1730160767787692 -0.21482828969428722 1.3480874902198374 -0.031754428858892562 -0.58636800185564775 -0.87886413091980187 0.078720548573799967 0.27446558371139312 -0.13856483539157441 0.59128385380774451 -0.33267153578408715 -0.0084520805097685874 -0.05470117285033254 -0.79876302725591719 -0.4947734619716701 -0.65578378239279644 0.11134347094217535 -0.94860995504789702
decision_type=2 2 2 2 2 10 2 2 2 2 2 2 10 2 2 2 2 2 2 2 2 2 2 2 2 2 2 2 2 2
left_child=1 2 4 5 9 -3 8 14 13 17 19 15 -9 22 -4 24 27 29 -13 -8 -15 -12 -6 -17 -10 -19 -18 -11 -20 -1
right_child=-2 3 7 -5 6 -7 10 12 11 16 21 18 -14 20 -16 23 26 25 28 -21 -22 -23 -24 -25 -26 -27 -28 -29 -30 -31
leaf_value=-0.50674464702606203 19.424286903440954 1.0460404428942451 0.21408674857195686 2.5898859951645137 -0.29463761448860171 1.5985639980861119 -0.089821008724324858 0.50173255602518718 -0.18805971630881815 -0.40778593354754983 0.026850365630040569 -0.15035753398159751 0.707030031897805 -0.22392389559083514 0.36895259835503325 -0.17166479002476459 -0.35321413212352332 -0.45725388085400615 -0.13217397110134949 -0.041665805828775847 -0.20167806822913034 0.085270277052013968 -0.25697112182776133 -0.16399760755976212 -0.17969741150372182 -0.43274224599202471 -0.32437879641850792 -0.38161858651373121 -0.11558342681211585 -0.4840602358182271
leaf_weight=36 32 29 34 32 36 21 68 24 425 54 24 459 22 144 22 663 36 54 102 51 350 27 72 711 613 54 36 36 85 72
leaf_count=36 32 29 34 32 36 21 68 24 425 54 24 459 22 144 22 663 36 54 102 51 350 27 72 711 613 54 36 36 85 72
internal_value=-4.29747e-10 -0.141525 -0.178273 1.79002 -0.192811 1.2781 -0.169724 0.421492 -0.176163 -0.426738 -0.0310946 -0.167697 0.599918 -0.219171 0.274927 -0.174335 -0.371309 -0.46831 -0.142911 -0.0691831 -0.208163 0.0577786 -0.269527 -0.167697 -0.183121 -0.444998 -0.338796 -0.397319 -0.124633 -0.491622
internal_weight=4424 4392 4310 82 4208 50 3830 102 3660 378 170 3058 46 602 56 2412 162 216 646 119 494 51 108 1374 1038 108 72 90 187 108
internal_count=4424 4392 4310 82 4208 50 3830 102 3660 378 170 3058 46 602 56 2412 162 216 646 119 494 51 108 1374 1038 108 72 90 187 108
is_linear=0
shrinkage=0.05


Tree=8
num_leaves=31
num_cat=0
split_feature=9 8 10 9 9 9 9 9 9 9 9 9 9 9 10 9 9 9 9 9 9 9 9 9 9 9 9 8 10 9
split_gain=4.39841e+06 111865 13059.2 12142.7 8124.75 1759 1137.48 923.585 452.958 314.439 187.478 164.776 138.551 108.954 94.7864 49.4554 42.3754 41.9937 30.6103 20.7273 14.5543 12.2922 5.8562 5.40294 5.33925 5.31947 5.13006 5.10202 4.46733 4.32911
threshold=11.035195934065362 0.83957650835489839 6.1846678216089064 0.70702937105995756 -0.41652655234517222 3.5498521383158406 1.5426406954617105 0.11134347094217535 -0.089415903733704991 -0.73195567919373161 0.38589273616210679 1.0939253615528342 -0.012645135555313212 -0.21482828969428722 1.9959421935603325 -0.58636800185564775 -0.87886413091980187 0.03526900886549978 0.20711420687522122 -0.046130656838367194 -0.14401793615330191 -0.33267153578408715 -0.79876302725591719 -0.4947734619716701 -0.65578378239279644 0.074907181080344123 0.012719566193244216 0.16766543205859857 -0.95187554019993825 0.27446558371139312
decision_type=2 10 2 2 2 2 2 2 2 2 2 2 2 2 2 2 2 2 2 2 2 2 2 2 2 2 2 10 2 2
left_child=1 3 5 4 9 -3 11 8 13 16 18 -5 19 21 -8 24 28 26 -9 -10 -15 -6 -18 -17 -11 -19 -14 -12 -1 -20
right_child=-2 2 -4 6 7 -7 14 10 12 15 27 -13 17 20 -16 23 22 25 29 -21 -22 -23 -24 -25 -26 -27 -28 -29 -30 -31
leaf_value=-0.48204295214484721 18.469981610687682 0.82691102027893071 2.4435961557552219 0.1309726003338309 -0.27990573048591616 1.4040975715174822 0.45242425260089691 -0.10546839001799833 -0.17770333464552718 -0.38739663053441936 0.0052713300672269639 0.28663803479250743 -0.15695568809671978 -0.2140838378951663 0.59651702499389658 -0.3355534189277225 -0.43439118597242565 -0.13927160526524071 -0.076031194539631128 -0.16631447708504832 -0.19383388276894886 -0.24412256744172842 -0.41110512503871216 -0.30815984805425012 -0.36253764828046164 -0.12632438946170968 -0.14913209594244778 0.037662768568843603 -0.46014766177615601 -0.050799604549127464
leaf_weight=34 32 22 32 34 36 33 21 119 697 54 31 34 762 126 25 36 54 238 34 936 300 72 54 36 36 119 289 20 74 34
leaf_count=34 32 22 32 34 36 33 21 119 697 54 31 34 762 126 25 36 54 238 34 936 300 72 54 36 36 119 289 20 74 34
internal_value=9.64584e-11 -0.134572 1.64049 -0.170444 -0.184294 1.17322 0.338707 -0.162374 -0.168723 -0.405401 -0.0670013 0.208805 -0.161265 -0.211195 0.530736 -0.352744 -0.444894 -0.149772 -0.0901764 -0.171175 -0.199823 -0.25605 -0.422748 -0.321857 -0.377453 -0.134956 -0.154804 0.0179739 -0.467041 -0.0634154
internal_weight=4424 4392 87 4305 4191 55 114 3813 3575 378 238 68 3041 534 46 162 216 1408 187 1633 426 108 108 72 90 357 1051 51 108 68
internal_count=4424 4392 87 4305 4191 55 114 3813 3575 378 238 68 3041 534 46 162 216 1408 187 1633 426 108 108 72 90 357 1051 51 108 68
is_linear=0
shrinkage=0.05


Tree=9
num_leaves=31
num_cat=0
split_feature=10 10 11 11 11 11 11 11 11 11 11 11 2 11 10 11 11 11 11 11 11 10 10 11 11 11 11 11 10 11
split_gain=3.98459e+06 99420.1 12779.7 9614.63 7404.05 1103.63 943.181 395.999 351.071 194.431 163.093 159.027 113.022 103.464 62.5233 38.5601 36.3371 29.6609 16.8436 15.2532 15.0674 13.6985 7.75089 6.33973 5.18321 4.80585 4.6384 4.24181 3.87699 3.82747
threshold=11.399177794160378 3.0541620321356264 0.83676171183830095 6.0477200168942895 -0.36990549464180994 0.19045556081281559 1.9571898834296355 -0.066320161323076485 -0.683040776100036 1.3480874902198374 0.46637763921042324 0.025276709129304468 1.0401204089307157 -0.1705194290755819 -0.83363860414985336 -0.53302922896616212 -0.022545797536988429 0.087099576088416578 0.31224685105613442 -0.10900740951397335 -0.26033365984407048 0.59128385380774451 -0.91321427501028307 -0.75841963777131016 -0.46277136174752864 -0.0027327034009854141 0.14600014741036352 -0.04273501054745537 -0.60839496951453353 0.046686941250981613
decision_type=2 2 2 2 2 2 2 2 2 2 2 2 8 2 2 2 2 2 2 2 2 2 2 2 2 2 2 2 2 2
left_child=1 2 4 12 8 7 9 13 14 -4 18 16 -3 20 22 28 27 29 -7 -15 -6 -12 -1 -16 -17 -18 -19 -9 -10 -13
right_child=-2 3 6 -5 5 10 -8 11 15 -11 21 17 -14 19 23 24 25 26 -20 -21 -22 -23 -24 -25 -26 -27 -28 -29 -30 -31
leaf_value=-0.45032177322051103 17.579656235314907 1.2444590415954591 0.1929421423112645 2.2897535175085069 -0.24840127980267562 -0.071948154358302846 0.59399279091093271 -0.16553825052950011 -0.35436618265352754 0.36203635019414571 0.024442546302452683 -0.13775404745637021 1.0908774728360384 -0.19165178250383449 -0.39932600759690806 -0.30505939192242093 -0.1527016198334574 -0.11384782831208046 -0.02884657382965088 -0.17545814666855203 -0.21499316003587512 0.076358889236494351 -0.42644880589316875 -0.37589226431316802 -0.27822863128450187 -0.14642584744733744 -0.09582511548902474 -0.1591837667061341 -0.33112532391267668 -0.12803465797301922
leaf_weight=68 32 25 34 32 54 68 36 493 38 34 24 221 23 216 62 36 595 119 34 445 90 27 68 54 36 626 51 562 34 187
leaf_count=68 32 25 34 32 54 68 36 493 38 34 24 221 23 216 62 36 595 119 34 445 90 27 68 54 36 626 51 562 34 187
internal_value=6.62957e-10 -0.128085 -0.160488 1.61842 -0.17402 -0.152643 0.387048 -0.158145 -0.379796 0.277489 -0.0210781 -0.149409 1.17087 -0.189116 -0.415384 -0.317518 -0.155357 -0.125988 -0.057581 -0.18075 -0.227521 0.0519277 -0.438385 -0.388417 -0.291644 -0.149484 -0.108441 -0.162153 -0.343391 -0.133299
internal_weight=4424 4392 4312 80 4208 3812 104 3659 396 68 153 2854 48 805 252 144 2276 578 102 661 144 51 136 116 72 1221 170 1055 72 408
internal_count=4424 4392 4312 80 4208 3812 104 3659 396 68 153 2854 48 805 252 144 2276 578 102 661 144 51 136 116 72 1221 170 1055 72 408
is_linear=0
shrinkage=0.05


Tree=10
num_leaves=31
num_cat=0
split_feature=9 12 12 9 9 9 12 9 9 12 9 9 9 9 9 9 12 9 9 9 9 12 9 10 9 9 9 9 10 9
split_gain=3.60238e+06 89274.8 10096.9 9882.78 6619.13 1171.37 933.383 752.843 374.327 256.259 141.926 122.355 114.217 108.941 93.5057 41.2681 33.7907 31.4221 21.7197 21.5712 13.4504 12.8876 10.1954 4.54459 4.53923 4.39317 4.33752 4.03897 3.78122 3.73249
threshold=11.035195934065362 2.7418705502372442 5.6540212123951026 0.70702937105995756 -0.41652655234517222 3.5498521383158406 1.511622369457893 0.12299760837131025 -0.086262934217032447 -0.73275977266394399 0.38589273616210679 1.9571898834296355 -0.0047511320751171806 1.0939253615528342 -0.20685605370782437 -0.58636800185564775 -0.87733718977757735 0.042836767075337463 0.24461505143578535 -0.037399299965538972 -0.28753372834095542 0.53856930176731688 -0.13283082144936306 -0.80697801999787744 -0.65578378239279644 -0.4947734619716701 0.017209448215315452 -0.057903084908432094 -0.95187554019993825 0.074907181080344123
decision_type=2 10 10 2 2 2 10 2 2 10 2 2 2 2 2 2 10 2 2 2 2 10 2 2 2 2 2 2 2 2
left_child=1 3 5 4 9 -3 13 8 14 16 18 -8 19 -5 20 24 28 26 -9 27 -6 -12 -16 -18 -11 -17 -14 -10 -1 -19
right_child=-2 2 -4 6 7 -7 11 10 12 15 21 -13 17 -15 22 25 23 29 -20 -21 -22 -23 -24 -25 -26 -27 -28 -29 -30 -31
leaf_value=-0.4354247289545396 16.715280798077583 0.73627389561046253 2.1050658596886529 0.11776779066113865 -0.24615676447197243 1.2201021950820399 0.37545186792101182 -0.090620061880400213 -0.16206788870633818 -0.34996564984321599 -0.008465146918136341 0.53392540504192487 -0.1402158614751455 0.24849193771680197 -0.18938966989517214 -0.30287113123469883 -0.39393780496385367 -0.12410584884531357 -0.051620206119967441 -0.14754822157283518 -0.21314569446775647 0.041813614264130598 -0.17318676518113821 -0.37299189372140856 -0.32720892959170872 -0.27816965182622277 -0.13274331290829142 -0.15534563288997544 -0.41528088466541191 -0.11299272144542022
leaf_weight=34 32 22 36 34 54 29 21 119 408 56 26 29 592 30 144 36 45 170 51 935 72 25 298 61 36 36 289 494 74 136
leaf_count=34 32 22 36 34 54 29 21 119 408 56 26 29 592 30 144 36 45 170 51 935 72 25 298 61 36 36 289 494 74 136
internal_value=9.76794e-11 -0.121787 1.46395 -0.153833 -0.166328 1.01139 0.305502 -0.146543 -0.152054 -0.365899 -0.0569736 0.467367 -0.145059 0.179045 -0.189297 -0.318872 -0.401939 -0.13297 -0.0789201 -0.15287 -0.227293 0.0161813 -0.178466 -0.381884 -0.341061 -0.29052 -0.137765 -0.158386 -0.421622 -0.119167
internal_weight=4424 4392 87 4305 4191 51 114 3813 3592 378 221 50 3024 64 568 164 214 1187 170 1837 126 51 442 106 92 72 881 902 108 306
internal_count=4424 4392 87 4305 4191 51 114 3813 3592 378 221 50 3024 64 568 164 214 1187 170 1837 126 51 442 106 92 72 881 902 108 306
is_linear=0
shrinkage=0.05


Tree=11
num_leaves=31
num_cat=0
split_feature=9 8 12 9 9 9 9 9 9 9 9 9 9 9 9 9 9 9 9 9 9 9 9 12 9 9 9 9 9 9
split_gain=3.25115e+06 80623 9097.82 8909.75 5920.62 1088.33 1048.26 520.721 314.329 231.398 198.73 109.238 83.4055 76.6409 76.3429 36.2336 31.3862 17.2742 14.8533 13.7796 12.8577 12.5718 6.205 4.3888 3.96484 3.89155 3.42453 2.46065 2.31735 1.91324
threshold=11.035195934065362 0.83957650835489839 5.6540212123951026 0.57720251058728367 -0.41652655234517222 1.3480874902198374 3.5498521383158406 0.074907181080344123 -0.093333337042066797 -0.73195567919373161 1.9571898834296355 0.24461505143578535 -0.017120782614326088 -0.23282799697220266 0.83676171183830095 -0.58636800185564775 -0.87886413091980187 0.020717265699301993 0.38589273616210679 -0.051546023076880269 0.14600014741036352 -0.14776674052204217 -0.33267153578408715 -0.79710046112065458 -0.4947734619716701 -0.65578378239279644 -0.94860995504789702 0.042836767075337463 -0.034124504945934934 -0.071582223030609557
decision_type=2 10 10 2 2 2 2 2 2 2 2 2 2 2 2 2 2 2 2 2 2 2 2 10 2 2 2 2 2 2
left_child=1 3 6 4 9 14 -3 8 13 16 -7 20 19 22 -5 25 26 -14 -13 29 -9 -15 -6 -18 -17 -11 -1 -19 -21 -10
right_child=-2 2 -4 5 7 10 -8 11 12 15 -12 18 17 21 -16 24 23 27 -20 28 -22 -23 -24 -25 -26 -27 -28 -29 -30 -31
leaf_value=-0.41313473913404675 15.879516918957234 0.70139824260364891 1.9998125765058732 0.06818147292908501 -0.24043686191240946 0.32758912829791798 1.1590970960156672 -0.10536355257034302 -0.15723481483820106 -0.33207135509561608 0.5057588988337024 -0.049039197961489367 -0.13459334502220152 -0.18654906740264288 0.17413853915298688 -0.28772756987147863 -0.37269200199055225 -0.12566650638393326 -0.0063747593290720359 -0.14647129001857351 -0.081546515647102802 -0.16757252741027887 -0.21363814318621599 -0.35252991286191077 -0.26426117022832235 -0.31084847980075414 -0.39424766798814143 -0.11790055716738981 -0.14149462761182932 -0.15144732435878253
leaf_weight=36 32 22 36 34 36 34 29 170 238 54 29 51 1000 126 34 36 53 255 34 477 85 284 54 55 36 36 72 170 459 357
leaf_count=36 32 22 36 34 36 34 29 170 238 54 29 51 1000 126 34 36 53 255 34 477 85 284 54 55 36 36 72 170 459 357
internal_value=1.87298e-09 -0.115698 1.39124 -0.146152 -0.158895 0.259877 0.961658 -0.140103 -0.145912 -0.347604 0.409604 -0.0810618 -0.13971 -0.182576 0.12116 -0.302432 -0.381484 -0.131004 -0.0319734 -0.147813 -0.0974245 -0.173404 -0.224358 -0.362424 -0.275994 -0.323582 -0.400543 -0.12256 -0.144031 -0.153762
internal_weight=4424 4392 87 4305 4174 131 51 3796 3456 378 63 340 2956 500 68 162 216 1425 85 1531 255 410 90 108 72 90 108 425 936 595
internal_count=4424 4392 87 4305 4174 131 51 3796 3456 378 63 340 2956 500 68 162 216 1425 85 1531 255 410 90 108 72 90 108 425 936 595
is_linear=0
shrinkage=0.05


Tree=12
num_leaves=31
num_cat=0
split_feature=5 9 1 1 6 9 9 9 9 9 12 9 9 9 9 10 9 12 9 9 9 9 9 9 8 9 9 10 9 9
split_gain=2.98241e+06 77593.7 35901.9 28388.3 17620.3 6029.58 5341.68 595.342 470.231 283.473 208.842 98.3128 75.3502 71.9795 69.1684 59.427 33.5818 27.525 17.5463 13.4051 11.5406 11.39 10.4065 5.60002 3.75188 3.68464 3.57826 3.08777 2.56594 2.21982
threshold=682.70800000000008 2.3183785036855098 15.480260000000001 26.919685000000005 276.80000305175787 0.57720251058728367 -0.41652655234517222 1.3480874902198374 0.074907181080344123 -0.093333337042066797 -0.73275977266394399 0.24461505143578535 -0.021245319082782151 0.83676171183830095 -0.23282799697220266 1.7104346753605313 -0.58636800185564775 -0.87733718977757735 0.020717265699301993 0.38589273616210679 0.14600014741036352 -0.15496187679850318 -0.056016017409109213 -0.33267153578408715 0.25901766275771404 -0.65578378239279644 -0.4947734619716701 -0.95187554019993825 -0.0032215011704174175 0.040604900894834491
decision_type=10 2 10 10 2 2 2 2 2 2 10 2 2 2 2 2 2 10 2 2 2 2 2 2 10 2 2 2 2 2
left_child=1 5 -3 -4 -5 6 10 13 9 14 17 20 22 -7 23 -9 25 27 28 -13 -10 -16 -11 -8 -19 -12 -18 -1 -14 -20
right_child=-2 2 3 4 -6 7 8 15 11 12 16 19 18 -15 21 -17 26 24 29 -21 -22 -23 -24 -25 -26 -27 -28 -29 -30 -31
leaf_value=-0.39299674244487992 15.711435317397118 2.8657057075500489 -0.38351445061819894 0.62330482091222494 2.4910575327665914 0.063665903517694189 -0.22841502626736962 0.28311729647896511 -0.10005564880088942 -0.14678647878123266 -0.31580899826117925 -0.046587237043707985 -0.13084493183604892 0.16809762553735214 -0.17866992917325764 0.39293096150670737 -0.27334119015269809 -0.33688724154517768 -0.11963805407914432 -0.0060560214342010171 -0.077469188395668478 -0.15975046177573551 -0.13784853308632158 -0.2029562340842353 -0.35604492065518406 -0.29530605740017363 -0.2510481198628744 -0.3747934918145876 -0.1260456557057876 -0.11235158201207451
leaf_weight=34 30 25 35 28 23 33 36 22 169 510 56 51 541 33 108 28 36 63 237 34 85 302 901 54 43 36 36 74 574 187
leaf_count=34 30 25 35 28 23 33 36 22 169 510 56 51 541 33 108 28 36 63 237 34 85 302 901 54 43 36 36 74 574 187
internal_value=1.24242e-09 -0.10727 1.1979 0.713068 1.46562 -0.141095 -0.150993 0.214473 -0.133113 -0.138634 -0.330224 -0.0769208 -0.132734 0.115882 -0.173447 0.344613 -0.28777 -0.362759 -0.125082 -0.0303748 -0.0924972 -0.164734 -0.141079 -0.21314 -0.344659 -0.307786 -0.262195 -0.380524 -0.128374 -0.116424
internal_weight=4424 4394 111 86 51 4283 4167 116 3789 3450 378 339 2950 66 500 50 164 214 1539 85 254 410 1411 90 106 92 72 108 1115 424
internal_count=4424 4394 111 86 51 4283 4167 116 3789 3450 378 339 2950 66 500 50 164 214 1539 85 254 410 1411 90 106 92 72 108 1115 424
is_linear=0
shrinkage=0.05


Tree=13
num_leaves=31
num_cat=0
split_feature=9 12 9 9 9 9 5 9 12 9 9 9 12 9 0 9 9 9 9 9 9 9 9 9 9 9 9 9 9 9
split_gain=2.85528e+06 58552.5 8586.11 4877.03 4214.29 925.259 580.837 297.214 279.45 188.588 126.765 104.865 76.9713 75.71 39.1237 37.2982 29.4824 25.5617 20.0637 16.6014 9.94188 9.40078 5.74822 4.31332 3.62398 3.22939 3.15759 2.81126 2.79733 2.36419
threshold=11.035195934065362 3.4945641487459547 1.0939253615528342 -0.41652655234517222 6.0477200168942895 0.20711420687522122 431.23250000000002 -0.079752492098041181 2.1730160767787692 -0.73195567919373161 0.033254015294337365 0.57720251058728367 1.511622369457893 -0.20685605370782437 22829782619.500004 -0.025490690567148418 -0.58636800185564775 -0.87886413091980187 0.10395237521633817 0.38589273616210679 -0.28753372834095542 -0.12805999860984477 0.0014820459117140807 -0.049565239852731195 -0.79876302725591719 -0.4947734619716701 -0.65578378239279644 0.27446558371139312 -0.94860995504789702 0.066274454371082162
decision_type=2 10 2 2 2 2 10 2 10 2 2 2 10 2 10 2 2 2 2 2 2 2 2 2 2 2 2 2 2 2
left_child=1 2 3 9 -3 6 7 13 12 17 15 19 -4 20 -13 23 26 28 29 27 -5 -15 -17 -9 -19 -18 -11 -7 -1 -12
right_child=-2 4 8 5 -6 11 -8 10 -10 16 18 14 -14 21 -16 22 25 24 -20 -21 -22 -23 -24 -25 -26 -27 -28 -29 -30 -31
leaf_value=-0.37287873559527929 14.881368118524552 0.97007578297665253 0.2131386705239614 -0.21147658442551234 1.7488552898168566 -0.058710165234173051 -0.39269854852131436 -0.13707417029095448 0.44897105492213196 -0.29965781856466228 -0.10833340169005252 0.090169866879781096 0.32379775625286683 -0.16157663645951645 0.001187292876697722 -0.12390429327996928 -0.25967413120799593 -0.33625696720900361 -0.082867304980754855 -0.0057532202685251837 -0.18294307953781552 -0.14695133184421957 -0.1172383215483718 -0.13091629835843302 -0.31793885319321247 -0.23849570353825889 -0.28054075770907932 -0.038377423803595934 -0.35580863191021816 -0.099621858113798603
leaf_weight=36 32 38 30 53 32 34 21 508 34 54 237 30 33 161 21 890 36 54 136 34 72 346 508 646 54 36 36 34 72 116
leaf_count=36 32 38 30 53 32 34 21 508 34 54 237 30 33 161 21 890 36 54 136 34 72 346 508 646 54 36 36 34 72 116
internal_value=1.86432e-09 -0.108425 -0.131659 -0.142337 1.32609 -0.125498 -0.130488 -0.128989 0.333448 -0.313713 -0.122505 -0.00501019 0.271103 -0.160189 0.05353 -0.126974 -0.272933 -0.344298 -0.0991843 -0.0342803 -0.195041 -0.151596 -0.121482 -0.133627 -0.327098 -0.249085 -0.292011 -0.0485438 -0.361499 -0.105471
internal_weight=4424 4392 4322 4225 70 3847 3694 3673 97 378 3041 153 63 632 51 2552 162 216 489 102 125 507 1398 1154 108 72 90 68 108 353
internal_count=4424 4392 4322 4225 70 3847 3694 3673 97 378 3041 153 63 632 51 2552 162 216 489 102 125 507 1398 1154 108 72 90 68 108 353
is_linear=0
shrinkage=0.05


Tree=14
num_leaves=31
num_cat=0
split_feature=10 9 10 9 10 9 4 8 9 9 9 10 9 9 0 9 9 10 9 9 1 9 9 9 10 10 9 9 9 10
split_gain=2.62044e+06 48705.1 8587.95 4376.12 2107.87 715.222 516.87 436.015 255.99 170.201 111.131 107.588 88.1628 66.7581 45.8856 26.6078 25.0106 23.1899 15.8318 14.9236 14.3459 9.03091 8.06972 3.70183 3.24208 2.92856 2.91452 2.71547 2.55718 2.32841
threshold=11.399177794160378 3.5498521383158406 0.9428324970620402 -0.41652655234517222 6.1846678216089064 0.15675897516671991 448.67850000000004 0.6659373074096504 -0.082324298300965812 -0.73195567919373161 0.46637763921042324 1.4292728079681158 0.013975035796498171 -0.20685605370782437 27898486783.915714 -0.58636800185564775 -0.032778730932271676 -0.86388927571250695 0.27446558371139312 0.074907181080344123 28.479110000000002 -0.33267153578408715 -0.13283082144936306 -0.013327124611883843 -0.93433470369581972 -0.67337942613092039 -0.4947734619716701 -0.056825185026058204 0.039421875711537886 -0.78631030101427923
decision_type=2 2 2 2 2 2 10 10 2 2 2 2 2 2 10 2 2 2 2 2 8 2 2 2 2 2 2 2 2 2
left_child=1 2 3 9 -3 6 8 11 13 17 18 -4 16 21 -12 25 27 24 -7 28 -13 -5 -15 -18 -1 -11 -17 -10 -14 -19
right_child=-2 4 7 5 -6 10 -8 -9 12 15 14 20 19 22 -16 26 23 29 -20 -21 -22 -23 -24 -25 -26 -27 -28 -29 -30 -31
leaf_value=-0.35140429010578234 14.256265348196031 0.97425562685186218 0.16857443153858187 -0.2064204384883245 1.5437855869531631 -0.064503652418360993 -0.3720557315008981 0.44448800667738309 -0.13132940635961646 -0.2874943906068802 0.067393275861229215 0.32152006149291995 -0.10890041091724445 -0.15434845519232585 -0.02236910223339995 -0.24669042759471471 -0.12065703815884062 -0.31629452284644632 -0.029265790863656535 -0.089341463449874217 0.26163289308547977 -0.17674175701784287 -0.14023399033532707 -0.11528556141672255 -0.33472736898590538 -0.26934328222274784 -0.22657093604405723 -0.12592329813644509 -0.10165321835743382 -0.30078059797701628
leaf_weight=51 32 33 32 36 32 85 21 39 374 40 35 20 304 143 24 36 540 51 51 183 20 89 347 790 68 50 36 613 203 46
leaf_count=51 32 33 32 36 32 85 21 39 374 40 35 20 304 143 24 36 540 51 51 183 20 89 347 790 68 50 36 613 203 46
internal_value=-3.13728e-09 -0.103871 -0.124278 -0.135708 1.25464 -0.119721 -0.124715 0.309842 -0.123281 -0.298027 -0.026428 0.236909 -0.11727 -0.152673 0.0308798 -0.259286 -0.121942 -0.327083 -0.0512895 -0.101581 0.291576 -0.185289 -0.144353 -0.117466 -0.341875 -0.27741 -0.236631 -0.127972 -0.105999 -0.308937
internal_weight=4424 4392 4327 4216 65 3838 3643 111 3622 378 195 72 3007 615 59 162 2317 216 136 690 40 125 490 1330 119 90 72 987 507 97
internal_count=4424 4392 4327 4216 65 3838 3643 111 3622 378 195 72 3007 615 59 162 2317 216 136 690 40 125 490 1330 119 90 72 987 507 97
is_linear=0
shrinkage=0.05


Tree=15
num_leaves=31
num_cat=0
split_feature=5 9 19 8 9 9 9 8 9 9 9 9 9 9 8 9 9 9 9 9 9 8 9 9 9 9 9 9 9 8
split_gain=2.55614e+06 32542.5 39334 73457.8 11324.4 4194.64 1890.59 618.294 281.362 230.079 188.629 148.4 64.706 37.9968 34.4026 34.0329 30.0887 28.3818 11.2506 7.17016 6.54545 5.65671 5.40278 5.30159 4.35097 4.33021 3.73642 2.67315 2.63846 1.75495
threshold=682.70800000000008 1.5426406954617105 1.0000000180025095e-35 3.4736989278862773 4.5096185978643328 -0.33267153578408715 0.46637763921042324 0.83957650835489839 0.046686941250981613 -0.683040776100036 0.83676171183830095 -0.082324298300965812 0.20711420687522122 -0.023440885041172196 0.39161726080330123 -0.82572868143671363 -0.15911433745427475 -0.4947734619716701 0.11134347094217535 0.0090591562779792651 0.31224685105613442 0.20656197834241299 -0.89789387737627646 -0.23282799697220266 -0.04732732638356129 -0.58636800185564775 -0.11786414791865173 -0.75841963777131016 -0.41652655234517222 0.30506510855281982
decision_type=10 2 2 10 2 2 2 10 2 2 2 2 2 2 10 2 2 2 2 2 2 10 2 2 2 2 2 2 2 10
left_child=1 5 3 4 7 9 8 -3 11 15 21 16 18 24 -12 22 23 25 -10 -15 -14 -8 29 -7 -13 -11 -18 -17 -19 -1
right_child=-2 2 -4 -5 -6 6 10 -9 12 17 14 13 20 19 -16 27 26 28 -20 -21 -22 -23 -24 -25 -26 -27 -28 -29 -30 -31
leaf_value=-0.32476842296657282 14.54533694247405 0.37029301391707525 2.4877320826053619 -2.2701489241226862 1.6801085535685223 -0.17399997424196315 0.022322325725798255 0.67492300310442532 -0.091985550006543571 -0.25674299928877087 0.14132296601931255 -0.12355711874664861 -0.049030108837520375 -0.11085611124594048 0.22598236441612243 -0.29209342532687715 -0.14187809262010787 -0.21524238189061484 -0.073355120620807679 -0.10329728632774937 -0.020708064855459861 0.056065893173217779 -0.30885405584617898 -0.15418305688434178 -0.11762201766262946 -0.23435590200954015 -0.13205297910560995 -0.27636085748672484 -0.19609941740830739 -0.34077585883762529
leaf_weight=67 30 36 24 23 30 54 27 31 254 54 30 578 51 996 20 54 144 36 119 458 34 23 54 90 663 36 295 54 36 23
leaf_count=67 30 36 24 23 30 54 27 31 254 54 30 578 51 996 20 54 144 36 119 458 34 23 54 90 663 36 295 54 36 23
internal_value=9.55237e-10 -0.0993082 0.639921 0.270358 0.872747 -0.124355 -0.108036 0.511241 -0.113779 -0.275558 0.106516 -0.118908 -0.0770703 -0.11396 0.175187 -0.305444 -0.141781 -0.229069 -0.0860418 -0.108475 -0.0377013 0.0378444 -0.321357 -0.161614 -0.120386 -0.247788 -0.135276 -0.284227 -0.205671 -0.328859
internal_weight=4424 4394 144 120 97 4250 3836 67 3736 414 100 3278 458 2695 50 252 583 162 373 1454 85 50 144 144 1241 90 439 108 72 90
internal_count=4424 4394 144 120 97 4250 3836 67 3736 414 100 3278 458 2695 50 252 583 162 373 1454 85 50 144 144 1241 90 439 108 72 90
is_linear=0
shrinkage=0.05


Tree=16
num_leaves=31
num_cat=0
split_feature=10 12 10 9 4 2 4 9 9 9 12 9 10 9 9 9 10 12 9 9 9 9 9 9 10 12 9 9 10 9
split_gain=2.33268e+06 33618 4983.38 3484.85 3089.37 1745.44 806.786 635.993 413.732 219.473 138.914 113.548 105.986 91.6074 59.4718 23.8781 22.2375 18.391 16.897 11.7344 7.99576 7.54245 3.208 3.0127 2.74017 2.55539 2.25862 2.15537 2.11689 1.89791
threshold=11.399177794160378 3.4945641487459547 0.9428324970620402 -0.41652655234517222 491.50100000000003 1.0792637580985589 448.67850000000004 0.20711420687522122 2.3183785036855098 -0.074704507862169076 -0.73275977266394399 0.57720251058728367 1.7104346753605313 0.028824906253871355 -0.20685605370782437 -0.024108530434201577 -0.56763643127471719 -0.87733718977757735 0.10395237521633817 0.38589273616210679 -0.12372489100285754 -0.28753372834095542 1.0000000180025095e-35 -0.043974048481081433 -0.65014783202667636 -0.79710046112065458 -0.4947734619716701 0.062538014132738642 -0.95187554019993825 0.27446558371139312
decision_type=2 10 2 2 10 8 8 2 2 2 10 2 2 2 2 2 2 10 2 2 2 2 2 2 2 10 2 2 2 2
left_child=1 2 3 10 7 -3 8 9 12 14 17 19 -4 15 21 23 24 28 27 29 -16 -5 -17 -11 -12 -19 -18 -15 -1 -9
right_child=-2 5 6 4 -6 -7 -8 11 -10 13 16 -13 -14 18 20 22 26 25 -20 -21 -22 -23 -24 -25 -26 -27 -28 -29 -30 -31
leaf_value=-0.32035290493684659 13.450738203525544 1.2247614479548223 0.17370039744254873 -0.18160715845395936 -0.72965887472033497 0.72459554383249003 -0.063048779964447021 -0.050217251107096676 0.47656565958803354 -0.11653062191330084 -0.25694765842567058 0.072348768695404658 0.3055814819335938 -0.093768594361759203 -0.13781919485992855 -0.10617056772678712 -0.22231783321925574 -0.28847230560374709 -0.070834441000924384 -0.0053206942934433329 -0.12502096378708891 -0.15675425910287433 -0.10108358537449556 -0.11142337050242433 -0.2391265567611246 -0.27294572659258576 -0.20448026259740196 -0.085996973514556888 -0.30528072602040063 -0.033251808583736421
leaf_weight=34 32 37 39 53 20 33 20 32 22 595 59 38 25 271 180 790 35 53 136 34 379 72 510 561 34 53 36 133 74 34
leaf_count=34 32 37 39 53 20 33 20 32 22 595 59 38 25 271 180 790 35 53 136 34 379 72 510 561 34 53 36 133 74 34
internal_value=1.72222e-09 -0.0980017 -0.115607 -0.12412 -0.109854 0.988969 0.222994 -0.106607 0.289515 -0.110559 -0.26897 -0.00122583 0.225216 -0.104724 -0.136114 -0.108824 -0.234345 -0.295504 -0.0860785 -0.0291842 -0.129142 -0.167292 -0.104175 -0.114052 -0.250432 -0.280709 -0.213273 -0.0912101 -0.310026 -0.0414775
internal_weight=4424 4392 4322 4216 3838 70 106 3818 86 3680 378 138 64 2996 684 2456 164 214 540 100 559 125 1300 1156 93 106 71 404 108 66
internal_count=4424 4392 4322 4216 3838 70 106 3818 86 3680 378 138 64 2996 684 2456 164 214 540 100 559 125 1300 1156 93 106 71 404 108 66
is_linear=0
shrinkage=0.05


Tree=17
num_leaves=31
num_cat=0
split_feature=6 9 1 8 10 9 9 9 9 9 9 6 9 12 9 3 0 12 9 8 9 9 9 9 9 9 9 10 9 9
split_gain=2.18956e+06 17361.3 33653 91419.4 11291.2 3270.43 796.766 687.324 187.453 164.092 127.162 66.6539 59.2992 59.2179 52.1785 42.5125 32.07 27.8617 22.9175 15.1421 13.7709 13.2268 10.1959 8.0942 3.88013 3.65368 3.50547 2.94846 2.28037 2.15284
threshold=750.06500244140636 1.0939253615528342 15.380210000000003 3.4736989278862773 4.6435702634632428 -0.33267153578408715 2.3183785036855098 0.20711420687522122 -0.683040776100036 -0.026161521577825083 0.57720251058728367 198.98499298095706 -0.13283082144936306 1.511622369457893 0.082156388906746938 22.201500000000006 188431802764.50003 -0.84908014918212971 -0.53302922896616212 0.241332355510226 0.022127485259083705 -0.068308440249472843 0.38589273616210679 -0.23282799697220266 -0.41652655234517222 -0.77313735815170193 0.14600014741036352 -0.91321427501028307 -0.0039952225369084262 -0.096044516822177781
decision_type=2 2 8 10 2 2 2 2 2 2 2 2 2 10 2 10 8 10 2 10 2 2 2 2 2 2 2 2 2 2
left_child=1 5 -3 4 6 8 13 9 17 12 22 -8 23 -4 16 -14 20 27 -10 -12 28 29 -9 -7 -20 -19 -16 -1 -11 -17
right_child=-2 2 3 -5 -6 7 11 10 18 14 19 -13 15 -15 26 21 -18 25 24 -21 -22 -23 -24 -25 -26 -27 -28 -29 -30 -31
leaf_value=-0.29937694002600279 13.031587984412909 2.0157881829473712 0.17347914099693298 -2.8015128591786262 1.4550092020342429 -0.15654059427755851 0.58444137459709533 -0.038588984417455167 -0.22777545750141145 -0.10173778847325594 0.045446819296249975 0.45690028905868535 -0.18315050715491887 0.27848760670629041 -0.075659595638075297 -0.1219457430132268 -0.15775788731195711 -0.26889366662060776 -0.19840580600279351 0.10180870362303474 -0.089298179952634713 -0.10810580005909305 -0.0050546597552430985 -0.13446909851498076 -0.1772140920162201 -0.25168855521414013 -0.061755773600410013 -0.28403132619528937 -0.097472507091609206 -0.11533121831441005
leaf_weight=68 32 27 25 23 31 54 21 68 72 640 26 20 21 29 136 209 22 54 54 22 432 977 34 180 36 72 68 58 614 299
leaf_count=68 32 27 25 23 31 54 21 68 72 640 26 20 21 29 136 209 22 54 54 22 432 977 34 180 36 72 68 58 614 299
internal_value=4.47957e-10 -0.0949478 0.391598 0.0972811 0.626426 -0.115259 0.356046 -0.100727 -0.248712 -0.105036 0.00417 0.522226 -0.116146 0.229873 -0.0949252 -0.112507 -0.0977797 -0.275688 -0.20675 0.0712793 -0.0969971 -0.111508 -0.0274109 -0.139563 -0.189929 -0.259062 -0.071025 -0.292313 -0.0996494 -0.118053
internal_weight=4424 4392 176 149 126 4216 95 3802 414 3652 150 41 1740 54 1912 1506 1708 252 162 48 1686 1485 102 234 90 126 204 126 1254 508
internal_count=4424 4392 176 149 126 4216 95 3802 414 3652 150 41 1740 54 1912 1506 1708 252 162 48 1686 1485 102 234 90 126 204 126 1254 508
is_linear=0
shrinkage=0.05


Tree=18
num_leaves=31
num_cat=0
split_feature=10 12 5 9 5 9 5 9 9 9 9 9 9 9 9 1 9 9 9 9 9 9 9 9 10 10 12 9 8 8
split_gain=2.08694e+06 22023 10539.4 4916.12 4062.72 2930.56 2802.31 428.803 393.313 168.809 136.977 91.2335 56.4568 48.268 36.3872 26.5581 25.1905 20.8763 10.7663 8.32369 7.63226 5.70139 5.06802 4.88217 4.12702 3.31257 2.07394 1.8936 1.87236 1.28287
threshold=11.399177794160378 3.4945641487459547 528.18450000000018 0.83676171183830095 431.23250000000002 -0.33267153578408715 162.60250000000002 2.3183785036855098 0.15675897516671991 -0.683040776100036 -0.056016017409109213 1.3480874902198374 0.38589273616210679 0.024085874018076162 -0.14776674052204217 23.095850000000002 -0.82572868143671363 -0.4947734619716701 -0.015208711118373517 0.078720548573799967 0.57720251058728367 -0.09129018075461913 -0.23282799697220266 0.27446558371139312 -0.89818120952170688 -0.60839496951453353 -0.75158480290150775 -0.035347234404526966 0.12287732868403131 0.30506510855281982
decision_type=2 10 10 2 10 2 10 2 2 2 2 2 2 2 2 10 2 2 2 2 2 2 2 2 2 2 10 2 10 10
left_child=1 2 3 5 6 9 -3 11 10 16 14 -5 23 18 22 -13 24 25 27 -15 -14 -16 -7 -10 29 -11 -18 -12 -19 -1
right_child=-2 4 -4 7 -6 8 -8 -9 12 17 13 15 20 19 21 -17 26 28 -20 -21 -22 -23 -24 -25 -26 -27 -28 -29 -30 -31
leaf_value=-0.27892412677887951 12.722521027922632 0.66835477031194257 -1.1985307021913203 0.11856021890416742 0.1847961510717869 -0.14871356465198377 1.4175943076610567 0.4250021105011304 -0.05211607349060831 -0.22368752705423456 -0.10274227986281569 0.18434515431523324 -0.0048019266714725423 -0.084627072536028358 -0.11642156075005516 0.26036393995638246 -0.25071485402449123 -0.16652642899546133 -0.093364972942689695 -0.071342175070350691 0.028953026415723743 -0.10768855241926399 -0.13040547219533768 -0.029659769284155441 -0.26536592615061794 -0.20426612656850082 -0.23685494119470774 -0.09856861595596586 -0.18296627416167149 -0.29275056071903394
leaf_weight=62 32 26 22 32 20 54 24 24 84 38 528 20 34 390 301 27 53 29 978 169 33 493 126 34 58 52 55 560 43 23
leaf_count=62 32 26 22 32 20 54 24 24 84 38 528 20 34 390 301 27 53 29 978 169 33 493 126 34 58 52 55 560 43 23
internal_value=-3.47709e-10 -0.092696 -0.106945 -0.10136 0.787077 -0.109735 1.02799 0.23991 -0.0959323 -0.236202 -0.099587 0.183679 -0.0248324 -0.0936452 -0.115601 0.228016 -0.261883 -0.196412 -0.097172 -0.0806107 0.0118236 -0.110999 -0.135898 -0.0456456 -0.275649 -0.212466 -0.243657 -0.100594 -0.176345 -0.282665
internal_weight=4424 4392 4322 4300 70 4197 50 103 3784 413 3599 79 185 2625 974 47 251 162 2066 559 67 794 180 118 143 90 108 1088 72 85
internal_count=4424 4392 4322 4300 70 4197 50 103 3784 413 3599 79 185 2625 974 47 251 162 2066 559 67 794 180 118 143 90 108 1088 72 85
is_linear=0
shrinkage=0.05


Tree=19
num_leaves=31
num_cat=0
split_feature=5 8 10 9 9 9 9 9 9 9 9 9 9 9 1 10 9 9 9 9 9 9 9 9 9 6 12 9 9 9
split_gain=2.02572e+06 18339.8 32568.8 5101.13 3825.87 2644.98 372.669 362.63 151.775 121.634 89.3006 49.5498 47.9245 29.3692 26.1596 23.177 18.8509 9.5831 8.11738 6.88811 5.20677 4.59863 3.84084 3.23922 3.1569 3.06784 2.07715 1.70229 1.58371 1.32609
threshold=682.70800000000008 3.4736989278862773 3.5098660848625687 0.83676171183830095 6.0477200168942895 -0.33267153578408715 2.3183785036855098 0.15675897516671991 -0.683040776100036 -0.062771542173251912 1.3480874902198374 0.38589273616210679 0.022127485259083705 -0.15496187679850318 23.095850000000002 -0.86388927571250695 -0.53302922896616212 -0.022545797536988429 0.078720548573799967 0.57720251058728367 0.24461505143578535 -0.1043200703360969 -0.23282799697220266 -0.77313735815170193 -0.41652655234517222 260.78999328613287 -0.9311893149057292 -0.0020137911070132737 -0.61430799325767549 0.039421875711537886
decision_type=10 10 2 2 2 2 2 2 2 2 2 2 2 2 10 2 2 2 2 2 2 2 2 2 2 2 10 2 2 2
left_child=1 2 3 5 -4 8 10 9 15 13 -5 20 17 22 -12 26 28 -11 29 -13 -9 -15 -7 -17 -18 27 -1 -19 -10 -14
right_child=-2 -3 4 6 -6 7 -8 11 16 12 14 19 18 21 -16 23 24 25 -20 -21 -22 -23 -24 -25 -26 -27 -28 -29 -30 -31
leaf_value=-0.27190142163523923 12.948561105330786 -1.3875205923009801 0.76641256255762924 0.11344928619536487 1.6267167230447133 -0.14127788543701172 0.37813586406409744 -0.051582269063767262 -0.21307639347182381 -0.096722962309816071 0.17512789644300938 -0.0045618302709258653 -0.083651868257616557 -0.11279583449165027 0.24895151615142824 -0.24275750723041473 -0.17898220177049992 -0.091529317960243106 -0.06777506592358358 0.027505375760974306 -0.030447954887195545 -0.10400227350758806 -0.1249461708245454 -0.227097757657369 -0.15986722740862105 -0.10896415994280861 -0.25863284587860108 -0.087670274640693047 -0.19824534853299458 -0.078054342820094186
leaf_weight=54 30 27 28 33 24 54 32 68 36 986 20 34 203 216 30 61 54 596 169 33 51 477 108 72 36 21 65 549 36 221
leaf_count=54 30 27 28 33 24 54 32 68 36 986 20 34 203 216 30 61 54 596 169 33 51 477 108 72 36 21 65 549 36 221
internal_value=-3.83476e-10 -0.0884062 -0.0803741 -0.0953637 1.16348 -0.104359 0.233176 -0.0912385 -0.22435 -0.0947558 0.177288 -0.0231606 -0.0896265 -0.111224 0.219422 -0.248623 -0.186592 -0.0930946 -0.077041 0.0112325 -0.0425247 -0.106743 -0.13039 -0.23428 -0.171336 -0.0900263 -0.264654 -0.089679 -0.205661 -0.0807343
internal_weight=4424 4394 4367 4315 52 4200 115 3786 414 3600 83 186 2745 855 50 252 162 2152 593 67 119 693 162 133 90 1166 119 1145 72 424
internal_count=4424 4394 4367 4315 52 4200 115 3786 414 3600 83 186 2745 855 50 252 162 2152 593 67 119 693 162 133 90 1166 119 1145 72 424
is_linear=0
shrinkage=0.05


Tree=20
num_leaves=31
num_cat=0
split_feature=10 5 8 9 10 9 9 9 9 9 9 9 9 9 9 10 9 8 7 9 9 9 9 6 9 9 8 9 9 9
split_gain=1.85631e+06 30459.5 22807.2 2981.48 2769.17 2364.02 249.995 193.836 114.337 113.887 39.6222 37.3605 35.4824 25.5526 16.6488 16.6273 12.5599 10.4804 7.92957 6.99072 5.42826 5.30556 4.11533 4.04934 2.5995 2.24792 1.95611 1.78448 1.78367 1.54456
threshold=11.399177794160378 682.70800000000008 0.83957650835489839 0.70702937105995756 4.6435702634632428 -0.36990549464180994 0.10395237521633817 1.3480874902198374 -0.7112048028400656 -0.084812104461658419 0.31224685105613442 1.9571898834296355 -0.012645135555313212 -0.20685605370782437 -0.53302922896616212 -0.86388927571250695 0.03526900886549978 0.31502145360387329 1551800.0000000002 0.20711420687522122 -0.042229835258063113 0.46637763921042324 -0.12805999860984477 244.31500244140628 -0.26033365984407048 -0.61430799325767549 0.30506510855281982 -0.46277136174752864 -0.77313735815170193 0.0064191071204944281
decision_type=2 10 10 2 2 2 2 2 2 2 2 2 2 2 2 2 2 10 2 2 2 2 2 2 2 2 10 2 2 2
left_child=1 2 3 5 -4 8 9 17 15 13 19 -9 20 24 25 26 23 -5 -12 -8 -11 -20 -15 29 -7 -10 -1 -16 -17 -14
right_child=-2 -3 4 7 -6 6 10 11 14 12 18 -13 16 22 27 28 -18 -19 21 -21 -22 -23 -24 -25 -26 -27 -28 -29 -30 -31
leaf_value=-0.24828341454267502 11.998970234021545 -1.9022169527800188 0.47030688259336684 0.066328848153352743 1.0784299997182993 -0.14119400558648285 -0.057565577284378167 0.18860217558548731 -0.20446305561948708 -0.095308111592091349 -0.03352761640679091 0.26738285356097752 -0.08507233993616696 -0.11281636765709631 -0.17362504667705961 -0.23061962870300792 -0.072890999581346122 0.11258619958162308 -0.013385920769170577 -0.035858706384897236 -0.089440070423616236 0.019889407575130465 -0.10290934453508267 -0.10624749422073365 -0.12567968125696535 -0.18833308021227521 -0.26451796241428543 -0.15788197053803341 -0.21814249179981374 -0.081089198499242371
leaf_weight=96 32 23 36 24 39 54 136 34 54 748 20 27 629 162 36 61 339 25 23 51 833 25 297 20 54 36 23 36 54 397
leaf_count=96 32 23 36 24 39 54 136 34 54 748 20 27 629 162 36 61 339 25 23 51 833 25 297 20 54 36 23 36 54 397
internal_value=4.56125e-10 -0.0874242 -0.0778705 -0.0929683 0.786531 -0.0997238 -0.0875719 0.163985 -0.215964 -0.0910228 -0.0397604 0.223472 -0.0870978 -0.111555 -0.183674 -0.238319 -0.0812548 0.0899295 -0.00707637 -0.0516455 -0.0922163 0.00394498 -0.106406 -0.0839655 -0.133437 -0.198011 -0.251421 -0.165754 -0.224761 -0.0835311
internal_weight=4424 4392 4369 4294 75 4184 3788 110 396 3533 255 61 2966 567 162 234 1385 49 68 187 1581 48 459 1046 108 90 119 72 115 1026
internal_count=4424 4392 4369 4294 75 4184 3788 110 396 3533 255 61 2966 567 162 234 1385 49 68 187 1581 48 459 1046 108 90 119 72 115 1026
is_linear=0
shrinkage=0.05


Tree=21
num_leaves=31
num_cat=0
split_feature=5 8 8 11 11 5 8 11 11 12 11 11 11 1 11 8 11 10 3 11 11 11 11 11 12 11 4 11 8 8
split_gain=1.80833e+06 34978.6 27005.8 5245.16 2155.07 1056.84 557.414 295.493 123.55 104.31 99.412 39.7466 38.9819 26.375 23.9095 18.8925 15.4362 9.63862 8.26759 7.86402 6.67725 4.22908 3.71498 3.05657 2.69327 2.48548 2.44191 1.79584 1.7652 1.3916
threshold=682.70800000000008 3.4736989278862773 1.3534814394274479 0.83676171183830095 -0.33267153578408715 193.62300000000002 0.83957650835489839 0.15675897516671991 -0.683040776100036 1.511622369457893 -0.062771542173251912 0.38589273616210679 0.022127485259083705 20.595018231082189 -0.15496187679850318 0.27337798773391536 -0.4947734619716701 1.1916517898457759 61.779500000000006 -0.026990422092761032 0.078720548573799967 0.24461505143578535 -0.1043200703360969 -0.23282799697220266 -0.75158480290150775 -0.58636800185564775 276.46850000000006 -0.0054127245641372159 0.29957048917896162 0.12897013490790057
decision_type=10 10 10 2 2 10 10 2 2 10 2 2 2 10 2 10 2 2 10 2 2 2 2 2 10 2 10 2 10 10
left_child=1 2 3 4 8 -4 9 10 15 17 14 21 19 -11 23 24 25 -5 -13 -12 -14 -9 -16 -6 -1 -10 27 -21 -17 -18
right_child=-2 -3 5 6 7 -7 -8 11 16 13 12 18 20 -15 22 28 29 -19 -20 26 -22 -23 -24 -25 -26 -27 -28 -29 -30 -31
leaf_value=-0.21742200347093435 12.234063447316489 -1.877646628132573 0.95017940347844909 0.096141352910887115 -0.12741286346205957 1.4523752474784852 0.41834462611905993 -0.046396212586585217 -0.18901887359442537 0.18155767653603108 -0.087685756646268376 0.024795618822845894 -0.072880740976839706 0.25673599796635765 -0.10180417804254427 -0.2346184587478638 -0.14361714919408161 0.141959701726834 -0.010815490755651679 -0.083186237482520631 -0.061127165929805598 -0.027349192776954641 -0.093900505614230731 -0.11284365659510648 -0.2029740337892012 -0.17205801175700294 -0.098858971819281591 -0.079415576878607924 -0.24759213068546396 -0.15756809864288723
leaf_weight=78 30 27 22 22 54 20 31 68 54 20 868 39 424 28 216 80 33 24 28 615 169 51 477 108 55 36 20 649 39 39
leaf_count=78 30 27 22 22 54 20 31 68 54 20 868 39 424 28 216 80 33 24 28 615 169 51 477 108 55 36 20 649 39 39
internal_value=1.23152e-10 -0.083528 -0.0724354 -0.0846883 -0.0941875 1.18932 0.234485 -0.0823438 -0.202497 0.17385 -0.085519 -0.0208901 -0.0808818 0.225412 -0.100407 -0.224397 -0.16843 0.120047 0.00991336 -0.0840096 -0.0695311 -0.0382332 -0.096364 -0.1177 -0.211447 -0.182235 -0.0815245 -0.0812502 -0.23887 -0.151174
internal_weight=4424 4394 4367 4325 4200 42 125 3786 414 94 3600 186 2745 48 855 252 162 46 67 2152 593 119 693 162 133 90 1284 1264 119 72
internal_count=4424 4394 4367 4325 4200 42 125 3786 414 94 3600 186 2745 48 855 252 162 46 67 2152 593 119 693 162 133 90 1284 1264 119 72
is_linear=0
shrinkage=0.05


Tree=22
num_leaves=31
num_cat=0
split_feature=9 5 8 5 9 9 2 9 9 9 9 1 9 12 9 9 9 9 8 9 7 9 9 9 9 9 9 12 6 9
split_gain=1.6629e+06 50470.5 18120.1 2698.59 2433.92 1925.79 503.321 200.672 157.715 111.698 83.9114 33.9351 29.0481 27.8893 26.0314 20.7192 20.408 10.0274 8.02542 7.82826 6.92368 4.92078 4.55711 3.166 2.94851 2.91126 2.75855 2.21699 2.11971 1.8695
threshold=11.035195934065362 682.70800000000008 0.83957650835489839 162.60250000000002 0.70702937105995756 -0.33267153578408715 1.071707650041531 0.11134347094217535 1.3480874902198374 -0.65578378239279644 -0.065357167253418155 19.223065000000002 0.31224685105613442 1.9357385197259827 0.022127485259083705 -0.82572868143671363 -0.15496187679850318 -0.4947734619716701 0.31502145360387329 -0.029850711167246854 1551800.0000000002 0.20711420687522122 0.46637763921042324 -0.89789387737627646 -0.1043200703360969 0.054366235135171588 -0.23282799697220266 -0.73275977266394399 260.78999328613287 -0.0069119538248073034
decision_type=2 10 10 10 2 2 8 2 2 2 2 10 2 10 2 2 2 2 10 2 2 2 2 2 2 2 2 10 2 2
left_child=1 2 4 -4 5 9 -5 10 18 15 16 -10 21 -13 19 23 26 -11 -6 -12 -14 -9 -22 -1 -18 -16 -7 -17 29 -21
right_child=-2 -3 3 6 8 7 -8 12 11 17 14 13 20 -15 25 27 24 -19 -20 28 22 -23 -24 -25 -26 -27 -28 -29 -30 -31
leaf_value=-0.23003768470552233 11.356676560640336 -2.4188092936640202 0.36167259920727124 1.1474190175533294 0.060805840541919079 -0.12104221770056972 0.80084908387877718 -0.050944056530960471 0.14852161869406699 -0.17000355422496796 -0.083718284008505769 0.18771997009004868 -0.031424926444888111 0.27022034227848052 -0.070528279078302919 -0.20246374062129432 -0.09671397042219286 -0.14361521800359089 0.10128450813889503 -0.079312215396497826 -0.012471688376820606 -0.032380860912449225 0.018367377744987607 -0.21472368748099716 -0.089542513127338172 -0.062882632350668391 -0.10720147269743462 -0.18911640984671457 -0.092990192906423061 -0.075558406831883432
leaf_weight=90 32 23 33 20 24 54 22 119 20 72 851 21 20 20 322 70 216 72 25 632 23 51 25 54 426 203 108 56 22 698
leaf_count=90 32 23 33 20 24 54 22 119 20 72 851 21 20 20 322 70 216 72 25 632 23 51 25 54 426 203 108 56 22 698
internal_value=-1.88644e-09 -0.0827445 -0.0704466 0.70003 -0.0839039 -0.0900076 0.965882 -0.0787665 0.148258 -0.192372 -0.081761 0.201917 -0.0343274 0.227964 -0.0775771 -0.211339 -0.0959569 -0.156809 0.0814582 -0.0799615 -0.00670828 -0.0453751 0.00359033 -0.224295 -0.0919553 -0.067572 -0.111815 -0.196532 -0.0775968 -0.0773422
internal_weight=4424 4392 4369 75 4294 4184 42 3770 110 414 3532 61 238 41 2728 270 804 144 49 2203 68 170 48 144 642 525 162 126 1352 1330
internal_count=4424 4392 4369 75 4294 4184 42 3770 110 414 3532 61 238 41 2728 270 804 144 49 2203 68 170 48 144 642 525 162 126 1352 1330
is_linear=0
shrinkage=0.05


Tree=23
num_leaves=31
num_cat=0
split_feature=5 11 10 11 5 11 11 11 10 11 12 11 11 11 11 10 11 1 11 11 11 11 11 4 12 11 12 11 11 11
split_gain=1.62087e+06 45386.6 16419.6 3303.57 2959.09 1755.22 240.842 227.391 100.867 83.1638 36.4067 30.8136 29.0267 27.5246 27.2909 15.9572 11.9442 6.26196 4.62423 4.38114 4.32046 3.94551 3.56209 3.09263 2.34152 1.9944 1.54183 1.30036 1.2153 1.06812
threshold=682.70800000000008 11.035195934065362 3.5098660848625687 0.83676171183830095 152.72950000000003 -0.33267153578408715 0.16900357261036716 1.9571898834296355 -0.67337942613092039 -0.04338063887710069 2.7418705502372442 1.3480874902198374 0.037569880478039892 0.46637763921042324 -0.13856483539157441 -0.86388927571250695 -0.4947734619716701 38.276945000000005 0.31224685105613442 -0.014107974881798544 -0.084812104461658419 -0.21482828969428722 0.078720548573799967 250.00350000000003 -0.77216942087056684 -0.58636800185564775 -0.9311893149057292 0.0040175513169798957 -0.41652655234517222 0.24461505143578535
decision_type=10 2 2 2 10 2 2 2 2 2 10 2 2 2 2 2 2 8 2 2 2 2 2 10 10 2 10 2 2 2
left_child=1 2 3 5 -4 8 9 11 15 14 -9 -5 19 18 21 26 25 -15 29 -11 -16 -7 -14 27 -17 -10 -1 -21 -18 -8
right_child=-2 -3 4 7 -6 6 13 10 16 12 -12 -13 22 17 20 24 28 -19 -20 23 -22 -23 -24 -25 -26 -27 -28 -29 -30 -31
leaf_value=-0.22185716055057669 11.582586882909141 -2.2034244200587274 0.33556541715349475 0.092695342522170959 1.09480654055422 -0.11313329661885899 -0.039866768378837437 0.22963410650308314 -0.17032582993600884 -0.076827024401021321 0.31702837862751704 0.16051920516525997 -0.063696572622832126 0.032153201260818887 -0.088759667871592646 -0.19803670927629635 -0.14293044209480285 -0.0032642978165919583 -0.013472378371721683 -0.073169982267750636 -0.081863031425729857 -0.098798182689481318 -0.054461066661182271 -0.091498882248997701 -0.18479888083098772 -0.15495493577586281 -0.2104255463526799 -0.069662404701273925 -0.12993846999274358 -0.028425733964232838
leaf_weight=54 30 25 21 33 33 72 51 26 51 833 22 34 238 26 333 59 36 24 34 612 714 144 186 20 77 36 65 465 36 34
leaf_count=54 30 25 21 33 33 72 51 26 51 833 22 34 238 26 333 59 36 24 34 612 714 144 186 20 77 36 65 465 36 34
internal_value=8.69231e-10 -0.07908 -0.0669242 -0.0777677 0.799546 -0.085007 -0.0743184 0.186624 -0.182753 -0.0770443 0.26969 0.127113 -0.0714909 -0.0159769 -0.0873949 -0.202242 -0.151499 0.0151528 -0.0290566 -0.0740932 -0.0840565 -0.103577 -0.0596451 -0.0720173 -0.190542 -0.163965 -0.215613 -0.0716556 -0.136434 -0.0352904
internal_weight=4424 4394 4369 4315 54 4200 3786 115 414 3617 48 67 2354 169 1263 255 159 50 119 1930 1047 216 424 1097 136 87 119 1077 72 85
internal_count=4424 4394 4369 4315 54 4200 3786 115 414 3617 48 67 2354 169 1263 255 159 50 119 1930 1047 216 424 1097 136 87 119 1077 72 85
is_linear=0
shrinkage=0.05


Tree=24
num_leaves=31
num_cat=0
split_feature=10 5 10 9 9 1 9 9 9 9 9 3 9 9 9 10 10 9 5 8 12 9 9 9 6 9 9 12 8 10
split_gain=1.49179e+06 72436.6 14644.2 2984.67 1568.99 1076.39 273.915 167.322 86.4646 61.3601 49.4778 36.664 25.3412 25.2071 20.8356 9.74979 8.84891 8.73735 6.46324 6.40692 4.86778 4.71315 4.13367 3.13061 3.03637 2.14498 1.2383 1.20935 1.13581 1.11141
threshold=11.399177794160378 682.70800000000008 3.5098660848625687 0.70702937105995756 -0.41652655234517222 30.032455000000002 1.9571898834296355 0.10395237521633817 -0.09129018075461913 -0.73195567919373161 1.3480874902198374 48.689500000000002 -0.014661309677124533 0.31224685105613442 -0.20685605370782437 -0.56763643127471719 -0.88369357147957361 0.037569880478039892 126.40700000000001 0.31502145360387329 0.53856930176731688 0.19045556081281559 -0.046792403503146944 -0.33267153578408715 254.22999572753909 -0.13856483539157441 0.0053242814941627534 -0.79710046112065458 0.30506510855281982 -0.65014783202667636
decision_type=2 10 2 2 2 8 2 2 2 2 2 10 2 2 2 2 2 2 8 10 10 2 2 2 2 2 2 10 10 2
left_child=1 2 3 4 9 -4 10 8 14 16 19 -8 22 21 23 29 28 24 20 -5 -15 -9 -10 -6 26 -16 -14 -18 -1 -11
right_child=-2 -3 5 6 7 -7 11 13 12 15 -12 -13 17 18 25 -17 27 -19 -20 -21 -22 -23 -24 -25 -26 -27 -28 -29 -30 -31
leaf_value=-0.20369230448445186 10.756535510160029 -2.8769981757454253 0.53141451367625492 0.055539228891332948 -0.12344154583083258 0.97787965491965978 0.30176443639008899 -0.047946584650448397 -0.078399834998881979 -0.17023517771771079 0.15249324191142533 0.2142909430265427 -0.069459123049617905 -0.0099039670782596137 -0.092970761798676999 -0.1412459989668618 -0.19123976351851124 -0.059101987963322528 -0.030277833258733157 0.091706599891185764 0.022393025369383396 -0.031445264624541301 -0.073271839147005705 -0.10599547631210751 -0.087759430408477779 -0.085046452621244051 -0.066017834593852368 -0.18093373385342684 -0.21631773658420728 -0.15881294573054594
leaf_weight=79 32 23 27 24 36 27 23 119 697 57 34 25 662 28 126 71 59 322 20 25 20 68 901 90 20 265 432 55 23 34
leaf_count=79 32 23 27 24 36 27 23 119 697 57 34 25 662 28 126 71 59 322 20 25 20 68 901 90 20 265 432 55 23 34
internal_value=2.82373e-09 -0.0783718 -0.0636389 -0.0738793 -0.0812374 0.754647 0.161132 -0.0715881 -0.0743975 -0.178394 0.106149 0.256205 -0.0711768 -0.0324664 -0.0932981 -0.155133 -0.19584 -0.0663563 -0.00639717 0.073992 0.00355311 -0.0419461 -0.0755085 -0.11098 -0.0684532 -0.0876001 -0.0681002 -0.186268 -0.206539 -0.165968
internal_weight=4424 4392 4369 4315 4184 54 131 3806 3551 378 83 48 3034 255 517 162 216 1436 68 49 48 187 1598 126 1114 391 1094 114 102 91
internal_count=4424 4392 4369 4315 4184 54 131 3806 3551 378 83 48 3034 255 517 162 216 1436 68 49 48 187 1598 126 1114 391 1094 114 102 91
is_linear=0
shrinkage=0.05


Tree=25
num_leaves=31
num_cat=0
split_feature=6 8 9 9 9 12 4 9 2 9 9 9 9 9 9 9 12 10 10 9 9 9 9 10 9 12 9 8 9 10
split_gain=1.4334e+06 75350 19086.7 3420.37 1394.62 403.911 380.376 197 138.177 183.133 83.7173 55.3774 39.136 31.4538 27.9793 19.914 9.16271 8.79919 7.98614 7.27315 6.25153 6.03632 2.77048 2.33118 2.2253 1.09144 1.08732 1.02507 1.01385 1.00305
threshold=750.06500244140636 3.4736989278862773 4.5096185978643328 0.83676171183830095 -0.41652655234517222 3.4945641487459547 448.67850000000004 0.14600014741036352 1.3622291246666103 2.3183785036855098 -0.088130537930464645 -0.73195567919373161 0.46637763921042324 1.3480874902198374 0.0010040065517142873 -0.21482828969428722 1.9357385197259827 -0.56763643127471719 -0.88369357147957361 -0.035775103944535473 0.049988576087337096 0.27446558371139312 -0.14401793615330191 0.59128385380774451 -0.28753372834095542 -0.79710046112065458 -0.060660160691760882 0.30506510855281982 0.091212764261196524 -0.65014783202667636
decision_type=2 10 2 2 2 10 10 2 10 2 2 2 2 2 2 2 10 2 2 2 2 2 2 2 2 10 2 10 2 2
left_child=1 2 3 4 11 8 7 10 9 13 15 18 21 -5 19 24 -15 29 27 26 -16 -9 -17 -14 -6 -20 -12 -1 -22 -13
right_child=-2 -3 -4 5 6 -7 -8 12 -10 -11 14 17 23 16 20 22 -18 -19 25 -21 28 -23 -24 -25 -26 -27 -28 -29 -30 -31
leaf_value=-0.19350768704957599 10.543937345966697 -2.7100644164615209 1.0859969112608168 0.085899317772551026 -0.11488491859076158 0.38416787627197446 -0.27610343137553589 -0.038009179115295416 0.044075631121030225 0.3079200100898743 -0.075516604660029088 -0.16172341861222919 0.011602741188835353 0.13640102341771126 -0.062541151155289465 -0.089854313135147093 0.18426203474402428 -0.13418369763334034 -0.18167777586791478 -0.067517839236692953 -0.055887548657863044 -0.016731873243115841 -0.0810567241434067 0.034413988375204749 -0.10046305225955116 -0.17188704729080201 -0.072077265201799023 -0.20550183109615161 -0.049652926992661883 -0.1508723003022811
leaf_weight=79 32 27 36 22 53 21 22 100 26 20 374 57 24 20 659 125 20 71 59 1144 184 50 315 21 54 55 596 23 101 34
leaf_count=79 32 27 36 22 53 21 22 100 26 20 374 57 24 20 659 125 20 71 59 1144 184 50 315 21 54 55 596 23 101 34
internal_value=-2.33458e-09 -0.0768229 -0.0605348 -0.0700693 -0.0778584 0.183527 -0.0687974 -0.0675972 0.144513 0.176359 -0.070245 -0.169475 -0.018648 0.13392 -0.0670224 -0.0882606 0.160332 -0.147376 -0.186048 -0.0702184 -0.0598653 -0.0309167 -0.083556 0.022248 -0.107607 -0.176954 -0.0734034 -0.196212 -0.0536781 -0.157669
internal_weight=4424 4392 4365 4329 4200 129 3822 3800 108 82 3605 378 195 62 3058 547 40 162 216 2114 944 150 440 45 107 114 970 102 285 91
internal_count=4424 4392 4365 4329 4200 129 3822 3800 108 82 3605 378 195 62 3058 547 40 162 216 2114 944 150 440 45 107 114 970 102 285 91
is_linear=0
shrinkage=0.05


Tree=26
num_leaves=31
num_cat=0
split_feature=9 5 12 0 9 9 9 9 9 9 9 2 9 9 5 9 5 9 10 9 9 10 9 9 9 9 12 9 9 10
split_gain=1.35008e+06 89792.6 11016.1 2814.58 3512.54 1529.99 1271.6 126.534 80.7386 65.4196 50.0492 39.748 23.722 20.8462 16.7716 12.4316 11.931 10.5506 8.99093 5.99629 5.43162 4.92331 3.07663 2.14208 2.01733 1.43875 1.18413 1.1741 1.1597 1.00164
threshold=11.035195934065362 682.70800000000008 2.7418705502372442 17325663195.500004 6.0477200168942895 0.70702937105995756 -0.41652655234517222 0.066274454371082162 1.3480874902198374 -0.11786414791865173 -0.7112048028400656 0.92144827372638283 0.20711420687522122 -0.034124504945934934 241.89650000000003 0.46637763921042324 254.89400000000003 -0.23282799697220266 -0.86388927571250695 -0.58636800185564775 0.013975035796498171 0.9428324970620402 -0.070284763384729096 0.31224685105613442 0.13374336657394761 -0.33267153578408715 -0.9311893149057292 -0.15911433745427475 -0.0093107569112804694 -0.78631030101427923
decision_type=2 10 10 10 2 2 2 2 2 2 2 8 2 2 8 2 10 2 2 2 2 2 2 2 2 2 10 2 2 2
left_child=1 2 5 -4 -5 6 10 9 21 17 18 -10 24 22 15 23 20 25 26 -12 28 -7 -11 -14 -9 -8 -1 -19 -15 -20
right_child=-2 -3 3 4 -6 8 7 12 11 13 19 -13 14 16 -16 -17 -18 27 29 -21 -22 -23 -24 -25 -26 -27 -28 -29 -30 -31
leaf_value=-0.19037999819826198 10.232893742620945 -3.1904757043589718 0.06184957903513516 0.42349195440902432 1.2585623979568483 0.051040291075002069 -0.1115252243147956 -0.048980873347034118 0.099645543808028814 -0.074042599542788176 -0.14801123787959417 0.18496763530449989 -0.029294450399352287 -0.064931491944041561 -0.060530549306422481 0.01653950278647244 -0.10068246878683568 -0.088118298318650992 -0.17053064061146159 -0.12760512746042676 -0.057332706671269218 0.082904510117239427 -0.068821461314524698 -0.011353656746047949 -0.039537597193437468 -0.098620878104810364 -0.18036181303171012 -0.08083836821218332 -0.062003584750398189 -0.16113773304969073
leaf_weight=54 32 23 22 34 20 22 36 169 21 431 72 39 41 685 20 30 20 90 51 72 488 27 817 28 85 54 65 144 668 64
leaf_count=54 32 23 22 34 20 22 36 169 21 431 72 39 41 685 20 30 20 90 51 72 488 27 817 28 85 54 65 144 668 64
internal_value=-2.29607e-09 -0.0745566 -0.0581533 0.538561 0.732777 -0.0687171 -0.0735349 -0.064848 0.116217 -0.0678531 -0.161001 0.155105 -0.03719 -0.065625 -0.0187681 -0.0103312 -0.0622722 -0.089234 -0.175273 -0.137808 -0.0618549 0.0685981 -0.0706246 -0.0220141 -0.0458207 -0.103783 -0.184908 -0.0836383 -0.0634859 -0.165303
internal_weight=4424 4392 4369 76 54 4293 4184 3806 109 3433 378 60 373 3109 119 99 1861 324 234 144 1841 49 1248 69 254 90 119 234 1353 115
internal_count=4424 4392 4369 76 54 4293 4184 3806 109 3433 378 60 373 3109 119 99 1861 324 234 144 1841 49 1248 69 254 90 119 234 1353 115
is_linear=0
shrinkage=0.05


Tree=27
num_leaves=31
num_cat=0
split_feature=5 8 11 11 11 12 11 11 11 2 11 7 11 11 11 11 6 11 11 8 11 11 11 11 11 11 8 11 11 12
split_gain=1.33649e+06 96289.4 15925.4 2903.42 1159.04 304.164 148.143 57.1267 56.1653 51.2678 83.9123 38.0254 38.9864 21.0336 15.9251 14.6587 11.4476 8.92714 8.45582 8.16144 6.69909 2.50753 2.41694 2.21277 1.81326 1.32533 1.14469 1.08911 0.977131 0.894577
threshold=682.70800000000008 3.4736989278862773 4.5096185978643328 0.83676171183830095 -0.36990549464180994 2.7418705502372442 0.13374336657394761 -0.073708219183130461 -0.7112048028400656 0.77224090841176773 1.9571898834296355 237750.00000000003 0.57720251058728367 0.022127485259083705 1.3480874902198374 -0.18270596041283646 336.67999267578131 0.31224685105613442 -0.53302922896616212 0.27337798773391536 -0.032091622509954669 0.066274454371082162 -0.11786414791865173 0.20711420687522122 -0.26033365984407048 -0.0062216240888915411 0.30506510855281982 -0.61430799325767549 -0.46277136174752864 -0.77216942087056684
decision_type=10 10 2 2 2 10 2 2 2 8 2 2 2 2 2 2 2 2 2 10 2 2 2 2 2 2 10 2 2 10
left_child=1 2 3 4 8 9 7 15 19 -5 14 -8 17 16 -11 24 20 23 27 29 -9 -15 -17 -13 -6 -22 -21 -10 -20 -1
right_child=-2 -3 -4 5 6 -7 11 13 18 10 -12 12 -14 21 -16 22 -18 -19 28 26 25 -23 -24 -25 -26 -27 -28 -29 -30 -31
leaf_value=-0.16123282492160798 10.517536582946779 -3.0485352904708298 0.97951563628944194 0.064207219249672362 -0.09871286120679644 0.29174275378621112 -0.080537602429588642 -0.065419330245308702 -0.14291884700457255 0.075275609791278841 0.23149513602256777 -0.037376011230728846 0.036623726272955535 -0.053823431309981233 0.13462117360188411 -0.077683979272842416 -0.099164962129933504 -0.0060951184565201412 -0.12126379675335355 -0.17328870532413324 -0.06141545289092594 -0.046531829229120678 -0.070650521795216359 -0.023266955402990185 -0.086592319028245088 -0.058344338443293169 -0.18570774741794752 -0.13169144756264159 -0.10961421993043688 -0.15240465099161324
leaf_weight=60 30 27 37 27 54 37 24 912 54 20 20 66 32 390 26 180 21 50 36 96 720 169 380 48 72 686 23 36 36 55
leaf_count=60 30 27 37 27 54 37 24 912 54 20 20 66 32 390 26 180 21 50 36 96 720 169 380 48 72 686 23 36 36 55
internal_value=-2.48296e-09 -0.0718084 -0.0534041 -0.0622304 -0.0694337 0.17049 -0.060959 -0.0634037 -0.150842 0.122249 0.145993 -0.0211333 -0.0138593 -0.0603324 0.108819 -0.0763782 -0.0624148 -0.0237097 -0.128211 -0.166509 -0.0620819 -0.051619 -0.0729113 -0.0314354 -0.0917868 -0.059917 -0.175689 -0.138428 -0.115439 -0.157011
internal_weight=4424 4394 4367 4330 4200 130 3804 3584 396 93 66 220 196 2898 46 686 2339 164 162 234 2318 559 560 114 126 1406 119 90 72 115
internal_count=4424 4394 4367 4330 4200 130 3804 3584 396 93 66 220 196 2898 46 686 2339 164 162 234 2318 559 560 114 126 1406 119 90 72 115
is_linear=0
shrinkage=0.05


Tree=28
num_leaves=31
num_cat=0
split_feature=10 5 12 2 9 9 9 9 9 12 2 12 9 9 5 9 9 5 10 9 9 10 9 9 9 9 9 10 9 9
split_gain=1.2215e+06 112383 8816.92 1447.57 1246.72 1035.9 103.119 65.0411 54.0114 40.8303 32.5716 29.0969 16.2761 16.1871 14.8053 10.2529 10.1933 10.1872 6.67237 5.79648 5.119 4.15376 2.0873 1.74191 1.42951 1.41524 1.19989 1.00525 0.947084 0.862074
threshold=11.399177794160378 682.70800000000008 2.7418705502372442 1.071707650041531 0.70702937105995756 -0.41652655234517222 0.078720548573799967 1.3480874902198374 -0.10900740951397335 -0.73275977266394399 0.84953567084720705 1.9357385197259827 0.20711420687522122 -0.033370444343457199 241.89650000000003 -0.23282799697220266 0.46637763921042324 254.89400000000003 -0.56763643127471719 -0.89789387737627646 0.014950047598017104 0.9428324970620402 -0.067153908168152518 0.31224685105613442 -0.15911433745427475 0.13374336657394761 -0.33267153578408715 -0.80697801999787744 -0.0093107569112804694 0.045368843849525449
decision_type=2 10 10 8 2 2 2 2 2 10 10 10 2 2 8 2 2 10 2 2 2 2 2 2 2 2 2 2 2 2
left_child=1 2 4 -4 5 9 8 21 15 19 -9 -12 25 22 16 26 23 20 -11 -1 28 -6 -10 -14 -17 -8 -7 -21 -15 -22
right_child=-2 -3 3 -5 7 6 12 10 13 18 11 -13 14 17 -16 24 -18 -19 -20 27 29 -23 -24 -25 -26 -27 -28 -29 -30 -31
leaf_value=-0.16935522927178279 9.7334338739514354 -3.5568287393321167 0.69381923878040075 0.25723898805476525 0.046054950475015427 -0.10074078589677811 -0.043445591838271534 0.087726563792675738 -0.066231140223653798 -0.13535095504535141 0.12323049798607827 0.20851952731609347 -0.026526696035047859 -0.058570514137516488 -0.056547486097551884 -0.079560934570100578 0.014949312473957739 -0.091503746546804918 -0.11499641638406566 -0.15711543787093391 -0.052803382998082175 0.075323132287572939 -0.061888724009804955 -0.010348284736807857 -0.071961064234074931 -0.035209522913484018 -0.088956200800560145 -0.14811044325594044 -0.055924575794352227 -0.048431777287932007
leaf_weight=90 32 23 39 37 22 36 135 20 428 93 20 20 41 668 20 90 30 20 71 63 335 27 783 28 198 85 54 61 685 170
leaf_count=90 32 23 39 37 22 36 135 20 428 93 20 20 41 668 20 90 30 20 71 63 335 27 783 28 198 85 54 61 685 170
internal_value=2.29058e-09 -0.0709175 -0.0525664 0.481274 -0.0620171 -0.0663662 -0.0585257 0.104922 -0.0610992 -0.14531 0.139826 0.165875 -0.0322058 -0.0589161 -0.0173094 -0.0789394 -0.0093825 -0.0560096 -0.126539 -0.159696 -0.0556275 0.0621823 -0.0634235 -0.0199615 -0.074336 -0.0402635 -0.09367 -0.152686 -0.0572309 -0.0513318
internal_weight=4424 4392 4369 76 4293 4184 3806 109 3467 378 60 40 339 3089 119 378 99 1878 164 214 1858 49 1211 69 288 220 90 124 1353 505
internal_count=4424 4392 4369 76 4293 4184 3806 109 3467 378 60 40 339 3089 119 378 99 1878 164 214 1858 49 1211 69 288 220 90 124 1353 505
is_linear=0
shrinkage=0.05


Tree=29
num_leaves=31
num_cat=0
split_feature=5 10 9 9 2 9 12 9 1 9 6 9 7 9 9 7 9 5 9 10 9 9 9 9 9 10 9 9 12 9
split_gain=1.21169e+06 104392 7966.96 1641.43 1556.94 934.897 114.267 93.0653 52.0885 48.8001 45.8016 36.9202 18.3209 27.9501 16.0695 14.9216 10.5377 9.54586 7.74676 6.68639 4.77658 4.64373 4.44677 3.34469 2.22843 1.09539 1.0829 0.933375 0.909824 0.870568
threshold=682.70800000000008 11.399177794160378 3.5498521383158406 0.70702937105995756 1.0792637580985589 -0.41652655234517222 1.511622369457893 0.078720548573799967 15.480260000000001 -0.11786414791865173 254.22999572753909 -0.7112048028400656 237750.00000000003 0.31224685105613442 -0.034837759147674389 143250.00000000003 1.0939253615528342 263.64700000000011 -0.23282799697220266 -0.88369357147957361 0.014950047598017104 0.19045556081281559 -0.53302922896616212 0.46637763921042324 -0.071582223030609557 -0.78631030101427923 -0.33267153578408715 -0.014661309677124533 -0.63002729446958883 -0.15911433745427475
decision_type=10 2 2 2 8 2 10 2 10 2 2 2 2 2 2 2 2 10 2 2 2 2 2 2 2 2 2 2 10 2
left_child=1 2 3 5 -4 11 16 9 -8 18 -10 19 15 21 24 -9 -5 20 26 -1 27 -14 28 -15 -11 -21 -7 -16 -13 -20
right_child=-2 -3 4 6 -6 7 8 12 10 14 -12 22 13 23 17 -17 -18 -19 29 25 -22 -23 -24 -25 -26 -27 -28 -29 -30 -31
leaf_value=-0.15991814171566684 10.014448134104413 -3.2901512222290039 0.77936276697343398 0.049158365186303857 0.24902844429016113 -0.095703745716147953 0.095721152648329741 -0.037641160310925667 0.23454390190265798 -0.063583812700215611 0.13471356138586998 -0.1295297376963557 -0.038617615611889422 -0.0081486210473954226 -0.056018159628776702 -0.091245504245162021 0.09040636176864307 -0.087633007429540166 -0.075582886040210739 -0.14729232244631824 -0.048749805945652751 -0.022249729807178181 -0.10678206571826228 0.014362946892100754 -0.059080962316934452 -0.13817859347909689 -0.08450838956567977 -0.053368472437612439 -0.11943534961560878 -0.069314197575052583
leaf_weight=102 30 25 31 32 25 36 20 37 27 414 20 49 156 33 553 20 30 20 90 68 506 60 54 33 817 64 54 833 41 144
leaf_count=102 30 25 31 32 25 36 20 37 27 414 20 49 156 33 553 20 30 20 90 68 506 60 54 33 817 64 54 833 41 144
internal_value=-1.91672e-09 -0.0683736 -0.0499381 -0.0576317 0.542606 -0.0630479 0.118036 -0.0555994 0.163304 -0.0580442 0.192063 -0.138045 -0.0305956 -0.0253697 -0.0561396 -0.0564497 0.0691171 -0.0532709 -0.07652 -0.150303 -0.0529077 -0.034071 -0.118125 0.00310716 -0.0605953 -0.142874 -0.0889865 -0.0544257 -0.124931 -0.0717252
internal_weight=4424 4394 4369 4313 56 4184 129 3806 67 3467 47 378 339 282 3143 57 62 1912 324 234 1892 216 144 66 1231 132 90 1386 90 234
internal_count=4424 4394 4369 4313 56 4184 129 3806 67 3467 47 378 339 282 3143 57 62 1912 324 234 1892 216 144 66 1231 132 90 1386 90 234
is_linear=0
shrinkage=0.05


Tree=30
num_leaves=31
num_cat=0
split_feature=9 5 8 4 9 9 8 9 9 9 9 7 9 7 9 9 4 8 9 9 9 8 4 9 9 9 9 9 8 9
split_gain=1.10943e+06 134401 7125.49 2742.72 1809.75 843.744 151.19 84.2604 53.3272 41.8092 33.3409 20.9233 18.9461 28.4018 11.9637 8.15967 8.01358 14.7612 6.99145 5.32677 4.87606 3.89507 3.48424 2.63214 1.90913 1.80212 1.72168 0.97732 0.876981 0.785687
threshold=11.035195934065362 682.70800000000008 1.3534814394274479 203.83550000000005 0.70702937105995756 -0.41652655234517222 0.83957650835489839 0.049988576087337096 1.3480874902198374 -0.11786414791865173 -0.73195567919373161 2374450.0000000005 0.19045556081281559 482650.00000000006 -0.036861741366511373 0.46637763921042324 751.22500000000002 0.0092755264018258236 -0.23282799697220266 -0.58636800185564775 -0.89789387737627646 0.30506510855281982 293.77200000000005 0.0027373585163155138 0.31224685105613442 -0.073708219183130461 0.11134347094217535 -0.33267153578408715 0.25901766275771404 -0.15911433745427475
decision_type=2 10 10 10 2 2 10 2 2 2 2 2 2 2 2 2 8 10 2 2 2 10 10 2 2 2 2 2 10 2
left_child=1 2 4 -4 5 10 8 9 21 18 20 -10 26 -14 25 24 22 -18 27 -12 -1 -6 23 -16 -15 -11 -9 -7 -22 -20
right_child=-2 -3 3 -5 6 7 -8 12 11 14 19 -13 13 15 16 -17 17 -19 29 -21 28 -23 -24 -25 -26 -27 -28 -29 -30 -31
leaf_value=-0.15289156370692783 9.2761671572923667 -3.8797096667082416 0.19079328775405885 0.98031530163504854 0.040911463680474658 -0.090918557345867165 0.21975852193370946 -0.041780927726991074 0.098067997442558411 -0.060586535634080833 -0.12210536188549466 0.15670556033608216 -0.070823098328851516 -0.021123829457376685 -0.052321183308324373 0.013861112244194375 -0.050212842313682331 -0.10434715911746024 -0.071803741719987657 -0.10385918865601224 -0.13361267456641565 0.069158628812203041 -0.029960453333333137 -0.048241245421587226 -0.0049373980025174445 -0.056390112977222774 -0.034011802756611038 -0.080282969496868278 -0.14195964375480277 -0.06584848773976168
leaf_weight=90 32 23 22 22 23 36 31 237 32 380 90 29 21 56 1174 32 34 20 90 72 65 26 20 596 27 783 102 54 61 144
leaf_count=90 32 23 22 22 23 36 31 237 32 380 90 29 21 56 1174 32 34 20 90 72 65 26 20 596 27 783 102 54 61 144
internal_value=1.88054e-10 -0.0675859 -0.0475175 0.585554 -0.053958 -0.0598955 0.122229 -0.0528194 0.094743 -0.0556288 -0.131143 0.125945 -0.0331184 -0.0173527 -0.05379 -0.0075886 -0.0512854 -0.0702626 -0.072694 -0.113996 -0.144003 0.0558998 -0.0507129 -0.0509474 -0.0158584 -0.0577613 -0.0394433 -0.0845372 -0.137654 -0.068139
internal_weight=4424 4392 4369 44 4325 4184 141 3806 110 3331 378 61 475 136 3007 115 1844 54 324 162 216 49 1790 1770 83 1163 339 90 126 234
internal_count=4424 4392 4369 44 4325 4184 141 3806 110 3331 378 61 475 136 3007 115 1844 54 324 162 216 49 1790 1770 83 1163 339 90 126 234
is_linear=0
shrinkage=0.05


Tree=31
num_leaves=31
num_cat=0
split_feature=5 8 10 10 10 8 12 10 8 12 1 0 12 5 12 4 10 8 12 4 10 12 0 12 12 12 8 8 4 12
split_gain=1.10288e+06 137815 11762.9 1814.69 759.533 194.707 67.1031 37.4529 33.9544 26.3552 18.4068 23.0038 17.3586 18.5563 13.9551 16.0206 13.2157 5.7219 5.71673 4.35824 3.65235 3.56806 3.03433 2.84162 1.67229 1.22026 0.953796 0.898958 0.832173 0.829128
threshold=682.70800000000008 3.4736989278862773 4.6435702634632428 0.74186461955666239 -0.33575500224956206 0.83957650835489839 0.20563609801709951 -0.70012723314726555 0.39161726080330123 -0.0058986870217621048 17.217980000000001 34427330048.500008 0.77085797855913696 343.3155000000001 -0.16791689142503738 559.00300000000004 0.33001863724472197 0.27337798773391536 -0.48972880083811066 310.01350000000008 -0.050540145012981867 0.062104068629633143 1092618914.5000002 -0.07791089827512164 0.34048757287427339 0.13504102406390819 0.30506510855281982 0.095466719648905352 238.78250000000003 -0.23529134727716947
decision_type=10 10 2 2 2 10 10 2 10 8 10 10 10 8 10 8 2 10 10 10 2 10 10 10 10 10 10 10 10 10
left_child=1 2 3 4 7 8 9 17 -5 14 -10 -12 13 16 20 23 22 -1 -9 21 27 -11 -8 -16 -24 -23 -19 -6 -25 -22
right_child=-2 -3 -4 5 6 -7 12 18 10 19 11 -13 -14 -15 15 -17 -18 26 -20 -21 29 25 24 28 -26 -27 -28 -29 -30 -31
leaf_value=-0.12766349551056613 9.5542260551452642 -3.6264425277709962 0.84451091128426636 0.05535868206306508 -0.073634714660821138 0.22811491621865168 -0.036486402327475485 -0.11157822919928509 0.075573652423918253 -0.049144146939882866 0.16936411288651554 0.096202484057063165 0.021501012369990351 -0.073040742576122294 -0.057384102623863266 -0.096779183637012142 0.0034750583653266618 -0.14097780250012876 -0.091838967213865197 -0.024220857406035065 -0.067775117986056274 -0.045783014407103091 -0.028109436873346567 -0.052641901912630233 -0.011820921799741112 -0.040553236544132232 -0.15231411405231643 -0.085264841218789425 -0.042346217446029191 -0.058941053984494042
leaf_weight=119 30 27 37 38 54 36 73 92 20 1300 22 21 20 20 401 22 39 96 61 20 49 435 40 1051 26 150 23 24 20 58
leaf_count=119 30 27 37 38 54 36 73 92 20 1300 22 21 20 20 401 22 39 96 61 20 49 435 40 1051 26 150 23 24 20 58
internal_value=-1.85277e-09 -0.0652314 -0.0432134 -0.050799 -0.05665 0.128274 -0.0498256 -0.123009 0.0926868 -0.0514638 0.115202 0.133634 -0.0228922 -0.0273763 -0.0560309 -0.0544269 -0.0222455 -0.135416 -0.103708 -0.0474385 -0.0689848 -0.0476849 -0.0294621 -0.0537939 -0.0216927 -0.044442 -0.143169 -0.0772132 -0.0524496 -0.0629866
internal_weight=4424 4394 4367 4330 4193 137 3802 391 101 3584 63 43 218 198 1679 1494 178 238 153 1905 185 1885 139 1472 66 585 119 78 1071 107
internal_count=4424 4394 4367 4330 4193 137 3802 391 101 3584 63 43 218 198 1679 1494 178 238 153 1905 185 1885 139 1472 66 585 119 78 1071 107
is_linear=0
shrinkage=0.05


Tree=32
num_leaves=31
num_cat=0
split_feature=10 5 8 2 9 9 4 9 9 9 8 1 0 9 1 9 5 9 9 9 9 8 9 9 9 8 9 9 10 8
split_gain=1.01383e+06 155377 5553.2 1214.4 837.887 688.06 156.805 70.7126 43.8715 34.9199 27.1636 15.4869 27.8846 15.1811 12.6288 8.61503 9.02598 7.37621 6.61193 4.23961 4.15372 3.14374 2.11576 1.77834 1.16932 1.1148 0.998882 0.815892 0.793323 0.64923
threshold=11.399177794160378 682.70800000000008 0.83957650835489839 1.0792637580985589 0.70702937105995756 -0.41652655234517222 197.80500000000004 0.049988576087337096 1.3480874902198374 -0.1043200703360969 0.22991600314208746 19.223065000000002 34427330048.500008 0.16900357261036716 45.809910000000009 -0.035347234404526966 263.64700000000011 -0.21482828969428722 0.46637763921042324 -0.89789387737627646 -0.58636800185564775 0.30506510855281982 -0.001515517032242286 0.24461505143578535 -0.063433178374895413 0.10129002430823313 0.11134347094217535 -0.14401793615330191 -0.80697801999787744 0.15057629933882119
decision_type=2 10 10 8 2 2 10 2 2 2 10 10 10 2 10 2 10 2 2 2 2 10 2 2 2 10 2 2 2 10
left_child=1 2 4 6 5 10 -4 9 21 17 20 -10 -13 26 18 24 22 25 23 -12 -1 -6 -17 -15 -11 -7 -9 -19 -21 -22
right_child=-2 -3 3 -5 8 7 -8 13 11 15 19 12 -14 14 -16 16 -18 27 -20 28 29 -23 -24 -25 -26 -27 -28 -29 -30 -31
leaf_value=-0.10988804801952008 8.8674922853708278 -4.1634355130402936 0.47270617067813875 0.16841262936592105 0.037039517967597295 -0.071016033264723694 0.67069918245077131 -0.037453306035653451 0.077965670041739946 -0.053686233425269958 -0.13805324011378819 0.17388581693172456 0.091392359421366753 -0.024187657203186642 -0.053700254728319123 -0.04736365163929699 -0.079566869139671328 -0.062955294927907371 0.012085357069969178 -0.12800045618935238 -0.087622655715261191 0.06241653034320245 -0.043894513734379172 -0.011129768699902343 -0.050406366061553902 -0.081436411823545191 -0.031135426549350517 -0.057709329488376787 -0.12021281631553876 -0.097405952353810166
leaf_weight=86 32 23 20 35 23 66 20 237 20 460 90 20 21 44 20 968 20 126 25 63 28 26 805 64 664 42 85 180 68 43
leaf_count=86 32 23 20 35 23 66 20 237 20 460 90 20 21 44 20 968 20 126 25 63 28 26 805 64 664 42 85 180 68 43
internal_value=-6.97245e-10 -0.0646083 -0.0430306 0.383501 -0.0504805 -0.0540617 0.571703 -0.0476718 0.0857364 -0.0502454 -0.118401 0.114037 0.131633 -0.029624 -0.0166564 -0.0483167 -0.0461653 -0.0638344 -0.0110859 -0.129698 -0.102498 0.0505049 -0.0457885 -0.0164496 -0.0517487 -0.0750684 -0.0357855 -0.0598694 -0.123958 -0.0935478
internal_weight=4424 4392 4369 75 4294 4184 40 3806 110 3331 378 61 41 475 153 2917 1793 414 133 221 157 49 1773 108 1124 108 322 306 131 71
internal_count=4424 4392 4369 75 4294 4184 40 3806 110 3331 378 61 41 475 153 2917 1793 414 133 221 157 49 1773 108 1124 108 322 306 131 71
is_linear=0
shrinkage=0.05


Tree=33
num_leaves=31
num_cat=0
split_feature=5 8 12 9 9 9 9 9 3 9 9 7 9 8 9 6 9 9 12 9 9 9 9 5 9 9 9 8 9 8
split_gain=1.0077e+06 156415 10219.7 1953.06 627.246 278.18 79.6844 49.7738 47.3111 36.914 28.1951 23.4221 24.304 10.0505 8.87799 10.574 8.03105 6.80566 6.71145 3.46862 2.37449 1.25824 1.25453 1.2473 1.13801 1.06574 1.05525 0.704985 0.607073 0.459172
threshold=682.70800000000008 3.4736989278862773 5.6540212123951026 0.83676171183830095 -0.33267153578408715 3.5498521383158406 0.11134347094217535 1.9571898834296355 48.689500000000002 -0.65578378239279644 -0.05470117285033254 237750.00000000003 0.57720251058728367 0.39161726080330123 0.022127485259083705 310.80000305175787 -0.14401793615330191 0.24461505143578535 -0.82008724274179434 -0.4947734619716701 -0.016173161470468374 -0.20685605370782437 -0.90975528819722762 162.60250000000002 -0.09129018075461913 0.31224685105613442 0.054366235135171588 0.23537020636593212 0.16900357261036716 0.12897013490790057
decision_type=10 10 10 2 2 2 2 2 10 2 2 2 2 10 2 2 2 2 10 2 2 2 2 8 2 2 2 10 2 10
left_child=1 2 3 4 9 7 10 13 -9 18 16 -8 17 -5 15 20 21 28 22 -11 -12 -6 -1 25 -18 -19 -16 -20 -13 -21
right_child=-2 -3 -4 5 6 -7 11 8 -10 19 14 12 -14 -15 26 -17 24 23 27 29 -22 -23 -24 -25 -26 -27 -28 -29 -30 -31
leaf_value=-0.13242999398046071 9.1326595020294192 -3.856276116547761 0.93085441501052291 0.055331134001413984 -0.067136352840397095 0.28297240535418194 -0.059905999975985495 0.19734479209238834 0.09583365234235923 -0.096801741917928064 -0.046639830297713389 -0.029809282487933186 0.028194162563886495 0.094275031379751267 -0.039807334114213166 -0.081502264903392643 -0.054055783781798906 -0.019216562177126223 -0.10816189675561844 -0.076940784490469732 -0.043189277423024794 -0.059131546815236413 -0.12309618542591733 0.0025795762227582082 -0.050102103691475067 -0.005852478692041977 -0.035204229037749946 -0.11564289126545191 -0.022184930582131661 -0.084954509979639312
leaf_weight=72 30 27 27 30 90 27 29 22 24 72 1027 69 32 37 322 20 283 26 62 33 969 108 72 21 510 35 203 64 42 39
leaf_count=72 30 27 27 30 90 27 29 22 24 72 1027 69 32 37 322 20 283 26 62 33 969 108 72 21 510 35 203 64 42 39
internal_value=1.92369e-09 -0.0623532 -0.0388963 -0.0449294 -0.0510532 0.138785 -0.0446636 0.104334 0.144382 -0.109486 -0.0466088 -0.017614 -0.0121631 0.0768375 -0.043819 -0.0453272 -0.0537622 -0.0188544 -0.120389 -0.0890416 -0.0449647 -0.0627701 -0.127763 -0.00793044 -0.0515131 -0.0115486 -0.0380275 -0.111962 -0.0269244 -0.0812816
internal_weight=4424 4394 4367 4340 4200 140 3786 113 46 414 3532 254 225 67 2541 2016 991 193 270 144 1996 198 144 82 793 61 525 126 111 72
internal_count=4424 4394 4367 4340 4200 140 3786 113 46 414 3532 254 225 67 2541 2016 991 193 270 144 1996 198 144 82 793 61 525 126 111 72
is_linear=0
shrinkage=0.05


Tree=34
num_leaves=31
num_cat=0
split_feature=9 5 9 5 9 9 10 9 3 9 9 9 7 9 9 5 9 9 10 10 10 9 9 9 9 1 10 5 9 10
split_gain=928051 175010 4401.65 2185.33 967.351 560.428 63.5017 57.7611 35.5411 27.7245 22.2433 14.2191 25.4789 10.7229 7.52666 8.59615 6.90634 4.61561 4.03141 2.71989 2.2543 1.62009 1.57048 1.23631 1.11883 0.771959 0.681182 0.624519 0.612317 0.56024
threshold=11.035195934065362 682.70800000000008 3.5498521383158406 162.60250000000002 0.70702937105995756 -0.41652655234517222 1.7104346753605313 0.039421875711537886 54.905000000000008 -0.11786414791865173 -0.7112048028400656 0.16900357261036716 435100.00000000006 1.3480874902198374 -0.039090087692568325 263.64700000000011 0.31224685105613442 -0.23282799697220266 -0.88369357147957361 -0.56763643127471719 0.9428324970620402 0.46637763921042324 -0.0036597488475121338 0.078720548573799967 -0.075966519929159079 21.297455000000003 -0.78631030101427923 372.34350000000001 -0.33267153578408715 -0.95187554019993825
decision_type=2 10 2 10 2 2 2 2 10 2 2 2 2 2 2 10 2 2 2 2 2 2 2 2 2 10 2 8 2 2
left_child=1 2 4 -4 5 10 13 9 -8 17 18 23 -13 20 24 22 25 28 29 -12 -6 -18 -16 -9 -11 -14 -20 -25 -7 -1
right_child=-2 -3 3 -5 6 7 8 11 -10 14 19 12 16 -15 15 -17 21 -19 26 -21 -22 -23 -24 27 -26 -27 -28 -29 -30 -31
leaf_value=-0.12907798500622022 8.4840749070048336 -4.4118967719700022 0.027387242213539456 0.66228154536449546 0.033616308461536064 -0.074133096966478559 0.1585245220645054 -0.035607223280145033 0.077084250393367956 -0.049672993446964062 -0.098172387766511479 -0.067816395629197362 -0.02119926854091532 0.087516253763301813 -0.043039413935647995 -0.074678962742909791 -0.0037163068845482736 -0.055758248231349852 -0.11408721506595612 -0.084427647439526854 0.055177871165452176 0.012482342081652447 -0.040073673969470203 -0.031080928723137065 -0.046235202979022894 -0.0096089296974241744 -0.10690027382224798 -0.021728375088423492 -0.065714662301319615 -0.12121725082397461
leaf_weight=34 32 23 23 33 22 36 37 221 21 346 73 20 51 22 1002 20 29 234 68 71 27 33 805 166 749 20 64 20 54 68
leaf_count=34 32 23 23 33 22 36 37 221 21 346 73 20 51 22 1002 20 29 234 68 71 27 33 805 166 749 20 64 20 54 68
